{"learner":{"attributes":{"best_iteration":"21","best_score":"0.00761582797493416","scikit_learn":"{\"_estimator_type\": \"regressor\"}"},"feature_names":["cpu_lag1","cpu_lag2","cpu_lag3","cpu_lag5","cpu_lag10","cpu_rmean30s","cpu_rvar30s","cpu_rmean60s","cpu_rvar60s","cpu_rmean120s","cpu_rvar120s","cpu_diff1","cpu_logdiff1"],"feature_types":["float","float","float","float","float","float","float","float","float","float","float","float","float"],"gradient_booster":{"model":{"gbtree_model_param":{"num_parallel_tree":"1","num_trees":"42"},"iteration_indptr":[0,1,2,3,4,5,6,7,8,9,10,11,12,13,14,15,16,17,18,19,20,21,22,23,24,25,26,27,28,29,30,31,32,33,34,35,36,37,38,39,40,41,42],"tree_info":[0,0,0,0,0,0,0,0,0,0,0,0,0,0,0,0,0,0,0,0,0,0,0,0,0,0,0,0,0,0,0,0,0,0,0,0,0,0,0,0,0,0],"trees":[{"base_weights":[-7.2793027E-10,-1.744871E-3,1.2214092E-2,-5.781369E-3,9.546247E-4,1.5074556E-3,3.4396406E-4,-8.739677E-3,-2.461725E-3,-6.788314E-4,7.0662955E-3,-9.5827645E-3,-1.8920428E-4,-4.370164E-3,2.6108741E-3,6.498808E-4,-1.963286E-3,9.859139E-3,4.1224435E-4,-4.9078034E-4,-1.1634654E-3,-5.5985176E-4,-5.1382744E-5,4.2490195E-4,-1.9708536E-4,-4.1933614E-4,9.923617E-5,2.1713153E-4,1.0778558E-3,2.2968475E-4,-2.6207828E-4],"categories":[],"categories_nodes":[],"categories_segments":[],"categories_sizes":[],"default_left":[0,0,0,0,0,0,0,0,0,0,0,0,0,0,0,0,0,0,0,0,0,0,0,0,0,0,0,0,0,0,0],"id":0,"left_children":[1,3,5,7,9,-1,-1,11,13,15,17,19,-1,21,23,-1,25,27,29,-1,-1,-1,-1,-1,-1,-1,-1,-1,-1,-1,-1],"loss_changes":[1.8754567E-3,8.445502E-4,2.2423791E-4,2.829217E-4,4.7400463E-4,0E0,0E0,7.423945E-5,1.6630192E-4,3.6309438E-4,1.8177292E-4,7.719442E-5,0E0,5.3966636E-5,4.590187E-5,0E0,2.216748E-4,2.6074646E-5,2.888375E-5,0E0,0E0,0E0,0E0,0E0,0E0,0E0,0E0,0E0,0E0,0E0,0E0],"parents":[2147483647,0,0,1,1,2,2,3,3,4,4,7,7,8,8,9,9,10,10,11,11,13,13,14,14,16,16,17,17,18,18],"right_children":[2,4,6,8,10,-1,-1,12,14,16,18,20,-1,22,24,-1,26,28,30,-1,-1,-1,-1,-1,-1,-1,-1,-1,-1,-1,-1],"split_conditions":[8.7019525E-2,7.424997E-2,9.449155E-2,7.2468154E-2,4.6200464E-3,1.5074556E-3,3.4396406E-4,8.240562E-2,7.180967E-2,1.9708381E-5,8.242679E-2,4.423987E-5,-1.8920428E-4,7.90673E-2,7.3214896E-2,6.498808E-4,8.066881E-2,6.962821E-2,8.2454436E-2,-4.9078034E-4,-1.1634654E-3,-5.5985176E-4,-5.1382744E-5,4.2490195E-4,-1.9708536E-4,-4.1933614E-4,9.923617E-5,2.1713153E-4,1.0778558E-3,2.2968475E-4,-2.6207828E-4],"split_indices":[7,1,9,5,11,0,0,4,1,10,9,10,0,3,1,0,5,0,0,0,0,0,0,0,0,0,0,0,0,0,0],"split_type":[0,0,0,0,0,0,0,0,0,0,0,0,0,0,0,0,0,0,0,0,0,0,0,0,0,0,0,0,0,0,0],"sum_hessian":[8.6E1,7.6E1,1E1,3E1,4.6E1,7E0,3E0,1.5E1,1.5E1,3.7E1,9E0,1.3E1,2E0,1.1E1,4E0,5E0,3.2E1,6E0,3E0,5E0,8E0,8E0,3E0,3E0,1E0,1.8E1,1.4E1,1E0,5E0,2E0,1E0],"tree_param":{"num_deleted":"0","num_feature":"13","num_nodes":"31","size_leaf_vector":"1"}},{"base_weights":[1.39869235E-5,-1.5786245E-3,1.1160995E-2,-5.275066E-3,8.9304196E-4,1.44862E-2,4.2735087E-4,-8.835007E-3,-2.875348E-3,-6.022708E-4,6.4859265E-3,4.2233057E-4,1.5492798E-3,-2.913924E-4,-1.0484933E-2,-4.1344794E-3,7.517052E-4,5.957237E-4,-1.776658E-3,9.058225E-3,3.629215E-4,-3.343123E-4,-1.2047861E-3,2.0361469E-4,-5.2404334E-4,2.3586005E-4,-1.6413903E-4,-3.796098E-4,8.997431E-5,2.0627491E-4,9.880346E-4,2.1437232E-4,-2.489742E-4],"categories":[],"categories_nodes":[],"categories_segments":[],"categories_sizes":[],"default_left":[0,0,0,0,0,0,0,0,0,0,0,0,0,0,0,0,0,0,0,0,0,0,0,0,0,0,0,0,0,0,0,0,0],"id":1,"left_children":[1,3,5,7,9,11,-1,13,15,17,19,-1,-1,-1,21,23,25,-1,27,29,31,-1,-1,-1,-1,-1,-1,-1,-1,-1,-1,-1,-1],"loss_changes":[1.562117E-3,7.082114E-4,1.9001844E-4,2.3942487E-4,3.9697252E-4,6.883405E-6,0E0,8.667976E-5,9.4446645E-5,3.0331325E-4,1.5421456E-4,0E0,0E0,0E0,6.0181716E-5,1.13036716E-4,2.6944108E-5,0E0,1.8177491E-4,1.987716E-5,2.565743E-5,0E0,0E0,0E0,0E0,0E0,0E0,0E0,0E0,0E0,0E0,0E0,0E0],"parents":[2147483647,0,0,1,1,2,2,3,3,4,4,5,5,7,7,8,8,9,9,10,10,14,14,15,15,16,16,18,18,19,19,20,20],"right_children":[2,4,6,8,10,12,-1,14,16,18,20,-1,-1,-1,22,24,26,-1,28,30,32,-1,-1,-1,-1,-1,-1,-1,-1,-1,-1,-1,-1],"split_conditions":[8.7019525E-2,7.424997E-2,9.86689E-2,7.010189E-2,4.6200464E-3,8.407631E-2,4.2735087E-4,6.661687E-2,7.758539E-2,1.9708381E-5,8.242679E-2,4.2233057E-4,1.5492798E-3,-2.913924E-4,1.067858E-6,8.330451E-6,7.3214896E-2,5.957237E-4,8.066881E-2,6.962821E-2,8.2454436E-2,-3.343123E-4,-1.2047861E-3,2.0361469E-4,-5.2404334E-4,2.3586005E-4,-1.6413903E-4,-3.796098E-4,8.997431E-5,2.0627491E-4,9.880346E-4,2.1437232E-4,-2.489742E-4],"split_indices":[7,1,2,5,11,1,0,9,9,10,9,0,0,0,6,8,4,0,5,0,0,0,0,0,0,0,0,0,0,0,0,0,0],"split_type":[0,0,0,0,0,0,0,0,0,0,0,0,0,0,0,0,0,0,0,0,0,0,0,0,0,0,0,0,0,0,0,0,0],"sum_hessian":[8.6E1,7.6E1,1E1,3E1,4.6E1,6E0,4E0,1.1E1,1.9E1,3.7E1,9E0,1E0,5E0,3E0,8E0,1.4E1,5E0,5E0,3.2E1,6E0,3E0,2E0,6E0,2E0,1.2E1,3E0,2E0,1.8E1,1.4E1,1E0,5E0,2E0,1E0],"tree_param":{"num_deleted":"0","num_feature":"13","num_nodes":"33","size_leaf_vector":"1"}},{"base_weights":[3.311128E-5,-1.4287289E-3,1.0262982E-2,-4.8146304E-3,8.3492365E-4,1.2681023E-2,2.8611554E-4,-7.347171E-3,-1.981175E-3,-5.3399E-4,5.953303E-3,1.4201731E-3,5.412601E-4,-3.947518E-3,-8.992211E-3,-3.5970293E-3,2.29311E-3,2.894755E-3,-2.4327275E-3,8.323017E-3,3.1797774E-4,-5.817423E-4,-2.036071E-4,-9.777533E-4,-9.6215685E-5,-5.82712E-4,-1.7535938E-4,3.7615094E-4,-1.7902441E-4,-2.848649E-4,5.476982E-4,2.106489E-4,-3.6728563E-4,1.9596108E-4,9.056983E-4,2.0008061E-4,-2.3652539E-4],"categories":[],"categories_nodes":[],"categories_segments":[],"categories_sizes":[],"default_left":[0,0,0,0,0,0,0,0,0,0,0,0,0,0,0,0,0,0,0,0,0,0,0,0,0,0,0,0,0,0,0,0,0,0,0,0,0],"id":2,"left_children":[1,3,5,7,9,11,-1,13,15,17,19,-1,-1,21,23,25,27,29,31,33,35,-1,-1,-1,-1,-1,-1,-1,-1,-1,-1,-1,-1,-1,-1,-1,-1],"loss_changes":[1.3156991E-3,5.9418665E-4,1.605947E-4,2.0789506E-4,3.324901E-4,1.1556782E-5,0E0,5.3984113E-5,1.1875431E-4,2.5443305E-4,1.3089454E-4,0E0,0E0,1.3174875E-5,5.365425E-5,3.9113947E-5,3.6713995E-5,2.2323275E-4,1.4846715E-4,1.49455445E-5,2.279409E-5,0E0,0E0,0E0,0E0,0E0,0E0,0E0,0E0,0E0,0E0,0E0,0E0,0E0,0E0,0E0,0E0],"parents":[2147483647,0,0,1,1,2,2,3,3,4,4,5,5,7,7,8,8,9,9,10,10,13,13,14,14,15,15,16,16,17,17,18,18,19,19,20,20],"right_children":[2,4,6,8,10,12,-1,14,16,18,20,-1,-1,22,24,26,28,30,32,34,36,-1,-1,-1,-1,-1,-1,-1,-1,-1,-1,-1,-1,-1,-1,-1,-1],"split_conditions":[8.7019525E-2,7.424997E-2,9.449155E-2,7.2468154E-2,4.6200464E-3,3.3710505E-5,2.8611554E-4,4.423987E-5,7.180967E-2,7.772401E-2,8.242679E-2,1.4201731E-3,5.412601E-4,6.380913E-2,7.959806E-2,6.4217753E-4,7.3214896E-2,7.4728824E-2,2.9957742E-5,6.962821E-2,8.2454436E-2,-5.817423E-4,-2.036071E-4,-9.777533E-4,-9.6215685E-5,-5.82712E-4,-1.7535938E-4,3.7615094E-4,-1.7902441E-4,-2.848649E-4,5.476982E-4,2.106489E-4,-3.6728563E-4,1.9596108E-4,9.056983E-4,2.0008061E-4,-2.3652539E-4],"split_indices":[7,1,9,5,11,8,0,10,1,1,9,0,0,2,4,11,1,1,10,0,0,0,0,0,0,0,0,0,0,0,0,0,0,0,0,0,0],"split_type":[0,0,0,0,0,0,0,0,0,0,0,0,0,0,0,0,0,0,0,0,0,0,0,0,0,0,0,0,0,0,0,0,0,0,0,0,0],"sum_hessian":[8.6E1,7.6E1,1E1,3E1,4.6E1,7E0,3E0,1.5E1,1.5E1,3.7E1,9E0,5E0,2E0,6E0,9E0,1.1E1,4E0,1.3E1,2.4E1,6E0,3E0,2E0,4E0,8E0,1E0,4E0,7E0,3E0,1E0,4E0,9E0,5E0,1.9E1,1E0,5E0,2E0,1E0],"tree_param":{"num_deleted":"0","num_feature":"13","num_nodes":"37","size_leaf_vector":"1"}},{"base_weights":[4.127883E-5,-1.3020756E-3,9.441007E-3,-4.4112406E-3,7.763538E-4,1.1658101E-2,2.6465673E-4,-7.4673095E-3,-2.357037E-3,-4.777977E-4,5.464494E-3,1.3018255E-3,5.0517597E-4,-2.4481397E-4,-8.868351E-3,-3.0016033E-3,2.2960406E-4,5.0605573E-3,-1.4702926E-3,7.6480946E-3,2.7707033E-4,-2.7264582E-4,-1.0233683E-3,1.14530514E-4,-3.9073388E-4,1.4363528E-4,5.4981274E-4,8.068361E-5,-3.6609336E-4,1.8616319E-4,8.302233E-4,1.867421E-4,-2.2469908E-4],"categories":[],"categories_nodes":[],"categories_segments":[],"categories_sizes":[],"default_left":[0,0,0,0,0,0,0,0,0,0,0,0,0,0,0,0,0,0,0,0,0,0,0,0,0,0,0,0,0,0,0,0,0],"id":3,"left_children":[1,3,5,7,9,11,-1,13,15,17,19,-1,-1,-1,21,23,-1,25,27,29,31,-1,-1,-1,-1,-1,-1,-1,-1,-1,-1,-1,-1],"loss_changes":[1.1108565E-3,5.0101255E-4,1.348491E-4,1.7701066E-4,2.7895393E-4,6.12007E-6,0E0,6.267382E-5,6.687616E-5,2.1631847E-4,1.11153524E-4,0E0,0E0,0E0,4.7569803E-5,7.2083116E-5,0E0,1.6178383E-6,1.6757003E-4,1.1040334E-5,2.0252644E-5,0E0,0E0,0E0,0E0,0E0,0E0,0E0,0E0,0E0,0E0,0E0,0E0],"parents":[2147483647,0,0,1,1,2,2,3,3,4,4,5,5,7,7,8,8,9,9,10,10,14,14,15,15,17,17,18,18,19,19,20,20],"right_children":[2,4,6,8,10,12,-1,14,16,18,20,-1,-1,-1,22,24,-1,26,28,30,32,-1,-1,-1,-1,-1,-1,-1,-1,-1,-1,-1,-1],"split_conditions":[8.7019525E-2,7.424997E-2,9.449155E-2,7.010189E-2,4.6200464E-3,3.3710505E-5,2.6465673E-4,6.661687E-2,7.961005E-2,1.9708381E-5,8.242679E-2,1.3018255E-3,5.0517597E-4,-2.4481397E-4,1.067858E-6,8.330451E-6,2.2960406E-4,6.925871E-2,6.2515724E-6,6.962821E-2,8.2454436E-2,-2.7264582E-4,-1.0233683E-3,1.14530514E-4,-3.9073388E-4,1.4363528E-4,5.4981274E-4,8.068361E-5,-3.6609336E-4,1.8616319E-4,8.302233E-4,1.867421E-4,-2.2469908E-4],"split_indices":[7,1,9,5,11,8,0,9,9,10,9,0,0,0,6,8,0,2,6,0,0,0,0,0,0,0,0,0,0,0,0,0,0],"split_type":[0,0,0,0,0,0,0,0,0,0,0,0,0,0,0,0,0,0,0,0,0,0,0,0,0,0,0,0,0,0,0,0,0],"sum_hessian":[8.6E1,7.6E1,1E1,3E1,4.6E1,7E0,3E0,1.1E1,1.9E1,3.7E1,9E0,5E0,2E0,3E0,8E0,1.7E1,2E0,5E0,3.2E1,6E0,3E0,2E0,6E0,3E0,1.4E1,1E0,4E0,1.6E1,1.6E1,1E0,5E0,2E0,1E0],"tree_param":{"num_deleted":"0","num_feature":"13","num_nodes":"33","size_leaf_vector":"1"}},{"base_weights":[5.865221E-5,-1.1744789E-3,8.685238E-3,-4.0213256E-3,7.2821736E-4,1.193117E-2,3.9917664E-4,-6.1988104E-3,-1.5925076E-3,-4.1928043E-4,5.0158873E-3,3.4889206E-4,1.2921835E-3,-3.319075E-3,-7.5947447E-3,-3.036131E-3,2.1906898E-3,2.5717579E-3,-2.0774908E-3,7.028482E-3,2.3987517E-4,-5.00687E-4,-1.6425834E-4,-8.222758E-4,-9.713136E-5,-5.0483673E-4,-1.3989667E-4,3.491046E-4,-1.5053675E-4,-2.5065927E-4,4.8537576E-4,1.9344476E-4,-3.1771977E-4,1.7685517E-4,7.6103787E-4,1.7429268E-4,-2.1346398E-4],"categories":[],"categories_nodes":[],"categories_segments":[],"categories_sizes":[],"default_left":[0,0,0,0,0,0,0,0,0,0,0,0,0,0,0,0,0,0,0,0,0,0,0,0,0,0,0,0,0,0,0,0,0,0,0,0,0],"id":4,"left_children":[1,3,5,7,9,11,-1,13,15,17,19,-1,-1,21,23,25,27,29,31,33,35,-1,-1,-1,-1,-1,-1,-1,-1,-1,-1,-1,-1,-1,-1,-1,-1],"loss_changes":[9.3568146E-4,4.200131E-4,1.1995516E-4,1.5407853E-4,2.333474E-4,5.0973613E-6,0E0,3.911124E-5,9.403541E-5,1.9381408E-4,9.443576E-5,0E0,0E0,1.1582808E-5,3.3609103E-5,3.2469834E-5,2.9286262E-5,1.744095E-4,1.1644503E-4,7.965835E-6,1.7996594E-5,0E0,0E0,0E0,0E0,0E0,0E0,0E0,0E0,0E0,0E0,0E0,0E0,0E0,0E0,0E0,0E0],"parents":[2147483647,0,0,1,1,2,2,3,3,4,4,5,5,7,7,8,8,9,9,10,10,13,13,14,14,15,15,16,16,17,17,18,18,19,19,20,20],"right_children":[2,4,6,8,10,12,-1,14,16,18,20,-1,-1,22,24,26,28,30,32,34,36,-1,-1,-1,-1,-1,-1,-1,-1,-1,-1,-1,-1,-1,-1,-1,-1],"split_conditions":[8.7019525E-2,7.424997E-2,9.139178E-2,7.2468154E-2,4.6200464E-3,8.407631E-2,3.9917664E-4,4.423987E-5,7.180967E-2,7.772401E-2,8.242679E-2,3.4889206E-4,1.2921835E-3,6.380913E-2,7.959806E-2,6.4217753E-4,7.3214896E-2,7.4728824E-2,2.9957742E-5,6.962821E-2,8.2454436E-2,-5.00687E-4,-1.6425834E-4,-8.222758E-4,-9.713136E-5,-5.0483673E-4,-1.3989667E-4,3.491046E-4,-1.5053675E-4,-2.5065927E-4,4.8537576E-4,1.9344476E-4,-3.1771977E-4,1.7685517E-4,7.6103787E-4,1.7429268E-4,-2.1346398E-4],"split_indices":[7,1,9,5,11,1,0,10,1,1,9,0,0,2,4,11,1,1,10,0,0,0,0,0,0,0,0,0,0,0,0,0,0,0,0,0,0],"split_type":[0,0,0,0,0,0,0,0,0,0,0,0,0,0,0,0,0,0,0,0,0,0,0,0,0,0,0,0,0,0,0,0,0,0,0,0,0],"sum_hessian":[8.6E1,7.6E1,1E1,3E1,4.6E1,5E0,5E0,1.5E1,1.5E1,3.7E1,9E0,1E0,4E0,6E0,9E0,1.1E1,4E0,1.3E1,2.4E1,6E0,3E0,2E0,4E0,8E0,1E0,4E0,7E0,3E0,1E0,4E0,9E0,5E0,1.9E1,1E0,5E0,2E0,1E0],"tree_param":{"num_deleted":"0","num_feature":"13","num_nodes":"37","size_leaf_vector":"1"}},{"base_weights":[6.449886E-5,-1.0702946E-3,8.00219E-3,-3.6846932E-3,6.7686813E-4,1.1011564E-2,3.6591168E-3,-6.3133324E-3,-1.923275E-3,-3.7444482E-4,4.6041706E-3,3.3144729E-4,1.1888089E-3,4.3625274E-4,1.5015305E-4,-2.057232E-4,-7.5034513E-3,-3.1027833E-3,2.3383554E-4,1.967304E-3,-2.1669576E-3,6.0328105E-3,-7.402599E-4,-2.21585E-4,-8.697645E-4,-3.4773443E-4,6.9597365E-5,3.2292175E-4,-2.2092373E-4,-5.14861E-4,3.8599005E-4,-5.0256094E-5,-3.785667E-4,1.522582E-4,6.459617E-4,9.1751666E-5,-2.0279064E-4],"categories":[],"categories_nodes":[],"categories_segments":[],"categories_sizes":[],"default_left":[0,0,0,0,0,0,0,0,0,0,0,0,0,0,0,0,0,0,0,0,0,0,0,0,0,0,0,0,0,0,0,0,0,0,0,0,0],"id":5,"left_children":[1,3,5,7,9,11,13,15,17,19,21,-1,-1,-1,-1,-1,23,25,27,29,31,33,35,-1,-1,-1,-1,-1,-1,-1,-1,-1,-1,-1,-1,-1,-1],"loss_changes":[7.922294E-4,3.5421312E-4,1.0347669E-4,1.3139183E-4,1.957787E-4,1.0773656E-6,2.5555419E-6,4.5346882E-5,5.1612136E-5,1.6377243E-4,8.081853E-5,0E0,0E0,0E0,0E0,0E0,3.7557096E-5,2.0917403E-5,6.5677596E-5,2.4882157E-4,5.736931E-5,5.5646524E-6,8.264529E-6,0E0,0E0,0E0,0E0,0E0,0E0,0E0,0E0,0E0,0E0,0E0,0E0,0E0,0E0],"parents":[2147483647,0,0,1,1,2,2,3,3,4,4,5,5,6,6,7,7,8,8,9,9,10,10,16,16,17,17,18,18,19,19,20,20,21,21,22,22],"right_children":[2,4,6,8,10,12,14,16,18,20,22,-1,-1,-1,-1,-1,24,26,28,30,32,34,36,-1,-1,-1,-1,-1,-1,-1,-1,-1,-1,-1,-1,-1,-1],"split_conditions":[8.7019525E-2,7.424997E-2,9.139178E-2,7.010189E-2,4.6200464E-3,8.407631E-2,9.998509E-2,6.661687E-2,7.014858E-2,7.7225536E-2,8.075512E-2,3.3144729E-4,1.1888089E-3,4.3625274E-4,1.5015305E-4,-2.057232E-4,1.067858E-6,7.654656E-2,7.3214896E-2,6.8240635E-2,8.0844805E-2,9.144324E-6,8.2454436E-2,-2.21585E-4,-8.697645E-4,-3.4773443E-4,6.9597365E-5,3.2292175E-4,-2.2092373E-4,-5.14861E-4,3.8599005E-4,-5.0256094E-5,-3.785667E-4,1.522582E-4,6.459617E-4,9.1751666E-5,-2.0279064E-4],"split_indices":[7,1,9,5,11,1,1,9,1,2,3,0,0,0,0,0,6,2,4,2,9,8,0,0,0,0,0,0,0,0,0,0,0,0,0,0,0],"split_type":[0,0,0,0,0,0,0,0,0,0,0,0,0,0,0,0,0,0,0,0,0,0,0,0,0,0,0,0,0,0,0,0,0,0,0,0,0],"sum_hessian":[8.6E1,7.6E1,1E1,3E1,4.6E1,5E0,5E0,1.1E1,1.9E1,3.7E1,9E0,1E0,4E0,3E0,2E0,3E0,8E0,1.2E1,7E0,1.6E1,2.1E1,7E0,2E0,2E0,6E0,1.1E1,1E0,3E0,4E0,3E0,1.3E1,1.1E1,1E1,1E0,6E0,1E0,1E0],"tree_param":{"num_deleted":"0","num_feature":"13","num_nodes":"37","size_leaf_vector":"1"}},{"base_weights":[6.681728E-5,-9.807175E-4,7.3934863E-3,-5.8242776E-3,-1.708685E-4,9.183769E-4,1.9645486E-4,-2.1013412E-4,-6.957711E-3,-2.469123E-3,1.0866083E-3,-7.7294896E-4,-7.77632E-5,-4.476493E-3,-4.262334E-4,3.9947606E-3,-8.924046E-4,-8.3380444E-5,-5.121651E-4,-1.7489136E-4,2.9870254E-4,-1.1665195E-4,5.552735E-4,-1.9697561E-4,3.206618E-4],"categories":[],"categories_nodes":[],"categories_segments":[],"categories_sizes":[],"default_left":[0,0,0,0,0,0,0,0,0,0,0,0,0,0,0,0,0,0,0,0,0,0,0,0,0],"id":6,"left_children":[1,3,5,7,9,-1,-1,-1,11,13,15,-1,-1,17,19,21,23,-1,-1,-1,-1,-1,-1,-1,-1],"loss_changes":[6.749707E-4,3.010413E-4,8.88707E-5,3.1796197E-5,1.9631308E-4,0E0,0E0,0E0,3.214649E-5,9.651203E-5,2.5679686E-4,0E0,0E0,2.3930828E-5,6.3914486E-5,1.5121792E-4,1.2555062E-4,0E0,0E0,0E0,0E0,0E0,0E0,0E0,0E0],"parents":[2147483647,0,0,1,1,2,2,3,3,4,4,8,8,9,9,10,10,13,13,14,14,15,15,16,16],"right_children":[2,4,6,8,10,-1,-1,-1,12,14,16,-1,-1,18,20,22,24,-1,-1,-1,-1,-1,-1,-1,-1],"split_conditions":[8.7019525E-2,6.825984E-2,9.449155E-2,2.1737307E-5,7.424997E-2,9.183769E-4,1.9645486E-4,-2.1013412E-4,6.352873E-5,7.278144E-2,7.7225536E-2,-7.7294896E-4,-7.77632E-5,4.423987E-5,7.180967E-2,6.852067E-2,3.5295878E-3,-8.3380444E-5,-5.121651E-4,-1.7489136E-4,2.9870254E-4,-1.1665195E-4,5.552735E-4,-1.9697561E-4,3.206618E-4],"split_indices":[7,2,9,10,1,0,0,0,10,5,2,0,0,10,1,3,11,0,0,0,0,0,0,0,0],"split_type":[0,0,0,0,0,0,0,0,0,0,0,0,0,0,0,0,0,0,0,0,0,0,0,0,0],"sum_hessian":[8.6E1,7.6E1,1E1,1E1,6.6E1,7E0,3E0,3E0,7E0,2.3E1,4.3E1,6E0,1E0,1.1E1,1.2E1,1.7E1,2.6E1,2E0,9E0,9E0,3E0,4E0,1.3E1,2.1E1,5E0],"tree_param":{"num_deleted":"0","num_feature":"13","num_nodes":"25","size_leaf_vector":"1"}},{"base_weights":[6.179816E-5,-8.9524576E-4,6.7554875E-3,-5.338292E-3,-1.5242853E-4,9.398474E-3,2.9865864E-3,-1.9437392E-4,-6.368282E-3,1.7219625E-3,-1.4606916E-3,2.6895627E-4,1.0202344E-3,3.527036E-4,1.2704582E-4,-7.066965E-4,-7.387512E-5,-4.8199538E-4,2.6997905E-3,-2.3933486E-3,2.5691055E-3,3.3856274E-4,-3.4582216E-4,3.0540192E-4,-3.039886E-4,3.201323E-4,-9.2820825E-5],"categories":[],"categories_nodes":[],"categories_segments":[],"categories_sizes":[],"default_left":[0,0,0,0,0,0,0,0,0,0,0,0,0,0,0,0,0,0,0,0,0,0,0,0,0,0,0],"id":7,"left_children":[1,3,5,7,9,11,13,-1,15,17,19,-1,-1,-1,-1,-1,-1,-1,21,23,25,-1,-1,-1,-1,-1,-1],"loss_changes":[5.633833E-4,2.5331485E-4,8.1503356E-5,2.608163E-5,1.6681242E-4,4.9186638E-6,1.0839285E-6,0E0,2.624531E-5,1.9212521E-4,1.5648553E-4,0E0,0E0,0E0,0E0,0E0,0E0,0E0,1.17293035E-4,1.2550747E-4,2.0659994E-5,0E0,0E0,0E0,0E0,0E0,0E0],"parents":[2147483647,0,0,1,1,2,2,3,3,4,4,5,5,6,6,8,8,9,9,10,10,18,18,19,19,20,20],"right_children":[2,4,6,8,10,12,14,-1,16,18,20,-1,-1,-1,-1,-1,-1,-1,22,24,26,-1,-1,-1,-1,-1,-1],"split_conditions":[8.7019525E-2,6.825984E-2,9.139178E-2,2.1737307E-5,3.8027883E-5,8.407631E-2,9.998509E-2,-1.9437392E-4,6.352873E-5,7.957002E-6,7.636515E-5,2.6895627E-4,1.0202344E-3,3.527036E-4,1.2704582E-4,-7.066965E-4,-7.387512E-5,-4.8199538E-4,8.281634E-2,6.542584E-6,9.275012E-2,3.3856274E-4,-3.4582216E-4,3.0540192E-4,-3.039886E-4,3.201323E-4,-9.2820825E-5],"split_indices":[7,2,9,10,10,1,1,0,10,8,10,0,0,0,0,0,0,0,9,8,0,0,0,0,0,0,0],"split_type":[0,0,0,0,0,0,0,0,0,0,0,0,0,0,0,0,0,0,0,0,0,0,0,0,0,0,0],"sum_hessian":[8.6E1,7.6E1,1E1,1E1,6.6E1,5E0,5E0,3E0,7E0,2.7E1,3.9E1,1E0,4E0,3E0,2E0,6E0,1E0,3E0,2.4E1,3.2E1,7E0,2.2E1,2E0,3E0,2.9E1,6E0,1E0],"tree_param":{"num_deleted":"0","num_feature":"13","num_nodes":"27","size_leaf_vector":"1"}},{"base_weights":[6.1750885E-5,-8.217652E-4,6.2407497E-3,-2.9233152E-3,5.8184785E-4,8.673489E-3,2.7678857E-4,-3.859728E-3,1.6216934E-3,3.9081234E-3,-4.227705E-4,2.5550835E-4,9.386154E-4,-4.4781375E-3,-3.6678168E-5,3.3660067E-4,-1.244622E-4,5.04284E-3,-3.71952E-4,1.4402652E-4,-5.134853E-4,-3.1202484E-4,-6.464412E-4,6.3223764E-4,1.5429407E-4,1.21630044E-4,-2.2085736E-4],"categories":[],"categories_nodes":[],"categories_segments":[],"categories_sizes":[],"default_left":[0,0,0,0,0,0,0,0,0,0,0,0,0,0,0,0,0,0,0,0,0,0,0,0,0,0,0],"id":8,"left_children":[1,3,5,7,9,11,-1,13,15,17,19,-1,-1,21,-1,-1,-1,23,-1,25,-1,-1,-1,-1,-1,-1,-1],"loss_changes":[4.8008276E-4,2.2883268E-4,6.892704E-5,1.3819546E-4,1.5870921E-4,2.1798187E-6,0E0,5.4519332E-5,3.4187917E-5,1.1396427E-4,9.9558936E-5,0E0,0E0,3.916651E-5,0E0,0E0,0E0,3.502742E-5,0E0,8.8455774E-5,0E0,0E0,0E0,0E0,0E0,0E0,0E0],"parents":[2147483647,0,0,1,1,2,2,3,3,4,4,5,5,7,7,8,8,9,9,10,10,13,13,17,17,19,19],"right_children":[2,4,6,8,10,12,-1,14,16,18,20,-1,-1,22,-1,-1,-1,24,-1,26,-1,-1,-1,-1,-1,-1,-1],"split_conditions":[8.7019525E-2,7.457384E-2,9.139178E-2,7.4728824E-2,7.180967E-2,8.407631E-2,2.7678857E-4,7.6096304E-2,4.0665354E-6,8.075512E-2,9.5112935E-2,2.5550835E-4,9.386154E-4,7.227608E-2,-3.6678168E-5,3.3660067E-4,-1.244622E-4,4.366263E-5,-3.71952E-4,8.5505806E-2,-5.134853E-4,-3.1202484E-4,-6.464412E-4,6.3223764E-4,1.5429407E-4,1.21630044E-4,-2.2085736E-4],"split_indices":[7,7,9,1,3,1,0,9,6,0,4,0,0,9,0,0,0,10,0,5,0,0,0,0,0,0,0],"split_type":[0,0,0,0,0,0,0,0,0,0,0,0,0,0,0,0,0,0,0,0,0,0,0,0,0,0,0],"sum_hessian":[8.6E1,7.6E1,1E1,3E1,4.6E1,5E0,5E0,2.5E1,5E0,1E1,3.6E1,1E0,4E0,2.1E1,4E0,3E0,2E0,9E0,1E0,3.3E1,3E0,1.4E1,7E0,6E0,3E0,2.3E1,1E1],"tree_param":{"num_deleted":"0","num_feature":"13","num_nodes":"27","size_leaf_vector":"1"}},{"base_weights":[6.120511E-5,-7.5233093E-4,5.7503935E-3,-4.635511E-3,-1.0356507E-4,8.00516E-4,2.5372282E-3,-1.563944E-4,-5.591856E-3,-1.9161049E-3,8.874468E-4,3.054917E-4,1.0012338E-4,-6.207954E-4,-6.3958396E-5,5.2358303E-4,-2.9514814E-3,3.2155116E-3,-6.9746486E-4,-1.00622325E-4,3.408668E-4,-3.804804E-4,-1.42546E-5,-1.2864055E-4,4.5936598E-4,-1.6153252E-4,2.784267E-4],"categories":[],"categories_nodes":[],"categories_segments":[],"categories_sizes":[],"default_left":[0,0,0,0,0,0,0,0,0,0,0,0,0,0,0,0,0,0,0,0,0,0,0,0,0,0,0],"id":9,"left_children":[1,3,5,7,9,-1,11,-1,13,15,17,-1,-1,-1,-1,19,21,23,25,-1,-1,-1,-1,-1,-1,-1,-1],"loss_changes":[4.069935E-4,1.9350406E-4,5.938337E-5,2.3566929E-5,1.2204909E-4,0E0,1.7123166E-6,0E0,2.0438165E-5,6.2169245E-5,1.6459289E-4,0E0,0E0,0E0,0E0,3.873885E-5,4.0205414E-5,1.1758685E-4,9.078257E-5,0E0,0E0,0E0,0E0,0E0,0E0,0E0,0E0],"parents":[2147483647,0,0,1,1,2,2,3,3,4,4,6,6,8,8,9,9,10,10,15,15,16,16,17,17,18,18],"right_children":[2,4,6,8,10,-1,12,-1,14,16,18,-1,-1,-1,-1,20,22,24,26,-1,-1,-1,-1,-1,-1,-1,-1],"split_conditions":[8.7019525E-2,6.825984E-2,9.139178E-2,2.1737307E-5,7.424997E-2,8.00516E-4,9.998509E-2,-1.563944E-4,6.352873E-5,4.423987E-5,7.7225536E-2,3.054917E-4,1.0012338E-4,-6.207954E-4,-6.3958396E-5,6.925871E-2,7.758539E-2,6.852067E-2,3.5295878E-3,-1.00622325E-4,3.408668E-4,-3.804804E-4,-1.42546E-5,-1.2864055E-4,4.5936598E-4,-1.6153252E-4,2.784267E-4],"split_indices":[7,2,9,10,1,0,1,0,10,10,2,0,0,0,0,1,9,3,11,0,0,0,0,0,0,0,0],"split_type":[0,0,0,0,0,0,0,0,0,0,0,0,0,0,0,0,0,0,0,0,0,0,0,0,0,0,0],"sum_hessian":[8.6E1,7.6E1,1E1,1E1,6.6E1,5E0,5E0,3E0,7E0,2.3E1,4.3E1,3E0,2E0,6E0,1E0,7E0,1.6E1,1.7E1,2.6E1,5E0,2E0,1.2E1,4E0,4E0,1.3E1,2.1E1,5E0],"tree_param":{"num_deleted":"0","num_feature":"13","num_nodes":"27","size_leaf_vector":"1"}},{"base_weights":[6.265009E-5,-6.8421423E-4,5.285005E-3,-4.248427E-3,-8.883283E-5,7.3380657E-3,2.35111E-3,-2.6270663E-3,-6.429042E-4,1.4092465E-3,-1.1352676E-3,2.027072E-4,7.99485E-4,2.8258003E-4,9.344866E-5,-3.1779595E-3,-6.495913E-5,-4.1570963E-4,2.2434914E-3,-1.8974935E-3,2.1508234E-3,-7.971488E-5,-3.494692E-4,2.8406E-4,-3.082171E-4,-2.58107E-4,1.6087791E-4,2.744099E-4,-1.0010526E-4],"categories":[],"categories_nodes":[],"categories_segments":[],"categories_sizes":[],"default_left":[0,0,0,0,0,0,0,0,0,0,0,0,0,0,0,0,0,0,0,0,0,0,0,0,0,0,0,0,0],"id":10,"left_children":[1,3,5,7,9,11,13,15,-1,17,19,-1,-1,-1,-1,21,-1,-1,23,25,27,-1,-1,-1,-1,-1,-1,-1,-1],"loss_changes":[3.4295005E-4,1.6302169E-4,4.9005524E-5,2.2001681E-5,1.06631895E-4,4.7229405E-6,1.3940735E-6,6.65064E-6,0E0,1.3934981E-4,1.0427095E-4,0E0,0E0,0E0,0E0,1.7386883E-6,0E0,0E0,8.825518E-5,8.324694E-5,1.7706436E-5,0E0,0E0,0E0,0E0,0E0,0E0,0E0,0E0],"parents":[2147483647,0,0,1,1,2,2,3,3,4,4,5,5,6,6,7,7,9,9,10,10,15,15,18,18,19,19,20,20],"right_children":[2,4,6,8,10,12,14,16,-1,18,20,-1,-1,-1,-1,22,-1,-1,24,26,28,-1,-1,-1,-1,-1,-1,-1,-1],"split_conditions":[8.7019525E-2,6.825984E-2,9.139178E-2,1.2321257E-5,3.8027883E-5,8.407631E-2,9.998509E-2,9.819139E-6,-6.429042E-4,7.957002E-6,7.636515E-5,2.027072E-4,7.99485E-4,2.8258003E-4,9.344866E-5,6.360674E-2,-6.495913E-5,-4.1570963E-4,8.281634E-2,8.841053E-2,9.275012E-2,-7.971488E-5,-3.494692E-4,2.8406E-4,-3.082171E-4,-2.58107E-4,1.6087791E-4,2.744099E-4,-1.0010526E-4],"split_indices":[7,2,9,6,10,1,1,6,0,8,10,0,0,0,0,1,0,0,9,3,0,0,0,0,0,0,0,0,0],"split_type":[0,0,0,0,0,0,0,0,0,0,0,0,0,0,0,0,0,0,0,0,0,0,0,0,0,0,0,0,0],"sum_hessian":[8.6E1,7.6E1,1E1,1E1,6.6E1,5E0,5E0,7E0,3E0,2.7E1,3.9E1,1E0,4E0,3E0,2E0,5E0,2E0,3E0,2.4E1,3.2E1,7E0,1E0,4E0,2.2E1,2E0,2.7E1,5E0,6E0,1E0],"tree_param":{"num_deleted":"0","num_feature":"13","num_nodes":"29","size_leaf_vector":"1"}},{"base_weights":[5.4987984E-5,-6.352705E-4,4.8817988E-3,-2.314175E-3,4.8560838E-4,6.1054155E-4,1.214115E-4,-3.044735E-3,1.2372807E-3,3.2435947E-3,-3.4745803E-4,-3.592096E-3,-2.7398764E-6,2.733782E-4,-1.1704812E-4,4.286915E-3,-3.5948047E-4,1.4217527E-4,-4.4224766E-4,-2.4072747E-4,-5.3646247E-4,7.785112E-5,5.066702E-4,1.2244644E-4,-1.7003274E-4],"categories":[],"categories_nodes":[],"categories_segments":[],"categories_sizes":[],"default_left":[0,0,0,0,0,0,0,0,0,0,0,0,0,0,0,0,0,0,0,0,0,0,0,0,0],"id":11,"left_children":[1,3,5,7,9,-1,-1,11,13,15,17,19,-1,-1,-1,21,-1,23,-1,-1,-1,-1,-1,-1,-1],"loss_changes":[2.9296326E-4,1.4602613E-4,4.195355E-5,8.41983E-5,1.0911355E-4,0E0,0E0,4.2842483E-5,2.4819154E-5,9.389166E-5,7.4453565E-5,3.32887E-5,0E0,0E0,0E0,2.3413595E-5,0E0,6.988208E-5,0E0,0E0,0E0,0E0,0E0,0E0,0E0],"parents":[2147483647,0,0,1,1,2,2,3,3,4,4,7,7,8,8,9,9,10,10,11,11,15,15,17,17],"right_children":[2,4,6,8,10,-1,-1,12,14,16,18,20,-1,-1,-1,22,-1,24,-1,-1,-1,-1,-1,-1,-1],"split_conditions":[8.7019525E-2,7.457384E-2,9.449155E-2,7.4728824E-2,7.180967E-2,6.1054155E-4,1.214115E-4,7.6096304E-2,4.0665354E-6,8.075512E-2,9.5112935E-2,7.227608E-2,-2.7398764E-6,2.733782E-4,-1.1704812E-4,1.6443082E-6,-3.5948047E-4,8.410142E-2,-4.4224766E-4,-2.4072747E-4,-5.3646247E-4,7.785112E-5,5.066702E-4,1.2244644E-4,-1.7003274E-4],"split_indices":[7,7,9,1,3,0,0,9,6,0,4,9,0,0,0,6,0,5,0,0,0,0,0,0,0],"split_type":[0,0,0,0,0,0,0,0,0,0,0,0,0,0,0,0,0,0,0,0,0,0,0,0,0],"sum_hessian":[8.6E1,7.6E1,1E1,3E1,4.6E1,7E0,3E0,2.5E1,5E0,1E1,3.6E1,2.1E1,4E0,3E0,2E0,9E0,1E0,3.3E1,3E0,1.4E1,7E0,2E0,7E0,2.1E1,1.2E1],"tree_param":{"num_deleted":"0","num_feature":"13","num_nodes":"25","size_leaf_vector":"1"}},{"base_weights":[4.7691552E-5,-5.8328005E-4,4.4601574E-3,-3.7254824E-3,-5.8690446E-5,6.262505E-3,1.9144504E-4,-2.2309497E-3,-5.7831773E-4,1.233592E-3,-9.6182094E-4,1.6204492E-4,6.8668264E-4,-2.7310874E-3,-4.870246E-5,-3.7001148E-3,1.9736416E-3,-1.5790138E-3,2.1733758E-3,-6.369278E-5,-3.0225338E-4,-4.2910525E-4,-9.636507E-5,2.4938627E-4,-2.6726027E-4,-2.5637937E-4,4.4006545E-5,3.7096927E-4,9.371527E-6],"categories":[],"categories_nodes":[],"categories_segments":[],"categories_sizes":[],"default_left":[0,0,0,0,0,0,0,0,0,0,0,0,0,0,0,0,0,0,0,0,0,0,0,0,0,0,0,0,0],"id":12,"left_children":[1,3,5,7,9,11,-1,13,-1,15,17,-1,-1,19,-1,21,23,25,27,-1,-1,-1,-1,-1,-1,-1,-1,-1,-1],"loss_changes":[2.4482177E-4,1.2670558E-4,3.8481478E-5,2.0926236E-5,7.938219E-5,5.704409E-6,0E0,5.6475146E-6,0E0,1.0953593E-4,8.083264E-5,0E0,0E0,1.736873E-6,0E0,2.3332504E-6,6.7092E-5,6.873209E-5,2.2017466E-5,0E0,0E0,0E0,0E0,0E0,0E0,0E0,0E0,0E0,0E0],"parents":[2147483647,0,0,1,1,2,2,3,3,4,4,5,5,7,7,9,9,10,10,13,13,15,15,16,16,17,17,18,18],"right_children":[2,4,6,8,10,12,-1,14,-1,16,18,-1,-1,20,-1,22,24,26,28,-1,-1,-1,-1,-1,-1,-1,-1,-1,-1],"split_conditions":[8.7019525E-2,6.825984E-2,9.139178E-2,1.2321257E-5,3.8027883E-5,8.407631E-2,1.9144504E-4,9.819139E-6,-5.7831773E-4,7.957002E-6,8.9384384E-2,1.6204492E-4,6.8668264E-4,6.360674E-2,-4.870246E-5,8.770164E-2,8.281634E-2,4.1519567E-2,8.129667E-2,-6.369278E-5,-3.0225338E-4,-4.2910525E-4,-9.636507E-5,2.4938627E-4,-2.6726027E-4,-2.5637937E-4,4.4006545E-5,3.7096927E-4,9.371527E-6],"split_indices":[7,2,9,6,10,1,0,6,0,8,3,0,0,1,0,0,9,12,1,0,0,0,0,0,0,0,0,0,0],"split_type":[0,0,0,0,0,0,0,0,0,0,0,0,0,0,0,0,0,0,0,0,0,0,0,0,0,0,0,0,0],"sum_hessian":[8.6E1,7.6E1,1E1,1E1,6.6E1,5E0,5E0,7E0,3E0,2.7E1,3.9E1,1E0,4E0,5E0,2E0,3E0,2.4E1,3.3E1,6E0,1E0,4E0,2E0,1E0,2.2E1,2E0,2.2E1,1.1E1,3E0,3E0],"tree_param":{"num_deleted":"0","num_feature":"13","num_nodes":"29","size_leaf_vector":"1"}},{"base_weights":[3.9151644E-5,-5.427214E-4,4.108704E-3,-2.0056267E-3,4.337208E-4,5.777709E-3,1.7549148E-3,-2.6131405E-3,9.6120435E-4,3.1507479E-3,-2.0440649E-4,1.5394278E-4,6.31748E-4,2.1346584E-4,6.636183E-5,-3.1018357E-3,5.9746208E-6,2.3113136E-4,-1.1593426E-4,3.7734583E-3,-9.1546775E-5,-2.1759314E-3,8.6504564E-4,-2.0259396E-4,-4.7314118E-4,2.6045367E-5,4.2381088E-4,1.9114489E-4,-3.0164488E-4,1.8965929E-4,-1.6930094E-4],"categories":[],"categories_nodes":[],"categories_segments":[],"categories_sizes":[],"default_left":[0,0,0,0,0,0,0,0,0,0,0,0,0,0,0,0,0,0,0,0,0,0,0,0,0,0,0,0,0,0,0],"id":13,"left_children":[1,3,5,7,9,11,13,15,17,19,21,-1,-1,-1,-1,23,-1,-1,-1,25,-1,27,29,-1,-1,-1,-1,-1,-1,-1,-1],"loss_changes":[2.0824265E-4,1.1085996E-4,3.3073957E-5,5.8385864E-5,8.213307E-5,4.000918E-6,1.0698768E-6,3.4147248E-5,1.9857425E-5,2.624315E-5,8.411189E-5,0E0,0E0,0E0,0E0,2.8986033E-5,0E0,0E0,0E0,1.19547185E-5,0E0,5.386299E-5,7.181856E-5,0E0,0E0,0E0,0E0,0E0,0E0,0E0,0E0],"parents":[2147483647,0,0,1,1,2,2,3,3,4,4,5,5,6,6,7,7,8,8,9,9,10,10,15,15,19,19,21,21,22,22],"right_children":[2,4,6,8,10,12,14,16,18,20,22,-1,-1,-1,-1,24,-1,-1,-1,26,-1,28,30,-1,-1,-1,-1,-1,-1,-1,-1],"split_conditions":[8.7019525E-2,7.457384E-2,9.139178E-2,7.4728824E-2,2.7310654E-5,8.407631E-2,9.998509E-2,7.6096304E-2,4.0665354E-6,8.841053E-2,-3.9280234E-3,1.5394278E-4,6.31748E-4,2.1346584E-4,6.636183E-5,7.227608E-2,5.9746208E-6,2.3113136E-4,-1.1593426E-4,6.925871E-2,-9.1546775E-5,6.852067E-2,8.5505806E-2,-2.0259396E-4,-4.7314118E-4,2.6045367E-5,4.2381088E-4,1.9114489E-4,-3.0164488E-4,1.8965929E-4,-1.6930094E-4],"split_indices":[7,7,9,1,10,1,1,9,6,0,11,0,0,0,0,9,0,0,0,2,0,4,5,0,0,0,0,0,0,0,0],"split_type":[0,0,0,0,0,0,0,0,0,0,0,0,0,0,0,0,0,0,0,0,0,0,0,0,0,0,0,0,0,0,0],"sum_hessian":[8.6E1,7.6E1,1E1,3E1,4.6E1,5E0,5E0,2.5E1,5E0,8E0,3.8E1,1E0,4E0,3E0,2E0,2.1E1,4E0,3E0,2E0,7E0,1E0,1.3E1,2.5E1,1.4E1,7E0,1E0,6E0,2E0,1.1E1,1.8E1,7E0],"tree_param":{"num_deleted":"0","num_feature":"13","num_nodes":"31","size_leaf_vector":"1"}},{"base_weights":[4.4191234E-5,-4.964305E-4,3.824526E-3,-3.2333045E-3,-3.968357E-5,-6.53144E-5,4.3376074E-3,-1.8932456E-3,-5.105096E-4,-1.4297196E-3,5.822407E-4,5.386375E-3,1.4178622E-4,-2.3501378E-3,-3.483792E-5,-1.9195552E-4,-2.7720644E-3,1.3391388E-3,-1.7369738E-3,1.4624558E-4,5.7966186E-4,-5.0378218E-5,-2.6186527E-4,-1.6780068E-4,2.2241175E-4,-3.4962446E-4,-1.3486356E-4,-1.5976238E-4,2.2352718E-4,-2.9651998E-4,5.7558267E-5],"categories":[],"categories_nodes":[],"categories_segments":[],"categories_sizes":[],"default_left":[0,0,0,0,0,0,0,0,0,0,0,0,0,0,0,0,0,0,0,0,0,0,0,0,0,0,0,0,0,0,0],"id":14,"left_children":[1,3,5,7,9,-1,11,13,-1,15,17,19,-1,21,-1,23,25,27,29,-1,-1,-1,-1,-1,-1,-1,-1,-1,-1,-1,-1],"loss_changes":[1.7970322E-4,9.612621E-5,2.8104594E-5,1.7926213E-5,5.8753747E-5,0E0,2.2984183E-5,4.82796E-6,0E0,3.435951E-5,8.483027E-5,2.7910573E-6,0E0,1.6554113E-6,0E0,4.6816982E-5,5.593036E-6,9.8313394E-5,3.579082E-5,0E0,0E0,0E0,0E0,0E0,0E0,0E0,0E0,0E0,0E0,0E0,0E0],"parents":[2147483647,0,0,1,1,2,2,3,3,4,4,6,6,7,7,9,9,10,10,11,11,13,13,15,15,16,16,17,17,18,18],"right_children":[2,4,6,8,10,-1,12,14,-1,16,18,20,-1,22,-1,24,26,28,30,-1,-1,-1,-1,-1,-1,-1,-1,-1,-1,-1,-1],"split_conditions":[8.944406E-2,6.825984E-2,7.014858E-2,1.2321257E-5,7.280376E-2,-6.53144E-5,9.86689E-2,9.819139E-6,-5.105096E-4,1.0672415E-5,8.410142E-2,-4.9641225E-3,1.4178622E-4,6.360674E-2,-3.483792E-5,7.444725E-2,2.4210582E-5,1.596138E-6,8.67105E-2,1.4624558E-4,5.7966186E-4,-5.0378218E-5,-2.6186527E-4,-1.6780068E-4,2.2241175E-4,-3.4962446E-4,-1.3486356E-4,-1.5976238E-4,2.2352718E-4,-2.9651998E-4,5.7558267E-5],"split_indices":[5,2,2,6,5,0,1,6,0,6,5,11,0,1,0,1,6,6,3,0,0,0,0,0,0,0,0,0,0,0,0],"split_type":[0,0,0,0,0,0,0,0,0,0,0,0,0,0,0,0,0,0,0,0,0,0,0,0,0,0,0,0,0,0,0],"sum_hessian":[8.6E1,7.6E1,1E1,1E1,6.6E1,1E0,9E0,7E0,3E0,2E1,4.6E1,6E0,3E0,5E0,2E0,1.1E1,9E0,3.5E1,1.1E1,1E0,5E0,1E0,4E0,7E0,4E0,5E0,4E0,8E0,2.7E1,7E0,4E0],"tree_param":{"num_deleted":"0","num_feature":"13","num_nodes":"31","size_leaf_vector":"1"}},{"base_weights":[3.2183296E-5,-1.0443254E-3,1.7409859E-3,-1.8502555E-3,5.3766445E-4,7.251924E-4,3.3260991E-3,1.6709982E-3,-2.6102061E-3,-1.262368E-3,3.1705052E-3,2.6032614E-4,-7.7525986E-4,-1.5448332E-4,3.8607463E-3,-4.8239777E-4,2.628836E-3,-1.0953684E-3,-3.7041781E-3,-2.0069145E-3,1.8137993E-5,-1.43744055E-5,4.2992123E-4,-1.6755715E-3,1.6693342E-3,5.325575E-3,1.5083216E-4,-1.0509081E-4,3.2731146E-5,6.7786874E-5,2.9471106E-4,8.446553E-5,-2.655968E-4,-1.15484E-7,-3.9355448E-4,-2.5080144E-5,-2.5504854E-4,-2.6509006E-4,4.501473E-5,-6.2048806E-5,2.6394377E-4,1.543291E-4,5.698741E-4],"categories":[],"categories_nodes":[],"categories_segments":[],"categories_sizes":[],"default_left":[0,0,0,0,0,0,0,0,0,0,0,0,0,0,0,0,0,0,0,0,0,0,0,0,0,0,0,0,0,0,0,0,0,0,0,0,0,0,0,0,0,0,0],"id":15,"left_children":[1,3,5,7,9,11,13,15,17,19,21,-1,23,-1,25,27,29,31,33,35,-1,-1,-1,37,39,41,-1,-1,-1,-1,-1,-1,-1,-1,-1,-1,-1,-1,-1,-1,-1,-1,-1],"loss_changes":[1.6185823E-4,6.984337E-5,5.233295E-5,1.00696896E-4,9.404712E-5,6.401316E-5,3.9819206E-5,1.5706375E-5,4.5658264E-5,1.3263263E-5,3.054452E-5,0E0,3.1408745E-5,0E0,3.331811E-5,1.7249583E-6,1.1069642E-6,4.4629785E-5,1.4560326E-5,6.99691E-6,0E0,0E0,0E0,2.1926053E-5,1.0523199E-5,1.0851072E-6,0E0,0E0,0E0,0E0,0E0,0E0,0E0,0E0,0E0,0E0,0E0,0E0,0E0,0E0,0E0,0E0,0E0],"parents":[2147483647,0,0,1,1,2,2,3,3,4,4,5,5,6,6,7,7,8,8,9,9,10,10,12,12,14,14,15,15,16,16,17,17,18,18,19,19,23,23,24,24,25,25],"right_children":[2,4,6,8,10,12,14,16,18,20,22,-1,24,-1,26,28,30,32,34,36,-1,-1,-1,38,40,42,-1,-1,-1,-1,-1,-1,-1,-1,-1,-1,-1,-1,-1,-1,-1,-1,-1],"split_conditions":[8.066881E-2,2.6371952E-3,8.471693E-2,1.9708381E-5,7.4728824E-2,8.375228E-2,8.4062465E-2,6.925871E-2,7.508073E-2,7.497088E-2,6.962821E-2,2.6032614E-4,8.944406E-2,-1.5448332E-4,9.139178E-2,6.6889815E-2,7.202152E-2,4.423987E-5,4.653396E-6,6.712773E-2,1.8137993E-5,-1.43744055E-5,4.2992123E-4,8.67105E-2,7.014858E-2,6.852067E-2,1.5083216E-4,-1.0509081E-4,3.2731146E-5,6.7786874E-5,2.9471106E-4,8.446553E-5,-2.655968E-4,-1.15484E-7,-3.9355448E-4,-2.5080144E-5,-2.5504854E-4,-2.6509006E-4,4.501473E-5,-6.2048806E-5,2.6394377E-4,1.543291E-4,5.698741E-4],"split_indices":[5,11,1,10,1,5,0,2,4,9,0,0,5,0,9,0,2,10,8,3,0,0,0,3,2,4,0,0,0,0,0,0,0,0,0,0,0,0,0,0,0,0,0],"split_type":[0,0,0,0,0,0,0,0,0,0,0,0,0,0,0,0,0,0,0,0,0,0,0,0,0,0,0,0,0,0,0,0,0,0,0,0,0,0,0,0,0,0,0],"sum_hessian":[8.6E1,5.3E1,3.3E1,3.5E1,1.8E1,2.1E1,1.2E1,6E0,2.9E1,1.1E1,7E0,9E0,1.2E1,1E0,1.1E1,2E0,4E0,1.3E1,1.6E1,7E0,4E0,2E0,5E0,9E0,3E0,6E0,5E0,1E0,1E0,1E0,3E0,6E0,7E0,1E0,1.5E1,2E0,5E0,6E0,3E0,1E0,2E0,1E0,5E0],"tree_param":{"num_deleted":"0","num_feature":"13","num_nodes":"43","size_leaf_vector":"1"}},{"base_weights":[3.8524253E-5,-9.423204E-4,1.5952033E-3,-2.931718E-3,-3.6522522E-4,6.6368113E-4,3.0489175E-3,-3.9286018E-4,-4.1520395E-3,-1.5163651E-3,1.4845396E-3,2.3689703E-3,-6.991321E-4,-1.4675931E-4,3.5475928E-3,-1.8561905E-4,1.2014235E-4,-4.6259584E-4,-4.173033E-5,2.699297E-4,-1.782325E-3,2.3656026E-3,-3.4156218E-4,2.6320843E-3,8.776759E-5,-1.5300214E-3,1.5528742E-3,4.896476E-4,1.3826303E-3,-2.4897556E-4,1.2061279E-5,3.5238804E-4,5.38445E-5,9.308259E-5,3.0440328E-4,-2.4236793E-4,4.16385E-5,-5.8946385E-5,2.4634748E-4,1.7346628E-4,4.523769E-5],"categories":[],"categories_nodes":[],"categories_segments":[],"categories_sizes":[],"default_left":[0,0,0,0,0,0,0,0,0,0,0,0,0,0,0,0,0,0,0,0,0,0,0,0,0,0,0,0,0,0,0,0,0,0,0,0,0,0,0,0,0],"id":16,"left_children":[1,3,5,7,9,11,13,15,17,19,21,23,25,-1,27,-1,-1,-1,-1,-1,29,31,-1,33,-1,35,37,-1,39,-1,-1,-1,-1,-1,-1,-1,-1,-1,-1,-1,-1],"loss_changes":[1.3434004E-4,6.0925136E-5,4.401817E-5,3.5547513E-5,9.381264E-5,5.2784017E-5,3.4485958E-5,1.389489E-5,1.2229284E-5,3.508335E-5,8.1474966E-5,1.6136873E-6,2.6701116E-5,0E0,2.8273338E-5,0E0,0E0,0E0,0E0,0E0,3.530139E-5,2.9847935E-5,0E0,2.773184E-6,0E0,1.8403396E-5,9.255387E-6,0E0,1.1801558E-6,0E0,0E0,0E0,0E0,0E0,0E0,0E0,0E0,0E0,0E0,0E0,0E0],"parents":[2147483647,0,0,1,1,2,2,3,3,4,4,5,5,6,6,7,7,8,8,9,9,10,10,11,11,12,12,14,14,20,20,21,21,23,23,25,25,26,26,28,28],"right_children":[2,4,6,8,10,12,14,16,18,20,22,24,26,-1,28,-1,-1,-1,-1,-1,30,32,-1,34,-1,36,38,-1,40,-1,-1,-1,-1,-1,-1,-1,-1,-1,-1,-1,-1],"split_conditions":[8.066881E-2,-8.594079E-2,8.471693E-2,3.0998923E-5,7.4728824E-2,8.375228E-2,8.4062465E-2,8.201603E-2,8.240562E-2,-6.2081506E-3,9.275012E-2,8.129667E-2,8.944406E-2,-1.4675931E-4,9.139178E-2,-1.8561905E-4,1.2014235E-4,-4.6259584E-4,-4.173033E-5,2.699297E-4,7.6096304E-2,2.9555758E-5,-3.4156218E-4,6.9050156E-2,8.776759E-5,8.67105E-2,7.014858E-2,4.896476E-4,9.998509E-2,-2.4897556E-4,1.2061279E-5,3.5238804E-4,5.38445E-5,9.308259E-5,3.0440328E-4,-2.4236793E-4,4.16385E-5,-5.8946385E-5,2.4634748E-4,1.7346628E-4,4.523769E-5],"split_indices":[5,12,1,10,1,5,0,0,3,11,4,1,5,0,9,0,0,0,0,0,9,8,0,2,0,3,2,0,1,0,0,0,0,0,0,0,0,0,0,0,0],"split_type":[0,0,0,0,0,0,0,0,0,0,0,0,0,0,0,0,0,0,0,0,0,0,0,0,0,0,0,0,0,0,0,0,0,0,0,0,0,0,0,0,0],"sum_hessian":[8.6E1,5.3E1,3.3E1,1.1E1,4.2E1,2.1E1,1.2E1,4E0,7E0,2.6E1,1.6E1,9E0,1.2E1,1E0,1.1E1,2E0,2E0,6E0,1E0,1E0,2.5E1,1.4E1,2E0,7E0,2E0,9E0,3E0,6E0,5E0,1.8E1,7E0,8E0,6E0,2E0,5E0,6E0,3E0,1E0,2E0,3E0,2E0],"tree_param":{"num_deleted":"0","num_feature":"13","num_nodes":"41","size_leaf_vector":"1"}},{"base_weights":[4.1125106E-5,-8.568312E-4,1.4660815E-3,-2.6860284E-3,-3.2643124E-4,6.187646E-4,2.7872266E-3,-3.666699E-4,-3.7998739E-3,-1.3635056E-3,1.3398888E-3,2.1806E-3,-6.302446E-4,-1.3942123E-4,3.2518643E-3,-1.7324463E-4,1.1213298E-4,-1.0983696E-4,-4.5173135E-4,2.5643336E-4,-1.6132046E-3,2.156123E-3,-3.1879122E-4,2.4185637E-3,8.1916405E-5,-1.3970934E-3,1.4444385E-3,4.4767805E-3,1.2808181E-4,-2.2538833E-4,1.1005812E-5,3.2106446E-4,4.9229184E-5,8.687725E-5,2.7903655E-4,-2.4393611E-4,1.3304651E-5,-5.599894E-5,2.2992444E-4,1.221303E-4,4.8158094E-4],"categories":[],"categories_nodes":[],"categories_segments":[],"categories_sizes":[],"default_left":[0,0,0,0,0,0,0,0,0,0,0,0,0,0,0,0,0,0,0,0,0,0,0,0,0,0,0,0,0,0,0,0,0,0,0,0,0,0,0,0,0],"id":17,"left_children":[1,3,5,7,9,11,13,15,17,19,21,23,25,-1,27,-1,-1,-1,-1,-1,29,31,-1,33,-1,35,37,39,-1,-1,-1,-1,-1,-1,-1,-1,-1,-1,-1,-1,-1],"loss_changes":[1.1257691E-4,5.1514322E-5,3.633593E-5,2.9607589E-5,7.613515E-5,4.4290744E-5,2.9790885E-5,1.21040175E-5,1.0543663E-5,3.0617783E-5,6.9701215E-5,1.2585224E-6,2.2700602E-5,0E0,2.3238463E-5,0E0,0E0,0E0,0E0,0E0,2.895356E-5,2.4737616E-5,0E0,2.1855267E-6,0E0,1.6272705E-5,8.141139E-6,1.8443388E-6,0E0,0E0,0E0,0E0,0E0,0E0,0E0,0E0,0E0,0E0,0E0,0E0,0E0],"parents":[2147483647,0,0,1,1,2,2,3,3,4,4,5,5,6,6,7,7,8,8,9,9,10,10,11,11,12,12,14,14,20,20,21,21,23,23,25,25,26,26,27,27],"right_children":[2,4,6,8,10,12,14,16,18,20,22,24,26,-1,28,-1,-1,-1,-1,-1,30,32,-1,34,-1,36,38,40,-1,-1,-1,-1,-1,-1,-1,-1,-1,-1,-1,-1,-1],"split_conditions":[8.066881E-2,-8.594079E-2,8.471693E-2,3.0998923E-5,7.4728824E-2,8.375228E-2,8.4062465E-2,8.201603E-2,6.778061E-2,-6.2081506E-3,9.275012E-2,8.129667E-2,8.944406E-2,-1.3942123E-4,9.139178E-2,-1.7324463E-4,1.1213298E-4,-1.0983696E-4,-4.5173135E-4,2.5643336E-4,7.6096304E-2,2.9555758E-5,-3.1879122E-4,6.9050156E-2,8.1916405E-5,8.25068E-2,7.014858E-2,6.852067E-2,1.2808181E-4,-2.2538833E-4,1.1005812E-5,3.2106446E-4,4.9229184E-5,8.687725E-5,2.7903655E-4,-2.4393611E-4,1.3304651E-5,-5.599894E-5,2.2992444E-4,1.221303E-4,4.8158094E-4],"split_indices":[5,12,1,10,1,5,0,0,1,11,4,1,5,0,9,0,0,0,0,0,9,8,0,2,0,2,2,4,0,0,0,0,0,0,0,0,0,0,0,0,0],"split_type":[0,0,0,0,0,0,0,0,0,0,0,0,0,0,0,0,0,0,0,0,0,0,0,0,0,0,0,0,0,0,0,0,0,0,0,0,0,0,0,0,0],"sum_hessian":[8.6E1,5.3E1,3.3E1,1.1E1,4.2E1,2.1E1,1.2E1,4E0,7E0,2.6E1,1.6E1,9E0,1.2E1,1E0,1.1E1,2E0,2E0,2E0,5E0,1E0,2.5E1,1.4E1,2E0,7E0,2E0,9E0,3E0,6E0,5E0,1.8E1,7E0,8E0,6E0,2E0,5E0,5E0,4E0,1E0,2E0,1E0,5E0],"tree_param":{"num_deleted":"0","num_feature":"13","num_nodes":"41","size_leaf_vector":"1"}},{"base_weights":[4.2234642E-5,-7.809473E-4,1.3483991E-3,-1.4373336E-3,5.038345E-4,6.61547E-4,2.7244037E-3,1.0345541E-3,-2.0696705E-3,-8.8893995E-4,2.530017E-3,2.3698187E-3,-1.2442097E-3,-5.3199008E-5,3.103242E-3,-2.0973981E-5,2.331283E-3,-7.311888E-4,-3.1114875E-3,-1.4261715E-3,1.4841855E-5,-2.0287682E-5,3.4747945E-4,2.5859515E-3,7.873923E-5,-2.151426E-3,4.5617818E-4,3.678185E-4,5.356471E-5,3.2190533E-4,9.623419E-5,8.35953E-5,-2.0110393E-4,-1.2628734E-6,-3.3172363E-4,-1.5049614E-5,-2.1614775E-4,2.745957E-4,4.9294904E-5,-2.7153641E-5,-2.3811907E-4,-1.01200865E-4,1.07622705E-4],"categories":[],"categories_nodes":[],"categories_segments":[],"categories_sizes":[],"default_left":[0,0,0,0,0,0,0,0,0,0,0,0,0,0,0,0,0,0,0,0,0,0,0,0,0,0,0,0,0,0,0,0,0,0,0,0,0,0,0,0,0,0,0],"id":18,"left_children":[1,3,5,7,9,11,13,15,17,19,21,23,25,-1,27,-1,29,31,33,35,-1,-1,-1,37,-1,39,41,-1,-1,-1,-1,-1,-1,-1,-1,-1,-1,-1,-1,-1,-1,-1,-1],"loss_changes":[9.459638E-5,4.6263096E-5,3.0331474E-5,5.8411555E-5,5.586732E-5,8.1081766E-5,1.5221005E-5,1.3397058E-5,3.8164057E-5,6.8992895E-6,2.1360771E-5,2.4100227E-6,1.9492867E-5,0E0,1.2791999E-5,0E0,1.7633902E-6,2.9761035E-5,1.0159478E-5,7.1788E-6,0E0,0E0,0E0,2.330191E-6,0E0,2.8088798E-6,5.640889E-6,0E0,0E0,0E0,0E0,0E0,0E0,0E0,0E0,0E0,0E0,0E0,0E0,0E0,0E0,0E0,0E0],"parents":[2147483647,0,0,1,1,2,2,3,3,4,4,5,5,6,6,7,7,8,8,9,9,10,10,11,11,12,12,14,14,16,16,17,17,18,18,19,19,23,23,25,25,26,26],"right_children":[2,4,6,8,10,12,14,16,18,20,22,24,26,-1,28,-1,30,32,34,36,-1,-1,-1,38,-1,40,42,-1,-1,-1,-1,-1,-1,-1,-1,-1,-1,-1,-1,-1,-1,-1,-1],"split_conditions":[8.066881E-2,2.6371952E-3,8.944406E-2,2.0460517E-5,7.4728824E-2,8.410142E-2,7.014858E-2,7.202152E-2,7.508073E-2,7.497088E-2,6.962821E-2,5.5891215E-3,8.67105E-2,-5.3199008E-5,9.998509E-2,-2.0973981E-5,1.1871961E-5,4.423987E-5,4.653396E-6,1.9586392E-5,1.4841855E-5,-2.0287682E-5,3.4747945E-4,9.9374875E-2,7.873923E-5,6.8240635E-2,8.25068E-2,3.678185E-4,5.356471E-5,3.2190533E-4,9.623419E-5,8.35953E-5,-2.0110393E-4,-1.2628734E-6,-3.3172363E-4,-1.5049614E-5,-2.1614775E-4,2.745957E-4,4.9294904E-5,-2.7153641E-5,-2.3811907E-4,-1.01200865E-4,1.07622705E-4],"split_indices":[5,11,5,10,1,5,2,2,4,9,0,11,3,0,0,0,8,10,8,8,0,0,0,3,0,1,2,0,0,0,0,0,0,0,0,0,0,0,0,0,0,0,0],"split_type":[0,0,0,0,0,0,0,0,0,0,0,0,0,0,0,0,0,0,0,0,0,0,0,0,0,0,0,0,0,0,0,0,0,0,0,0,0,0,0,0,0,0,0],"sum_hessian":[8.6E1,5.3E1,3.3E1,3.5E1,1.8E1,2.3E1,1E1,7E0,2.8E1,1.1E1,7E0,1.2E1,1.1E1,1E0,9E0,4E0,3E0,1.3E1,1.5E1,7E0,4E0,2E0,5E0,1E1,2E0,7E0,4E0,7E0,2E0,1E0,2E0,6E0,7E0,1E0,1.4E1,3E0,4E0,9E0,1E0,1E0,6E0,1E0,3E0],"tree_param":{"num_deleted":"0","num_feature":"13","num_nodes":"43","size_leaf_vector":"1"}},{"base_weights":[4.4556655E-5,-7.017875E-4,1.2286163E-3,-2.3027742E-3,-2.3867987E-4,5.095259E-4,2.3510295E-3,-3.2856464E-4,-3.2488084E-3,-1.105729E-3,1.1524382E-3,1.8218861E-4,-5.3917617E-4,-1.20544064E-4,2.7478554E-3,-1.5342409E-4,9.8663324E-5,-8.4753585E-5,-3.9079768E-4,2.3943186E-4,-1.3324355E-3,1.8569444E-3,-2.7542387E-4,-1.1700749E-3,1.1728648E-3,3.8267055E-3,1.03122125E-4,-1.897479E-4,1.7609727E-5,1.8657867E-5,2.6734694E-4,-2.1056745E-4,1.866594E-5,-5.053915E-5,1.9007474E-4,1.0229387E-4,4.1235104E-4],"categories":[],"categories_nodes":[],"categories_segments":[],"categories_sizes":[],"default_left":[0,0,0,0,0,0,0,0,0,0,0,0,0,0,0,0,0,0,0,0,0,0,0,0,0,0,0,0,0,0,0,0,0,0,0,0,0],"id":19,"left_children":[1,3,5,7,9,11,13,15,17,19,21,-1,23,-1,25,-1,-1,-1,-1,-1,27,29,-1,31,33,35,-1,-1,-1,-1,-1,-1,-1,-1,-1,-1,-1],"loss_changes":[7.774551E-5,3.9487553E-5,2.6244059E-5,2.134459E-5,5.3139505E-5,3.126036E-5,2.1659274E-5,9.442248E-6,9.350595E-6,2.461432E-5,5.1903196E-5,0E0,1.541396E-5,0E0,1.8277708E-5,0E0,0E0,0E0,0E0,0E0,2.2496191E-5,1.9959625E-5,0E0,1.3086643E-5,5.846916E-6,1.607099E-6,0E0,0E0,0E0,0E0,0E0,0E0,0E0,0E0,0E0,0E0,0E0],"parents":[2147483647,0,0,1,1,2,2,3,3,4,4,5,5,6,6,7,7,8,8,9,9,10,10,12,12,14,14,20,20,21,21,23,23,24,24,25,25],"right_children":[2,4,6,8,10,12,14,16,18,20,22,-1,24,-1,26,-1,-1,-1,-1,-1,28,30,-1,32,34,36,-1,-1,-1,-1,-1,-1,-1,-1,-1,-1,-1],"split_conditions":[8.066881E-2,-8.594079E-2,8.471693E-2,3.0998923E-5,7.4728824E-2,8.375228E-2,8.4062465E-2,8.201603E-2,6.778061E-2,-6.2081506E-3,9.275012E-2,1.8218861E-4,8.944406E-2,-1.20544064E-4,9.139178E-2,-1.5342409E-4,9.8663324E-5,-8.4753585E-5,-3.9079768E-4,2.3943186E-4,7.6096304E-2,2.136378E-6,-2.7542387E-4,8.187233E-2,7.014858E-2,6.852067E-2,1.03122125E-4,-1.897479E-4,1.7609727E-5,1.8657867E-5,2.6734694E-4,-2.1056745E-4,1.866594E-5,-5.053915E-5,1.9007474E-4,1.0229387E-4,4.1235104E-4],"split_indices":[5,12,1,10,1,5,0,0,1,11,4,0,5,0,9,0,0,0,0,0,9,6,0,9,2,4,0,0,0,0,0,0,0,0,0,0,0],"split_type":[0,0,0,0,0,0,0,0,0,0,0,0,0,0,0,0,0,0,0,0,0,0,0,0,0,0,0,0,0,0,0,0,0,0,0,0,0],"sum_hessian":[8.6E1,5.3E1,3.3E1,1.1E1,4.2E1,2.1E1,1.2E1,4E0,7E0,2.6E1,1.6E1,9E0,1.2E1,1E0,1.1E1,2E0,2E0,2E0,5E0,1E0,2.5E1,1.4E1,2E0,9E0,3E0,6E0,5E0,1.8E1,7E0,5E0,9E0,5E0,4E0,1E0,2E0,1E0,5E0],"tree_param":{"num_deleted":"0","num_feature":"13","num_nodes":"37","size_leaf_vector":"1"}},{"base_weights":[4.210824E-5,-6.399867E-4,1.124197E-3,-1.7121804E-3,-5.6329285E-5,4.6447496E-4,2.154173E-3,-4.14693E-4,-1.1818024E-3,1.1512554E-3,-1.1973922E-3,1.6579159E-3,-4.8928533E-4,-1.14516915E-4,2.5245491E-3,-1.3538302E-5,-1.4933634E-3,1.320956E-4,3.7746519E-4,-2.8280031E-3,-2.2726391E-4,5.716185E-5,1.8580379E-3,-1.0722562E-3,1.0904633E-3,3.1876465E-4,4.014429E-5,-1.8085289E-4,1.6003103E-5,1.6296507E-4,-6.298915E-5,-3.2976942E-4,-4.928559E-7,-1.5121339E-4,7.647965E-5,2.3596182E-4,7.66553E-5,1.3382659E-4,-1.4887883E-4,-4.8012287E-5,1.774033E-4],"categories":[],"categories_nodes":[],"categories_segments":[],"categories_sizes":[],"default_left":[0,0,0,0,0,0,0,0,0,0,0,0,0,0,0,0,0,0,0,0,0,0,0,0,0,0,0,0,0,0,0,0,0,0,0,0,0,0,0,0,0],"id":20,"left_children":[1,3,5,7,9,11,13,-1,15,17,19,21,23,-1,25,-1,27,29,-1,31,33,-1,35,37,39,-1,-1,-1,-1,-1,-1,-1,-1,-1,-1,-1,-1,-1,-1,-1,-1],"loss_changes":[6.493307E-5,3.3696426E-5,2.2102373E-5,1.9634568E-5,5.0983985E-5,2.5852842E-5,1.8776995E-5,0E0,5.3402255E-6,4.7627273E-5,2.9413432E-5,1.11183E-6,1.31415745E-5,0E0,1.5614256E-5,0E0,7.063627E-6,1.7002149E-5,0E0,9.265557E-6,1.7727165E-5,0E0,2.5709687E-6,1.2032988E-5,5.1461734E-6,0E0,0E0,0E0,0E0,0E0,0E0,0E0,0E0,0E0,0E0,0E0,0E0,0E0,0E0,0E0,0E0],"parents":[2147483647,0,0,1,1,2,2,3,3,4,4,5,5,6,6,8,8,9,9,10,10,11,11,12,12,14,14,16,16,17,17,19,19,20,20,22,22,23,23,24,24],"right_children":[2,4,6,8,10,12,14,-1,16,18,20,22,24,-1,26,-1,28,30,-1,32,34,-1,36,38,40,-1,-1,-1,-1,-1,-1,-1,-1,-1,-1,-1,-1,-1,-1,-1,-1],"split_conditions":[8.066881E-2,7.180967E-2,8.471693E-2,9.851714E-6,7.90673E-2,8.375228E-2,8.4062465E-2,-4.14693E-4,2.1737307E-5,7.61413E-2,8.4062465E-2,6.9050156E-2,8.944406E-2,-1.14516915E-4,9.449155E-2,-1.3538302E-5,7.5834736E-2,8.330451E-6,3.7746519E-4,8.471693E-2,8.240562E-2,5.716185E-5,8.2415715E-2,2.1804095E-5,7.014858E-2,3.1876465E-4,4.014429E-5,-1.8085289E-4,1.6003103E-5,1.6296507E-4,-6.298915E-5,-3.2976942E-4,-4.928559E-7,-1.5121339E-4,7.647965E-5,2.3596182E-4,7.66553E-5,1.3382659E-4,-1.4887883E-4,-4.8012287E-5,1.774033E-4],"split_indices":[5,2,1,8,2,5,0,0,10,1,2,2,5,0,9,0,9,8,0,3,1,0,5,10,2,0,0,0,0,0,0,0,0,0,0,0,0,0,0,0,0],"split_type":[0,0,0,0,0,0,0,0,0,0,0,0,0,0,0,0,0,0,0,0,0,0,0,0,0,0,0,0,0,0,0,0,0,0,0,0,0,0,0,0,0],"sum_hessian":[8.6E1,5.3E1,3.3E1,1.8E1,3.5E1,2.1E1,1.2E1,2E0,1.6E1,1.7E1,1.8E1,9E0,1.2E1,1E0,1.1E1,4E0,1.2E1,1.3E1,4E0,6E0,1.2E1,2E0,7E0,9E0,3E0,8E0,3E0,1E1,2E0,4E0,9E0,5E0,1E0,5E0,7E0,4E0,3E0,1E0,8E0,1E0,2E0],"tree_param":{"num_deleted":"0","num_feature":"13","num_nodes":"41","size_leaf_vector":"1"}},{"base_weights":[4.028653E-5,-5.856295E-4,1.0332036E-3,2.3969919E-4,-1.2538824E-3,5.024355E-4,2.0973154E-3,-1.1931319E-3,1.2744621E-3,-2.654875E-3,-6.2375446E-4,1.8175066E-3,-9.640946E-4,-4.561171E-5,2.3982704E-3,-1.2455284E-5,-1.7859553E-3,-1.0188794E-3,2.5230206E-3,-2.9449599E-4,-1.670979E-5,5.9741415E-4,-1.1190311E-3,5.3351123E-5,2.0024593E-3,-1.8830821E-3,2.6873997E-4,3.0212689E-3,7.0845526E-5,1.3721362E-5,-2.1293525E-4,-2.1807235E-4,8.698727E-5,3.3707172E-5,3.411703E-4,9.96992E-5,-2.6768694E-5,-2.3381462E-4,-3.5232915E-5,2.3214064E-4,8.639507E-5,-7.8234825E-6,-2.1708508E-4,-7.3468436E-5,9.5412324E-5,6.515756E-5,3.307622E-4],"categories":[],"categories_nodes":[],"categories_segments":[],"categories_sizes":[],"default_left":[0,0,0,0,0,0,0,0,0,0,0,0,0,0,0,0,0,0,0,0,0,0,0,0,0,0,0,0,0,0,0,0,0,0,0,0,0,0,0,0,0,0,0,0,0,0,0],"id":21,"left_children":[1,3,5,7,9,11,13,15,17,19,21,23,25,-1,27,-1,29,31,33,-1,-1,35,37,-1,39,41,43,45,-1,-1,-1,-1,-1,-1,-1,-1,-1,-1,-1,-1,-1,-1,-1,-1,-1,-1,-1],"loss_changes":[5.4674067E-5,3.0083087E-5,1.814932E-5,3.858661E-5,2.4828143E-5,4.8038444E-5,9.547046E-6,6.7458186E-6,4.5521225E-5,6.002898E-6,1.3974483E-5,2.0188818E-6,1.4101574E-5,0E0,8.387087E-6,0E0,4.9150512E-6,1.5063564E-5,1.827615E-5,0E0,0E0,2.6866085E-6,1.4131367E-5,0E0,1.9887812E-6,3.4658133E-6,4.827361E-6,2.5948175E-6,0E0,0E0,0E0,0E0,0E0,0E0,0E0,0E0,0E0,0E0,0E0,0E0,0E0,0E0,0E0,0E0,0E0,0E0,0E0],"parents":[2147483647,0,0,1,1,2,2,3,3,4,4,5,5,6,6,7,7,8,8,9,9,10,10,11,11,12,12,14,14,16,16,17,17,18,18,21,21,22,22,24,24,25,25,26,26,27,27],"right_children":[2,4,6,8,10,12,14,16,18,20,22,24,26,-1,28,-1,30,32,34,-1,-1,36,38,-1,40,42,44,46,-1,-1,-1,-1,-1,-1,-1,-1,-1,-1,-1,-1,-1,-1,-1,-1,-1,-1,-1],"split_conditions":[8.066881E-2,3.8027883E-5,8.944406E-2,7.180967E-2,-4.5250915E-3,8.410142E-2,7.014858E-2,2.1737307E-5,-8.594079E-2,8.2454436E-2,1.4614089E-3,6.9050156E-2,8.25068E-2,-4.561171E-5,9.86689E-2,-1.2455284E-5,6.661687E-2,8.240562E-2,7.00317E-2,-2.9449599E-4,-1.670979E-5,5.3665008E-5,3.102473E-6,5.3351123E-5,8.238042E-2,6.8240635E-2,8.279909E-2,-4.9641225E-3,7.0845526E-5,1.3721362E-5,-2.1293525E-4,-2.1807235E-4,8.698727E-5,3.3707172E-5,3.411703E-4,9.96992E-5,-2.6768694E-5,-2.3381462E-4,-3.5232915E-5,2.3214064E-4,8.639507E-5,-7.8234825E-6,-2.1708508E-4,-7.3468436E-5,9.5412324E-5,6.515756E-5,3.307622E-4],"split_indices":[5,10,5,2,11,5,2,10,12,3,11,2,2,0,1,0,9,0,0,0,0,10,6,0,9,1,3,11,0,0,0,0,0,0,0,0,0,0,0,0,0,0,0,0,0,0,0],"split_type":[0,0,0,0,0,0,0,0,0,0,0,0,0,0,0,0,0,0,0,0,0,0,0,0,0,0,0,0,0,0,0,0,0,0,0,0,0,0,0,0,0,0,0,0,0,0,0],"sum_hessian":[8.6E1,5.3E1,3.3E1,2.4E1,2.9E1,2.3E1,1E1,1E1,1.4E1,8E0,2.1E1,1.2E1,1.1E1,1E0,9E0,4E0,6E0,5E0,9E0,7E0,1E0,6E0,1.5E1,2E0,1E1,6E0,5E0,6E0,3E0,1E0,5E0,3E0,2E0,3E0,6E0,4E0,2E0,5E0,1E1,7E0,3E0,1E0,5E0,2E0,3E0,1E0,5E0],"tree_param":{"num_deleted":"0","num_feature":"13","num_nodes":"47","size_leaf_vector":"1"}},{"base_weights":[3.75794E-5,-9.462974E-4,5.72011E-4,-2.1646717E-3,-5.0074357E-4,-7.844461E-4,9.906107E-4,-1.1296993E-4,-3.5130593E-4,-2.8439983E-5,-2.2898093E-4,-2.1187503E-4,1.9225065E-4,1.4827809E-3,3.663916E-5,1.4649138E-3,-4.9333554E-4,9.318938E-5,-9.6527673E-4,4.3386873E-4,2.5756247E-3,5.366802E-4,-6.8293937E-4,2.8859824E-5,2.1529247E-4,5.41088E-5,-8.83234E-5,-1.7512614E-4,6.9633876E-5,1.7080928E-4,-3.006052E-5,3.438617E-5,2.91893E-4,1.046913E-6,1.3233795E-4,-1.3357386E-4,6.3270585E-5],"categories":[],"categories_nodes":[],"categories_segments":[],"categories_sizes":[],"default_left":[0,0,0,0,0,0,0,0,0,0,0,0,0,0,0,0,0,0,0,0,0,0,0,0,0,0,0,0,0,0,0,0,0,0,0,0,0],"id":22,"left_children":[1,3,5,7,9,11,13,-1,-1,15,-1,-1,17,19,21,23,25,-1,27,29,31,33,35,-1,-1,-1,-1,-1,-1,-1,-1,-1,-1,-1,-1,-1,-1],"loss_changes":[4.6287183E-5,1.5744448E-5,3.3142394E-5,7.1956492E-6,2.0214451E-5,1.8652276E-5,2.0604388E-5,0E0,0E0,1.46077655E-5,0E0,0E0,8.60495E-6,3.2125143E-5,6.1236215E-6,3.425259E-6,6.9310295E-6,0E0,6.443488E-6,1.548761E-5,9.72276E-6,4.1258445E-6,6.8570944E-6,0E0,0E0,0E0,0E0,0E0,0E0,0E0,0E0,0E0,0E0,0E0,0E0,0E0,0E0],"parents":[2147483647,0,0,1,1,2,2,3,3,4,4,5,5,6,6,9,9,12,12,13,13,14,14,15,15,16,16,18,18,19,19,20,20,21,21,22,22],"right_children":[2,4,6,8,10,12,14,-1,-1,16,-1,-1,18,20,22,24,26,-1,28,30,32,34,36,-1,-1,-1,-1,-1,-1,-1,-1,-1,-1,-1,-1,-1,-1],"split_conditions":[7.457384E-2,6.818457E-2,-8.364274E-2,6.6889815E-2,7.3926345E-2,4.1466905E-5,5.083441E-5,-1.1296993E-4,-3.5130593E-4,8.330451E-6,-2.2898093E-4,-2.1187503E-4,3.4698132E-5,2.0528745E-5,7.469024E-2,7.072012E-2,6.9539465E-2,9.318938E-5,8.4997766E-2,8.075512E-2,-4.484545E-3,7.655735E-2,8.4062465E-2,2.8859824E-5,2.1529247E-4,5.41088E-5,-8.83234E-5,-1.7512614E-4,6.9633876E-5,1.7080928E-4,-3.006052E-5,3.438617E-5,2.91893E-4,1.046913E-6,1.3233795E-4,-1.3357386E-4,6.3270585E-5],"split_indices":[7,5,12,0,5,6,8,0,0,8,0,0,10,8,4,1,5,0,0,2,11,3,0,0,0,0,0,0,0,0,0,0,0,0,0,0,0],"split_type":[0,0,0,0,0,0,0,0,0,0,0,0,0,0,0,0,0,0,0,0,0,0,0,0,0,0,0,0,0,0,0,0,0,0,0,0,0],"sum_hessian":[8.6E1,3E1,5.6E1,7E0,2.3E1,1.3E1,4.3E1,5E0,2E0,1.9E1,4E0,5E0,8E0,2.8E1,1.5E1,4E0,1.5E1,5E0,3E0,1.5E1,1.3E1,9E0,6E0,2E0,2E0,4E0,1.1E1,2E0,1E0,5E0,1E1,2E0,1.1E1,6E0,3E0,4E0,2E0],"tree_param":{"num_deleted":"0","num_feature":"13","num_nodes":"37","size_leaf_vector":"1"}},{"base_weights":[3.178302E-5,-5.022949E-4,8.7908964E-4,2.052182E-4,-1.075146E-3,3.5633927E-4,1.6961218E-3,-1.0064285E-3,1.0800778E-3,-2.2667493E-3,-5.388016E-4,1.3133623E-4,-4.07243E-4,2.6299304E-3,5.200101E-4,-1.1931062E-5,-1.4963086E-3,-8.845578E-4,2.1508515E-3,-5.3891792E-5,-2.6834273E-4,5.284133E-4,-9.72033E-4,-7.0793304E-4,1.6005189E-4,3.6857527E-4,1.4704511E-4,1.3062973E-4,-3.9627962E-4,1.7451495E-5,-1.8038652E-4,-1.8891525E-4,7.497545E-5,8.004879E-5,3.3411174E-4,8.7396504E-5,-2.2364407E-5,-2.0475661E-4,-2.97012E-5,-1.5642995E-4,4.091499E-5,-9.1258065E-5,8.001427E-6],"categories":[],"categories_nodes":[],"categories_segments":[],"categories_sizes":[],"default_left":[0,0,0,0,0,0,0,0,0,0,0,0,0,0,0,0,0,0,0,0,0,0,0,0,0,0,0,0,0,0,0,0,0,0,0,0,0,0,0,0,0,0,0],"id":23,"left_children":[1,3,5,7,9,11,13,15,17,19,21,-1,23,25,27,-1,29,31,33,-1,-1,35,37,39,-1,-1,-1,-1,41,-1,-1,-1,-1,-1,-1,-1,-1,-1,-1,-1,-1,-1,-1],"loss_changes":[3.9811475E-5,2.2106819E-5,1.3917137E-5,2.7587543E-5,1.7951967E-5,1.6611704E-5,1.29098335E-5,4.6018704E-6,3.3457756E-5,5.033391E-6,1.0685357E-5,0E0,8.981343E-6,3.1497075E-6,5.560927E-6,0E0,3.9119095E-6,1.1267328E-5,1.3398396E-5,0E0,0E0,2.0145803E-6,1.1007968E-5,1.2119621E-5,0E0,0E0,0E0,0E0,1.0566636E-6,0E0,0E0,0E0,0E0,0E0,0E0,0E0,0E0,0E0,0E0,0E0,0E0,0E0,0E0],"parents":[2147483647,0,0,1,1,2,2,3,3,4,4,5,5,6,6,7,7,8,8,9,9,10,10,12,12,13,13,14,14,16,16,17,17,18,18,21,21,22,22,23,23,28,28],"right_children":[2,4,6,8,10,12,14,16,18,20,22,-1,24,26,28,-1,30,32,34,-1,-1,36,38,40,-1,-1,-1,-1,42,-1,-1,-1,-1,-1,-1,-1,-1,-1,-1,-1,-1,-1,-1],"split_conditions":[8.066881E-2,3.8027883E-5,8.471693E-2,7.180967E-2,-4.5250915E-3,8.375228E-2,3.4773993E-6,2.1737307E-5,-8.594079E-2,6.778061E-2,1.4614089E-3,1.3133623E-4,5.2923504E-5,8.8604786E-2,7.45363E-2,-1.1931062E-5,6.661687E-2,8.240562E-2,7.3214896E-2,-5.3891792E-5,-2.6834273E-4,5.3665008E-5,3.102473E-6,8.187233E-2,1.6005189E-4,3.6857527E-4,1.4704511E-4,1.3062973E-4,8.4062465E-2,1.7451495E-5,-1.8038652E-4,-1.8891525E-4,7.497545E-5,8.004879E-5,3.3411174E-4,8.7396504E-5,-2.2364407E-5,-2.0475661E-4,-2.97012E-5,-1.5642995E-4,4.091499E-5,-9.1258065E-5,8.001427E-6],"split_indices":[5,10,1,2,11,5,6,10,12,1,11,0,6,1,4,0,9,0,0,0,0,10,6,9,0,0,0,0,0,0,0,0,0,0,0,0,0,0,0,0,0,0,0],"split_type":[0,0,0,0,0,0,0,0,0,0,0,0,0,0,0,0,0,0,0,0,0,0,0,0,0,0,0,0,0,0,0,0,0,0,0,0,0,0,0,0,0,0,0],"sum_hessian":[8.6E1,5.3E1,3.3E1,2.4E1,2.9E1,2.1E1,1.2E1,1E1,1.4E1,8E0,2.1E1,9E0,1.2E1,6E0,6E0,4E0,6E0,5E0,9E0,2E0,6E0,6E0,1.5E1,1.1E1,1E0,2E0,4E0,3E0,3E0,1E0,5E0,3E0,2E0,5E0,4E0,4E0,2E0,5E0,1E1,6E0,5E0,1E0,2E0],"tree_param":{"num_deleted":"0","num_feature":"13","num_nodes":"43","size_leaf_vector":"1"}},{"base_weights":[3.2886048E-5,-2.0560491E-4,1.6993332E-3,-1.9098171E-3,-7.900596E-6,-3.5561996E-5,1.9403904E-3,-9.858435E-5,-3.1211588E-4,1.0536509E-4,-1.5014276E-3,2.4890464E-3,4.951451E-5,-7.968473E-5,1.2862012E-3,7.1946533E-6,-1.9127577E-4,5.8134647E-5,2.7101053E-4,-1.11539826E-4,1.083374E-5,2.3126454E-4,8.6881504E-5],"categories":[],"categories_nodes":[],"categories_segments":[],"categories_sizes":[],"default_left":[0,0,0,0,0,0,0,0,0,0,0,0,0,0,0,0,0,0,0,0,0,0,0],"id":24,"left_children":[1,3,5,7,9,-1,11,-1,-1,13,15,17,-1,19,21,-1,-1,-1,-1,-1,-1,-1,-1],"loss_changes":[3.4926026E-5,2.592853E-5,6.1390165E-6,5.8770074E-6,1.1999774E-5,0E0,6.696984E-6,0E0,0E0,1.4524382E-5,3.3734977E-6,1.3764839E-6,0E0,1.1415589E-5,1.8465507E-6,0E0,0E0,0E0,0E0,0E0,0E0,0E0,0E0],"parents":[2147483647,0,0,1,1,2,2,3,3,4,4,6,6,9,9,10,10,11,11,13,13,14,14],"right_children":[2,4,6,8,10,-1,12,-1,-1,14,16,18,-1,20,22,-1,-1,-1,-1,-1,-1,-1,-1],"split_conditions":[8.944406E-2,6.818457E-2,7.014858E-2,6.6889815E-2,9.86689E-2,-3.5561996E-5,9.86689E-2,-9.858435E-5,-3.1211588E-4,8.8604786E-2,6.852067E-2,-4.9641225E-3,4.951451E-5,1.1701546E-6,7.180967E-2,7.1946533E-6,-1.9127577E-4,5.8134647E-5,2.7101053E-4,-1.11539826E-4,1.083374E-5,2.3126454E-4,8.6881504E-5],"split_indices":[5,5,2,0,4,0,1,0,0,4,0,11,0,6,3,0,0,0,0,0,0,0,0],"split_type":[0,0,0,0,0,0,0,0,0,0,0,0,0,0,0,0,0,0,0,0,0,0,0],"sum_hessian":[8.6E1,7.6E1,1E1,7E0,6.9E1,1E0,9E0,5E0,2E0,6.5E1,4E0,6E0,3E0,5.7E1,8E0,1E0,3E0,1E0,5E0,8E0,4.9E1,1E0,7E0],"tree_param":{"num_deleted":"0","num_feature":"13","num_nodes":"23","size_leaf_vector":"1"}},{"base_weights":[2.9204606E-5,-7.5921643E-4,4.5748265E-4,-1.0323363E-3,5.5083885E-5,-6.5003923E-4,7.994786E-4,-4.455865E-4,-2.0911316E-3,-1.7382478E-4,1.4765974E-4,9.0321584E-4,-1.8306114E-4,-9.105551E-4,9.4544294E-4,-2.5602776E-4,-2.99414E-5,7.559794E-5,-8.017346E-4,1.4442838E-3,1.437468E-4,-4.469881E-5,-1.9577258E-4,1.3360381E-4,-3.0846895E-5,-1.4628396E-4,5.9079008E-5,5.708451E-5,2.504038E-4,4.2156676E-5,-7.184625E-5],"categories":[],"categories_nodes":[],"categories_segments":[],"categories_sizes":[],"default_left":[0,0,0,0,0,0,0,0,0,0,0,0,0,0,0,0,0,0,0,0,0,0,0,0,0,0,0,0,0,0,0],"id":25,"left_children":[1,3,5,7,-1,9,11,13,15,-1,17,19,-1,21,23,-1,-1,-1,25,27,29,-1,-1,-1,-1,-1,-1,-1,-1,-1,-1],"loss_changes":[2.9724046E-5,1.1660513E-5,2.2109467E-5,1.52206685E-5,0E0,1.24095495E-5,1.3658324E-5,1.2503009E-5,6.7986075E-6,0E0,5.8039113E-6,1.7462135E-5,0E0,5.9209933E-6,2.8609861E-6,0E0,0E0,0E0,4.5466513E-6,2.1711337E-5,4.8541197E-6,0E0,0E0,0E0,0E0,0E0,0E0,0E0,0E0,0E0,0E0],"parents":[2147483647,0,0,1,1,2,2,3,3,5,5,6,6,7,7,8,8,10,10,11,11,13,13,14,14,18,18,19,19,20,20],"right_children":[2,4,6,8,-1,10,12,14,16,-1,18,20,-1,22,24,-1,-1,-1,26,28,30,-1,-1,-1,-1,-1,-1,-1,-1,-1,-1],"split_conditions":[7.457384E-2,7.6096304E-2,-8.364274E-2,7.227608E-2,5.5083885E-5,4.1466905E-5,9.86689E-2,7.469024E-2,6.352873E-5,-1.7382478E-4,3.4698132E-5,4.0641648E-5,-1.8306114E-4,7.1929045E-2,7.28428E-2,-2.5602776E-4,-2.99414E-5,7.559794E-5,8.4997766E-2,2.0528745E-5,9.517521E-5,-4.469881E-5,-1.9577258E-4,1.3360381E-4,-3.0846895E-5,-1.4628396E-4,5.9079008E-5,5.708451E-5,2.504038E-4,4.2156676E-5,-7.184625E-5],"split_indices":[7,9,12,9,0,6,4,2,10,0,10,8,0,7,3,0,0,0,0,8,8,0,0,0,0,0,0,0,0,0,0],"split_type":[0,0,0,0,0,0,0,0,0,0,0,0,0,0,0,0,0,0,0,0,0,0,0,0,0,0,0,0,0,0,0],"sum_hessian":[8.6E1,3E1,5.6E1,2.5E1,5E0,1.3E1,4.3E1,1.7E1,8E0,5E0,8E0,4.2E1,1E0,1.3E1,4E0,6E0,2E0,5E0,3E0,2.4E1,1.8E1,1E1,3E0,3E0,1E0,2E0,1E0,1.4E1,1E1,1.4E1,4E0],"tree_param":{"num_deleted":"0","num_feature":"13","num_nodes":"31","size_leaf_vector":"1"}},{"base_weights":[2.1003743E-5,-1.4195723E-3,2.2652755E-4,-2.1268279E-4,-2.0788403E-3,2.2089303E-5,1.4511489E-3,2.8725466E-5,-6.41726E-5,-2.311614E-3,-3.4109875E-5,1.6427651E-4,-1.2201263E-3,-3.0191615E-5,1.6566471E-3,-4.0199608E-5,-2.6131383E-4,-1.2567063E-4,8.639097E-4,-1.6015157E-4,-1.7776836E-5,2.1596477E-4,3.622342E-5,-5.311507E-5,6.9366746E-5,1.3345016E-4,-2.9969091E-5],"categories":[],"categories_nodes":[],"categories_segments":[],"categories_sizes":[],"default_left":[0,0,0,0,0,0,0,0,0,0,0,0,0,0,0,0,0,0,0,0,0,0,0,0,0,0,0],"id":26,"left_children":[1,3,5,7,9,11,13,-1,-1,15,-1,17,19,-1,21,-1,-1,23,25,-1,-1,-1,-1,-1,-1,-1,-1],"loss_changes":[2.6079895E-5,8.310164E-6,1.9245623E-5,1.2568124E-6,2.043018E-6,1.2034457E-5,4.462934E-6,0E0,0E0,2.4043075E-6,0E0,1.2482825E-5,2.4981118E-6,0E0,5.728609E-6,0E0,0E0,1.4986351E-5,1.0256395E-5,0E0,0E0,0E0,0E0,0E0,0E0,0E0,0E0],"parents":[2147483647,0,0,1,1,2,2,3,3,4,4,5,5,6,6,9,9,11,11,12,12,14,14,17,17,18,18],"right_children":[2,4,6,8,10,12,14,-1,-1,16,-1,18,20,-1,22,-1,-1,24,26,-1,-1,-1,-1,-1,-1,-1,-1],"split_conditions":[6.825984E-2,2.179975E-5,8.944406E-2,6.825984E-2,6.352873E-5,8.582123E-2,7.014858E-2,2.8725466E-5,-6.41726E-5,6.360674E-2,-3.4109875E-5,8.066881E-2,8.756616E-2,-3.0191615E-5,9.86689E-2,-4.0199608E-5,-2.6131383E-4,2.6371952E-3,8.410142E-2,-1.6015157E-4,-1.7776836E-5,2.1596477E-4,3.622342E-5,-5.311507E-5,6.9366746E-5,1.3345016E-4,-2.9969091E-5],"split_indices":[2,10,5,1,10,5,2,0,0,3,0,5,0,0,1,0,0,11,5,0,0,0,0,0,0,0,0],"split_type":[0,0,0,0,0,0,0,0,0,0,0,0,0,0,0,0,0,0,0,0,0,0,0,0,0,0,0],"sum_hessian":[8.6E1,1E1,7.6E1,4E0,6E0,6.6E1,1E1,2E0,2E0,5E0,1E0,6E1,6E0,1E0,9E0,1E0,4E0,4.3E1,1.7E1,4E0,2E0,6E0,3E0,2.9E1,1.4E1,1.2E1,5E0],"tree_param":{"num_deleted":"0","num_feature":"13","num_nodes":"27","size_leaf_vector":"1"}},{"base_weights":[1.6521662E-5,-1.5825438E-3,1.7622169E-4,-7.912629E-5,-2.6375914E-4,-7.009187E-6,1.3262163E-3,1.15220086E-4,-1.1235327E-3,9.1379957E-4,2.7251916E-4,-7.248074E-4,3.230112E-4,-1.4733955E-4,-1.6591699E-5,1.5049874E-4,2.6884303E-5,9.050202E-5,-1.3042577E-4,-3.4511304E-5,7.513736E-5],"categories":[],"categories_nodes":[],"categories_segments":[],"categories_sizes":[],"default_left":[0,0,0,0,0,0,0,0,0,0,0,0,0,0,0,0,0,0,0,0,0],"id":27,"left_children":[1,3,5,-1,-1,7,9,11,13,15,-1,17,19,-1,-1,-1,-1,-1,-1,-1,-1],"loss_changes":[2.2496137E-5,4.591684E-6,1.6866457E-5,0E0,0E0,9.682483E-6,3.8562885E-6,1.14053355E-5,2.1007781E-6,3.4082996E-6,0E0,1.345763E-5,1.5141673E-5,0E0,0E0,0E0,0E0,0E0,0E0,0E0,0E0],"parents":[2147483647,0,0,1,1,2,2,5,5,6,6,7,7,8,8,9,9,11,11,12,12],"right_children":[2,4,6,-1,-1,8,10,12,14,16,-1,18,20,-1,-1,-1,-1,-1,-1,-1,-1],"split_conditions":[6.818457E-2,6.6889815E-2,8.944406E-2,-7.912629E-5,-2.6375914E-4,8.582123E-2,9.122642E-2,1.596138E-6,8.756616E-2,9.122642E-2,2.7251916E-4,7.660217E-2,-3.9063767E-3,-1.4733955E-4,-1.6591699E-5,1.5049874E-4,2.6884303E-5,9.050202E-5,-1.3042577E-4,-3.4511304E-5,7.513736E-5],"split_indices":[5,0,5,0,0,5,3,6,0,0,0,4,11,0,0,0,0,0,0,0,0],"split_type":[0,0,0,0,0,0,0,0,0,0,0,0,0,0,0,0,0,0,0,0,0],"sum_hessian":[8.6E1,7E0,7.9E1,5E0,2E0,6.9E1,1E1,6.3E1,6E0,9E0,1E0,1.2E1,5.1E1,4E0,2E0,4E0,5E0,3E0,9E0,2E1,3.1E1],"tree_param":{"num_deleted":"0","num_feature":"13","num_nodes":"21","size_leaf_vector":"1"}},{"base_weights":[1.4222431E-5,-1.2681514E-3,1.97234E-4,-1.6471893E-5,-1.875153E-3,-4.976483E-5,9.538496E-4,-2.0928513E-3,-2.844818E-5,1.0259723E-3,-2.38625E-4,2.1474382E-3,2.3777496E-4,-4.1946398E-5,-2.343636E-4,-3.7740917E-6,1.564119E-4,-9.825323E-4,-9.487197E-6,3.0940803E-4,-1.4611085E-4,-1.6615391E-4,7.341538E-4,-1.5671428E-4,5.7847425E-5,1.3415987E-4,-2.4083087E-5,5.205348E-5,-7.397011E-5,8.9538844E-5,5.73198E-7],"categories":[],"categories_nodes":[],"categories_segments":[],"categories_sizes":[],"default_left":[0,0,0,0,0,0,0,0,0,0,0,0,0,0,0,0,0,0,0,0,0,0,0,0,0,0,0,0,0,0,0],"id":28,"left_children":[1,3,5,-1,7,9,11,13,-1,15,17,19,21,-1,-1,-1,-1,23,25,-1,27,-1,29,-1,-1,-1,-1,-1,-1,-1,-1],"loss_changes":[2.0668087E-5,7.0587666E-6,1.4437471E-5,0E0,1.8286246E-6,1.2231492E-5,1.5728667E-5,1.5348887E-6,0E0,5.2109344E-6,8.684001E-6,1.5650265E-5,1.3475956E-5,0E0,0E0,0E0,0E0,1.185752E-5,1.2825704E-5,0E0,1.5721832E-6,0E0,1.2867831E-6,0E0,0E0,0E0,0E0,0E0,0E0,0E0,0E0],"parents":[2147483647,0,0,1,1,2,2,4,4,5,5,6,6,7,7,9,9,10,10,11,11,12,12,17,17,18,18,20,20,22,22],"right_children":[2,4,6,-1,8,10,12,14,-1,16,18,20,22,-1,-1,-1,-1,24,26,-1,28,-1,30,-1,-1,-1,-1,-1,-1,-1,-1],"split_conditions":[6.825984E-2,2.179975E-5,8.6332336E-2,-1.6471893E-5,6.352873E-5,2.1906919E-5,8.8604786E-2,6.360674E-2,-2.844818E-5,7.47307E-2,3.3509295E-5,1.2044682E-5,8.983542E-2,-4.1946398E-5,-2.343636E-4,-3.7740917E-6,1.564119E-4,4.4004642E-4,8.330451E-6,3.0940803E-4,8.3795264E-2,-1.6615391E-4,9.998509E-2,-1.5671428E-4,5.7847425E-5,1.3415987E-4,-2.4083087E-5,5.205348E-5,-7.397011E-5,8.9538844E-5,5.73198E-7],"split_indices":[2,10,1,0,10,10,1,3,0,2,10,6,1,0,0,0,0,11,8,0,0,0,1,0,0,0,0,0,0,0,0],"split_type":[0,0,0,0,0,0,0,0,0,0,0,0,0,0,0,0,0,0,0,0,0,0,0,0,0,0,0,0,0,0,0],"sum_hessian":[8.6E1,1E1,7.6E1,4E0,6E0,5.8E1,1.8E1,5E0,1E0,8E0,5E1,6E0,1.2E1,1E0,4E0,3E0,5E0,1.1E1,3.9E1,4E0,2E0,2E0,1E1,8E0,3E0,5E0,3.4E1,1E0,1E0,8E0,2E0],"tree_param":{"num_deleted":"0","num_feature":"13","num_nodes":"31","size_leaf_vector":"1"}},{"base_weights":[1.3420765E-5,-6.030268E-4,3.4844628E-4,4.5536584E-4,-8.240779E-4,4.759664E-4,-1.4601872E-4,-1.5333891E-4,1.1597946E-3,-2.4132196E-4,-5.910986E-4,8.5049844E-4,-1.074665E-4,2.0358462E-5,1.7294065E-4,-1.7140433E-4,-1.2715443E-3,1.974822E-4,1.5319856E-3,-4.6456358E-4,5.755238E-4,1.9569945E-5,-5.6297053E-5,-1.425636E-4,-1.9405038E-6,1.4959245E-4,-2.803531E-5,2.1758872E-4,7.894081E-5,-2.0354987E-7,-1.1580164E-4,5.8224796E-6,1.07826665E-4],"categories":[],"categories_nodes":[],"categories_segments":[],"categories_sizes":[],"default_left":[0,0,0,0,0,0,0,0,0,0,0,0,0,0,0,0,0,0,0,0,0,0,0,0,0,0,0,0,0,0,0,0,0],"id":29,"left_children":[1,3,5,7,9,11,-1,-1,13,-1,15,17,19,-1,-1,21,23,25,27,29,31,-1,-1,-1,-1,-1,-1,-1,-1,-1,-1,-1,-1],"loss_changes":[1.8177854E-5,7.627982E-6,1.384132E-5,1.0184034E-5,8.199715E-6,1.1891172E-5,0E0,0E0,2.3712619E-6,0E0,6.6359516E-6,1.4383193E-5,5.633032E-6,0E0,0E0,2.4100998E-6,1.708835E-6,1.1587335E-5,5.932685E-6,4.8087645E-6,2.017765E-6,0E0,0E0,0E0,0E0,0E0,0E0,0E0,0E0,0E0,0E0,0E0,0E0],"parents":[2147483647,0,0,1,1,2,2,3,3,4,4,5,5,8,8,10,10,11,11,12,12,15,15,16,16,17,17,18,18,19,19,20,20],"right_children":[2,4,6,8,10,12,-1,-1,14,-1,16,18,20,-1,-1,22,24,26,28,30,32,-1,-1,-1,-1,-1,-1,-1,-1,-1,-1,-1,-1],"split_conditions":[7.457384E-2,8.330451E-6,9.86689E-2,6.978077E-2,9.851714E-6,4.4414202E-5,-1.4601872E-4,-1.5333891E-4,7.072012E-2,-2.4132196E-4,7.1929045E-2,2.4757945E-5,6.31453E-5,2.0358462E-5,1.7294065E-4,7.3808216E-2,8.689036E-2,2.9957742E-5,7.6894775E-2,7.970694E-2,7.444725E-2,1.9569945E-5,-5.6297053E-5,-1.425636E-4,-1.9405038E-6,1.4959245E-4,-2.803531E-5,2.1758872E-4,7.894081E-5,-2.0354987E-7,-1.1580164E-4,5.8224796E-6,1.07826665E-4],"split_indices":[7,8,4,2,8,8,0,0,1,0,7,8,10,0,0,4,3,10,4,7,4,0,0,0,0,0,0,0,0,0,0,0,0],"split_type":[0,0,0,0,0,0,0,0,0,0,0,0,0,0,0,0,0,0,0,0,0,0,0,0,0,0,0,0,0,0,0,0,0],"sum_hessian":[8.6E1,3E1,5.6E1,5E0,2.5E1,5.3E1,3E0,1E0,4E0,2E0,2.3E1,3.2E1,2.1E1,2E0,2E0,1.5E1,8E0,1.7E1,1.5E1,1.4E1,7E0,8E0,7E0,7E0,1E0,4E0,1.3E1,7E0,8E0,9E0,5E0,4E0,3E0],"tree_param":{"num_deleted":"0","num_feature":"13","num_nodes":"33","size_leaf_vector":"1"}},{"base_weights":[1.07817605E-5,-1.1135902E-3,1.712663E-4,-1.2167692E-5,-1.6630153E-3,1.5282363E-5,1.1057806E-3,-1.8594811E-4,-2.4211035E-5,1.587715E-4,-8.184828E-4,7.5127184E-4,2.3254343E-4,-1.0784648E-4,9.302661E-4,-1.2276107E-3,5.453527E-5,1.2818098E-4,1.839449E-5,3.0904695E-5,-6.726561E-5,1.2476624E-4,2.4622805E-5,2.3428352E-6,-1.4096776E-4],"categories":[],"categories_nodes":[],"categories_segments":[],"categories_sizes":[],"default_left":[0,0,0,0,0,0,0,0,0,0,0,0,0,0,0,0,0,0,0,0,0,0,0,0,0],"id":30,"left_children":[1,3,5,-1,7,9,11,-1,-1,13,15,17,-1,19,21,23,-1,-1,-1,-1,-1,-1,-1,-1,-1],"loss_changes":[1.5889374E-5,5.7924526E-6,1.1207331E-5,0E0,1.503915E-6,8.145579E-6,3.009125E-6,0E0,0E0,1.2030596E-5,6.2493136E-6,2.7741025E-6,0E0,1.0568359E-5,2.9494577E-6,1.8552073E-6,0E0,0E0,0E0,0E0,0E0,0E0,0E0,0E0,0E0],"parents":[2147483647,0,0,1,1,2,2,4,4,5,5,6,6,9,9,10,10,11,11,13,13,14,14,15,15],"right_children":[2,4,6,-1,8,10,12,-1,-1,14,16,18,-1,20,22,24,-1,-1,-1,-1,-1,-1,-1,-1,-1],"split_conditions":[6.825984E-2,2.179975E-5,8.944406E-2,-1.2167692E-5,6.352873E-5,8.5505806E-2,9.122642E-2,-1.8594811E-4,-2.4211035E-5,8.066881E-2,8.67105E-2,9.122642E-2,2.3254343E-4,7.90673E-2,8.841053E-2,6.8240635E-2,5.453527E-5,1.2818098E-4,1.839449E-5,3.0904695E-5,-6.726561E-5,1.2476624E-4,2.4622805E-5,2.3428352E-6,-1.4096776E-4],"split_indices":[2,10,5,0,10,5,3,0,0,5,3,0,0,2,4,1,0,0,0,0,0,0,0,0,0],"split_type":[0,0,0,0,0,0,0,0,0,0,0,0,0,0,0,0,0,0,0,0,0,0,0,0,0],"sum_hessian":[8.6E1,1E1,7.6E1,4E0,6E0,6.6E1,1E1,5E0,1E0,5.7E1,9E0,9E0,1E0,4.3E1,1.4E1,7E0,2E0,4E0,5E0,2.5E1,1.8E1,9E0,5E0,1E0,6E0],"tree_param":{"num_deleted":"0","num_feature":"13","num_nodes":"25","size_leaf_vector":"1"}},{"base_weights":[1.1837731E-5,-5.270537E-4,3.195643E-4,-1.2685102E-3,-2.6870548E-4,-4.892855E-4,5.7547906E-4,-6.0972823E-5,-2.1632377E-4,2.0312518E-5,-1.1873146E-3,-1.3611639E-4,1.4633189E-4,1.5836358E-3,2.9979646E-4,1.0577515E-3,-3.051567E-4,-2.4968385E-5,-1.593709E-4,5.7605033E-5,-5.3482875E-4,1.9824038E-4,1.252989E-5,-3.8497725E-5,1.1493817E-3,1.694113E-5,1.5935079E-4,7.3295428E-6,-9.481262E-5,-9.809186E-5,4.0172043E-5,3.7938313E-5,-7.450454E-5,-3.0032917E-5,1.3438307E-4],"categories":[],"categories_nodes":[],"categories_segments":[],"categories_sizes":[],"default_left":[0,0,0,0,0,0,0,0,0,0,0,0,0,0,0,0,0,0,0,0,0,0,0,0,0,0,0,0,0,0,0,0,0,0,0],"id":31,"left_children":[1,3,5,7,9,11,13,-1,-1,15,17,-1,19,21,23,25,27,-1,-1,-1,29,-1,-1,31,33,-1,-1,-1,-1,-1,-1,-1,-1,-1,-1],"loss_changes":[1.4595745E-5,5.788872E-6,1.1873382E-5,3.3964552E-6,6.661482E-6,7.957717E-6,1.1476275E-5,0E0,0E0,7.075869E-6,1.8883629E-6,0E0,2.9424539E-6,4.985448E-6,1.010359E-5,2.1097112E-6,3.9628235E-6,0E0,0E0,0E0,2.0651955E-6,0E0,0E0,7.959228E-6,3.2225362E-6,0E0,0E0,0E0,0E0,0E0,0E0,0E0,0E0,0E0,0E0],"parents":[2147483647,0,0,1,1,2,2,3,3,4,4,5,5,6,6,9,9,10,10,12,12,13,13,14,14,15,15,16,16,20,20,23,23,24,24],"right_children":[2,4,6,8,10,12,14,-1,-1,16,18,-1,20,22,24,26,28,-1,-1,-1,30,-1,-1,32,34,-1,-1,-1,-1,-1,-1,-1,-1,-1,-1],"split_conditions":[7.481923E-2,6.818457E-2,-8.364274E-2,6.6889815E-2,7.3926345E-2,4.1466905E-5,7.180967E-2,-6.0972823E-5,-2.1632377E-4,8.330451E-6,2.179975E-5,-1.3611639E-4,3.4698132E-5,8.1729345E-2,8.944406E-2,7.072012E-2,7.426104E-2,-2.4968385E-5,-1.593709E-4,5.7605033E-5,8.4997766E-2,1.9824038E-4,1.252989E-5,8.5505806E-2,7.014858E-2,1.694113E-5,1.5935079E-4,7.3295428E-6,-9.481262E-5,-9.809186E-5,4.0172043E-5,3.7938313E-5,-7.450454E-5,-3.0032917E-5,1.3438307E-4],"split_indices":[7,5,12,0,5,6,3,0,0,8,10,0,10,7,5,1,9,0,0,0,0,0,0,5,2,0,0,0,0,0,0,0,0,0,0],"split_type":[0,0,0,0,0,0,0,0,0,0,0,0,0,0,0,0,0,0,0,0,0,0,0,0,0,0,0,0,0,0,0,0,0,0,0],"sum_hessian":[8.6E1,3.1E1,5.5E1,7E0,2.4E1,1.3E1,4.2E1,5E0,2E0,1.9E1,5E0,5E0,8E0,8E0,3.4E1,4E0,1.5E1,2E0,3E0,5E0,3E0,6E0,2E0,2.5E1,9E0,2E0,2E0,1E1,5E0,2E0,1E0,1.6E1,9E0,1E0,8E0],"tree_param":{"num_deleted":"0","num_feature":"13","num_nodes":"35","size_leaf_vector":"1"}},{"base_weights":[8.001838E-6,-1.17632E-3,1.26334E-4,-5.5891527E-5,-2.0190228E-4,1.011697E-5,1.1710227E-3,-6.1238714E-4,1.5519932E-4,1.8010252E-4,4.3281616E-5,3.499821E-5,-1.0323331E-3,4.8651057E-4,-1.4990149E-4,-1.1944217E-4,2.1323189E-5,9.4350136E-5,-2.3951818E-5,-4.3984594E-5,7.7491255E-5],"categories":[],"categories_nodes":[],"categories_segments":[],"categories_sizes":[],"default_left":[0,0,0,0,0,0,0,0,0,0,0,0,0,0,0,0,0,0,0,0,0],"id":32,"left_children":[1,3,5,-1,-1,7,9,11,13,-1,-1,-1,15,17,19,-1,-1,-1,-1,-1,-1],"loss_changes":[1.2341082E-5,3.0338479E-6,9.7010015E-6,0E0,0E0,6.68799E-6,2.941063E-6,6.0193E-6,6.1379287E-6,0E0,0E0,0E0,2.2736076E-6,9.84785E-6,8.921472E-6,0E0,0E0,0E0,0E0,0E0,0E0],"parents":[2147483647,0,0,1,1,2,2,5,5,6,6,7,7,8,8,12,12,13,13,14,14],"right_children":[2,4,6,-1,-1,8,10,12,14,-1,-1,-1,16,18,20,-1,-1,-1,-1,-1,-1],"split_conditions":[6.818457E-2,6.6889815E-2,9.214332E-2,-5.5891527E-5,-2.0190228E-4,1.596138E-6,9.86689E-2,7.47307E-2,3.8027883E-5,1.8010252E-4,4.3281616E-5,3.499821E-5,7.994724E-2,8.075512E-2,8.6332336E-2,-1.1944217E-4,2.1323189E-5,9.4350136E-5,-2.3951818E-5,-4.3984594E-5,7.7491255E-5],"split_indices":[5,0,3,0,0,6,3,4,10,0,0,0,0,2,2,0,0,0,0,0,0],"split_type":[0,0,0,0,0,0,0,0,0,0,0,0,0,0,0,0,0,0,0,0,0],"sum_hessian":[8.6E1,7E0,7.9E1,5E0,2E0,7.2E1,7E0,1.3E1,5.9E1,3E0,4E0,4E0,9E0,2.8E1,3.1E1,8E0,1E0,1.7E1,1.1E1,2.4E1,7E0],"tree_param":{"num_deleted":"0","num_feature":"13","num_nodes":"21","size_leaf_vector":"1"}},{"base_weights":[7.2768194E-6,-9.357462E-4,1.4189989E-4,-1.0035932E-5,-1.398773E-3,3.2450578E-5,1.0818439E-3,-1.5747125E-4,-1.7156824E-5,8.304699E-4,-8.3914325E-5,1.665948E-4,3.981918E-5,-7.947348E-6,1.2986871E-4,4.6881908E-4,-3.0314294E-4,-7.235681E-5,9.830886E-5,-1.3812199E-4,-1.642764E-5],"categories":[],"categories_nodes":[],"categories_segments":[],"categories_sizes":[],"default_left":[0,0,0,0,0,0,0,0,0,0,0,0,0,0,0,0,0,0,0,0,0],"id":33,"left_children":[1,3,5,-1,7,9,11,-1,-1,13,15,-1,-1,-1,-1,17,19,-1,-1,-1,-1],"loss_changes":[1.1177663E-5,4.114492E-6,7.886362E-6,0E0,1.2412265E-6,6.569989E-6,2.5312256E-6,0E0,0E0,3.9376714E-6,7.654968E-6,0E0,0E0,0E0,0E0,1.1749084E-5,6.5099944E-6,0E0,0E0,0E0,0E0],"parents":[2147483647,0,0,1,1,2,2,4,4,5,5,6,6,9,9,10,10,15,15,16,16],"right_children":[2,4,6,-1,8,10,12,-1,-1,14,16,-1,-1,-1,-1,18,20,-1,-1,-1,-1],"split_conditions":[6.825984E-2,2.179975E-5,9.214332E-2,-1.0035932E-5,6.352873E-5,2.1906919E-5,9.86689E-2,-1.5747125E-4,-1.7156824E-5,7.47307E-2,7.115362E-2,1.665948E-4,3.981918E-5,-7.947348E-6,1.2986871E-4,7.2568566E-2,6.778061E-2,-7.235681E-5,9.830886E-5,-1.3812199E-4,-1.642764E-5],"split_indices":[2,10,3,0,10,10,3,0,0,2,4,0,0,0,0,0,3,0,0,0,0],"split_type":[0,0,0,0,0,0,0,0,0,0,0,0,0,0,0,0,0,0,0,0,0],"sum_hessian":[8.6E1,1E1,7.6E1,4E0,6E0,6.9E1,7E0,5E0,1E0,8E0,6.1E1,3E0,4E0,3E0,5E0,1.7E1,4.4E1,5E0,1.2E1,4E0,4E1],"tree_param":{"num_deleted":"0","num_feature":"13","num_nodes":"21","size_leaf_vector":"1"}},{"base_weights":[6.7226074E-6,-1.181829E-4,8.8045E-4,-1.0127886E-3,-1.4253918E-5,5.7477056E-4,1.9686222E-4,-4.464798E-5,-1.8078102E-4,9.764108E-5,-6.95388E-4,1.0098055E-4,1.1644637E-5,-9.5780626E-5,7.5382687E-4,-1.164645E-3,2.9965862E-5,2.799205E-5,-4.5262248E-5,1.04038416E-4,1.9835308E-5,3.2350422E-6,-1.3695359E-4],"categories":[],"categories_nodes":[],"categories_segments":[],"categories_sizes":[],"default_left":[0,0,0,0,0,0,0,0,0,0,0,0,0,0,0,0,0,0,0,0,0,0,0],"id":34,"left_children":[1,3,5,7,9,11,-1,-1,-1,13,15,-1,-1,17,19,21,-1,-1,-1,-1,-1,-1,-1],"loss_changes":[9.598657E-6,7.1446734E-6,2.527444E-6,2.7946708E-6,5.4029833E-6,1.8762817E-6,0E0,0E0,0E0,7.814357E-6,5.0183207E-6,0E0,0E0,6.56186E-6,2.0220878E-6,1.7610801E-6,0E0,0E0,0E0,0E0,0E0,0E0,0E0],"parents":[2147483647,0,0,1,1,2,2,3,3,4,4,5,5,9,9,10,10,13,13,14,14,15,15],"right_children":[2,4,6,8,10,12,-1,-1,-1,14,16,-1,-1,18,20,22,-1,-1,-1,-1,-1,-1,-1],"split_conditions":[8.944406E-2,6.818457E-2,9.122642E-2,6.6889815E-2,8.5505806E-2,9.122642E-2,1.9686222E-4,-4.464798E-5,-1.8078102E-4,8.086546E-2,8.770164E-2,1.0098055E-4,1.1644637E-5,3.8027883E-5,8.841053E-2,6.8240635E-2,2.9965862E-5,2.799205E-5,-4.5262248E-5,1.04038416E-4,1.9835308E-5,3.2350422E-6,-1.3695359E-4],"split_indices":[5,5,3,0,5,0,0,0,0,5,0,0,0,10,4,1,0,0,0,0,0,0,0],"split_type":[0,0,0,0,0,0,0,0,0,0,0,0,0,0,0,0,0,0,0,0,0,0,0],"sum_hessian":[8.6E1,7.6E1,1E1,7E0,6.9E1,9E0,1E0,5E0,2E0,6E1,9E0,4E0,5E0,4.7E1,1.3E1,6E0,3E0,2.3E1,2.4E1,8E0,5E0,1E0,5E0],"tree_param":{"num_deleted":"0","num_feature":"13","num_nodes":"23","size_leaf_vector":"1"}},{"base_weights":[7.0498336E-6,-5.5981695E-4,1.8461928E-4,-1.9858193E-4,-1.1220011E-3,-7.9132087E-4,2.9358585E-4,-4.890774E-4,8.042436E-6,-4.380524E-5,-1.6964367E-4,1.0253986E-4,-1.7230883E-3,3.9202222E-4,-8.8730606E-4,-1.7857179E-6,-8.380283E-5,-1.9794237E-4,-3.4887344E-5,-8.1985076E-5,4.7453094E-4,1.1544303E-5,-1.16685405E-4,1.1365474E-4,2.98242E-5],"categories":[],"categories_nodes":[],"categories_segments":[],"categories_sizes":[],"default_left":[0,0,0,0,0,0,0,0,0,0,0,0,0,0,0,0,0,0,0,0,0,0,0,0,0],"id":35,"left_children":[1,3,5,7,9,11,13,15,-1,-1,-1,-1,17,19,21,-1,-1,-1,-1,-1,23,-1,-1,-1,-1],"loss_changes":[8.8606175E-6,4.041883E-6,7.3574265E-6,1.1740347E-6,2.3999473E-6,1.36161725E-5,7.4386503E-6,1.1360643E-6,0E0,0E0,0E0,0E0,1.0707317E-6,6.0884777E-6,1.5362875E-6,0E0,0E0,0E0,0E0,0E0,5.9631675E-6,0E0,0E0,0E0,0E0],"parents":[2147483647,0,0,1,1,2,2,3,3,4,4,5,5,6,6,7,7,12,12,13,13,14,14,20,20],"right_children":[2,4,6,8,10,12,14,16,-1,-1,-1,-1,18,20,22,-1,-1,-1,-1,-1,24,-1,-1,-1,-1],"split_conditions":[7.020561E-2,6.9050156E-2,6.825984E-2,6.95876E-2,8.960601E-6,7.321663E-2,9.86689E-2,7.3808216E-2,8.042436E-6,-4.380524E-5,-1.6964367E-4,1.0253986E-4,6.8240635E-2,6.8240635E-2,6.852067E-2,-1.7857179E-6,-8.380283E-5,-1.9794237E-4,-3.4887344E-5,-8.1985076E-5,7.180967E-2,1.1544303E-5,-1.16685405E-4,1.1365474E-4,2.98242E-5],"split_indices":[1,1,3,0,6,7,4,4,0,0,0,0,3,2,0,0,0,0,0,0,3,0,0,0,0],"split_type":[0,0,0,0,0,0,0,0,0,0,0,0,0,0,0,0,0,0,0,0,0,0,0,0,0],"sum_hessian":[8.6E1,2E1,6.6E1,1.3E1,7E0,6E0,6E1,6E0,7E0,4E0,3E0,2E0,4E0,5.6E1,4E0,3E0,3E0,3E0,1E0,3E0,5.3E1,1E0,3E0,1E1,4.3E1],"tree_param":{"num_deleted":"0","num_feature":"13","num_nodes":"25","size_leaf_vector":"1"}},{"base_weights":[1.0010755E-6,-1.12215756E-4,7.934279E-4,-7.8112533E-4,-7.199263E-7,5.0171465E-4,1.8552803E-4,-1.6830738E-5,-1.2637557E-3,1.09675246E-4,-6.409399E-4,9.051636E-5,8.188809E-6,-3.5625944E-5,-1.6284389E-4,-4.945552E-4,2.7805177E-4,-9.720996E-4,4.557992E-5,4.174337E-5,-9.462651E-5,1.2340366E-4,1.2162569E-6,2.6714058E-6,-1.11860354E-4],"categories":[],"categories_nodes":[],"categories_segments":[],"categories_sizes":[],"default_left":[0,0,0,0,0,0,0,0,0,0,0,0,0,0,0,0,0,0,0,0,0,0,0,0,0],"id":36,"left_children":[1,3,5,7,9,11,-1,-1,13,15,17,-1,-1,-1,-1,19,21,23,-1,-1,-1,-1,-1,-1,-1],"loss_changes":[7.894331E-6,5.7421457E-6,2.4765E-6,3.040711E-6,4.8056672E-6,1.6196634E-6,0E0,0E0,1.4055458E-6,6.038329E-6,4.0750397E-6,0E0,0E0,0E0,0E0,5.7504103E-6,1.167755E-5,1.200523E-6,0E0,0E0,0E0,0E0,0E0,0E0,0E0],"parents":[2147483647,0,0,1,1,2,2,3,3,4,4,5,5,8,8,9,9,10,10,15,15,16,16,17,17],"right_children":[2,4,6,8,10,12,-1,-1,14,16,18,-1,-1,-1,-1,20,22,24,-1,-1,-1,-1,-1,-1,-1],"split_conditions":[8.944406E-2,6.825984E-2,9.122642E-2,7.020561E-2,8.5505806E-2,9.122642E-2,1.8552803E-4,-1.6830738E-5,4.1869744E-6,1.596138E-6,8.67105E-2,9.051636E-5,8.188809E-6,-3.5625944E-5,-1.6284389E-4,7.660217E-2,1.1871961E-5,6.8240635E-2,4.557992E-5,4.174337E-5,-9.462651E-5,1.2340366E-4,1.2162569E-6,2.6714058E-6,-1.11860354E-4],"split_indices":[5,2,3,0,5,0,0,0,6,6,3,0,0,0,0,4,8,1,0,0,0,0,0,0,0],"split_type":[0,0,0,0,0,0,0,0,0,0,0,0,0,0,0,0,0,0,0,0,0,0,0,0,0],"sum_hessian":[8.6E1,7.6E1,1E1,1E1,6.6E1,9E0,1E0,5E0,5E0,5.7E1,9E0,4E0,5E0,2E0,3E0,1.2E1,4.5E1,7E0,2E0,4E0,8E0,9E0,3.6E1,1E0,6E0],"tree_param":{"num_deleted":"0","num_feature":"13","num_nodes":"25","size_leaf_vector":"1"}},{"base_weights":[1.7878824E-6,-5.790867E-4,1.4084535E-4,2.4716284E-5,-1.4451934E-3,-2.7220952E-4,4.677681E-4,4.184507E-5,-3.731375E-4,-6.3569845E-5,-1.89339E-4,1.247447E-4,-3.614709E-4,5.836983E-4,-1.1566033E-4,-7.017143E-5,1.893441E-5,-6.163092E-4,1.5789947E-4,1.0589547E-3,2.9420675E-4,-3.0415087E-5,-1.3460132E-4,3.4791603E-5,-8.711331E-5,6.338758E-5,1.9631833E-4,-1.2768645E-5,7.6189826E-5],"categories":[],"categories_nodes":[],"categories_segments":[],"categories_sizes":[],"default_left":[0,0,0,0,0,0,0,0,0,0,0,0,0,0,0,0,0,0,0,0,0,0,0,0,0,0,0,0,0],"id":37,"left_children":[1,3,5,7,9,11,13,-1,15,-1,-1,-1,17,19,-1,-1,-1,21,23,25,27,-1,-1,-1,-1,-1,-1,-1,-1],"loss_changes":[7.1089826E-6,8.926003E-6,9.7149605E-6,1.8792756E-6,1.336065E-6,4.7916096E-6,8.207653E-6,0E0,1.2417759E-6,0E0,0E0,0E0,4.200334E-6,4.916592E-6,0E0,0E0,0E0,4.3740547E-6,2.4539465E-6,4.1367457E-6,5.0301805E-6,0E0,0E0,0E0,0E0,0E0,0E0,0E0,0E0],"parents":[2147483647,0,0,1,1,2,2,3,3,4,4,5,5,6,6,8,8,12,12,13,13,17,17,18,18,19,19,20,20],"right_children":[2,4,6,8,10,12,14,-1,16,-1,-1,-1,18,20,-1,-1,-1,22,24,26,28,-1,-1,-1,-1,-1,-1,-1,-1],"split_conditions":[-8.594079E-2,-1.0719616E-1,7.4728824E-2,3.4698132E-5,2.5300125E-5,-6.2081506E-3,9.86689E-2,4.184507E-5,7.61413E-2,-6.3569845E-5,-1.89339E-4,1.247447E-4,7.6096304E-2,8.05114E-2,-1.1566033E-4,-7.017143E-5,1.893441E-5,7.115362E-2,8.582123E-2,1.0055573E-5,8.4997766E-2,-3.0415087E-5,-1.3460132E-4,3.4791603E-5,-8.711331E-5,6.338758E-5,1.9631833E-4,-1.2768645E-5,7.6189826E-5],"split_indices":[12,12,1,10,6,11,4,0,3,0,0,0,9,7,0,0,0,1,5,6,1,0,0,0,0,0,0,0,0],"split_type":[0,0,0,0,0,0,0,0,0,0,0,0,0,0,0,0,0,0,0,0,0,0,0,0,0,0,0,0,0],"sum_hessian":[8.6E1,1.6E1,7E1,1E1,6E0,3.1E1,3.9E1,5E0,5E0,3E0,3E0,1E0,3E1,3.7E1,2E0,3E0,2E0,2E1,1E1,1.3E1,2.4E1,1.5E1,5E0,9E0,1E0,1E1,3E0,1.3E1,1.1E1],"tree_param":{"num_deleted":"0","num_feature":"13","num_nodes":"29","size_leaf_vector":"1"}},{"base_weights":[-8.568168E-8,-9.9817604E-5,6.980456E-4,-8.1537245E-4,-1.6613943E-5,4.2296574E-4,1.724422E-4,-3.4774966E-5,-1.4788272E-4,7.684675E-5,-5.850628E-4,8.902047E-5,9.554838E-6,-8.016095E-5,6.0966983E-4,4.2970725E-5,-8.924687E-4,7.0948345E-6,-7.4285104E-5,8.5931606E-5,1.3358891E-5,-1.14559014E-4,-8.8736415E-6],"categories":[],"categories_nodes":[],"categories_segments":[],"categories_sizes":[],"default_left":[0,0,0,0,0,0,0,0,0,0,0,0,0,0,0,0,0,0,0,0,0,0,0],"id":38,"left_children":[1,3,5,7,9,11,-1,-1,-1,13,15,-1,-1,17,19,-1,21,-1,-1,-1,-1,-1,-1],"loss_changes":[6.127137E-6,4.5707857E-6,2.3763182E-6,1.967711E-6,3.763894E-6,1.4447638E-6,0E0,0E0,0E0,5.1519687E-6,3.5029639E-6,0E0,0E0,4.8593583E-6,1.5491305E-6,0E0,1.5258793E-6,0E0,0E0,0E0,0E0,0E0,0E0],"parents":[2147483647,0,0,1,1,2,2,3,3,4,4,5,5,9,9,10,10,13,13,14,14,16,16],"right_children":[2,4,6,8,10,12,-1,-1,-1,14,16,-1,-1,18,20,-1,22,-1,-1,-1,-1,-1,-1],"split_conditions":[8.944406E-2,6.818457E-2,9.122642E-2,6.6889815E-2,8.5505806E-2,9.047759E-2,1.724422E-4,-3.4774966E-5,-1.4788272E-4,8.086546E-2,6.962821E-2,8.902047E-5,9.554838E-6,7.90673E-2,8.238042E-2,4.2970725E-5,8.770164E-2,7.0948345E-6,-7.4285104E-5,8.5931606E-5,1.3358891E-5,-1.14559014E-4,-8.8736415E-6],"split_indices":[5,5,3,0,5,0,0,0,0,5,4,0,0,0,9,0,0,0,0,0,0,0,0],"split_type":[0,0,0,0,0,0,0,0,0,0,0,0,0,0,0,0,0,0,0,0,0,0,0],"sum_hessian":[8.6E1,7.6E1,1E1,7E0,6.9E1,9E0,1E0,5E0,2E0,6E1,9E0,3E0,6E0,4.7E1,1.3E1,2E0,7E0,3.9E1,8E0,8E0,5E0,5E0,2E0],"tree_param":{"num_deleted":"0","num_feature":"13","num_nodes":"23","size_leaf_vector":"1"}},{"base_weights":[3.830626E-7,-4.5789353E-4,1.4401627E-4,-1.6967208E-5,-9.050444E-4,-6.9980643E-4,2.3848747E-4,-3.5984816E-5,-1.3602785E-4,8.480574E-5,-1.4885634E-4,3.186016E-4,-7.225111E-5,-6.1189385E-5,3.8162715E-4,9.1523136E-5,2.3955276E-5],"categories":[],"categories_nodes":[],"categories_segments":[],"categories_sizes":[],"default_left":[0,0,0,0,0,0,0,0,0,0,0,0,0,0,0,0,0],"id":39,"left_children":[1,3,5,-1,7,9,11,-1,-1,-1,-1,13,-1,-1,15,-1,-1],"loss_changes":[5.7926095E-6,2.552887E-6,5.50793E-6,0E0,1.4960419E-6,9.808606E-6,4.926557E-6,0E0,0E0,0E0,0E0,3.5762787E-6,0E0,0E0,3.8745748E-6,0E0,0E0],"parents":[2147483647,0,0,1,1,2,2,4,4,5,5,6,6,11,11,14,14],"right_children":[2,4,6,-1,8,10,12,-1,-1,-1,-1,14,-1,-1,16,-1,-1],"split_conditions":[7.020561E-2,6.9050156E-2,6.825984E-2,-1.6967208E-5,8.960601E-6,7.321663E-2,9.86689E-2,-3.5984816E-5,-1.3602785E-4,8.480574E-5,-1.4885634E-4,6.8240635E-2,-7.225111E-5,-6.1189385E-5,7.180967E-2,9.1523136E-5,2.3955276E-5],"split_indices":[1,1,3,0,6,7,4,0,0,0,0,2,0,0,3,0,0],"split_type":[0,0,0,0,0,0,0,0,0,0,0,0,0,0,0,0,0],"sum_hessian":[8.6E1,2E1,6.6E1,1.3E1,7E0,6E0,6E1,4E0,3E0,2E0,4E0,5.6E1,4E0,3E0,5.3E1,1E1,4.3E1],"tree_param":{"num_deleted":"0","num_feature":"13","num_nodes":"17","size_leaf_vector":"1"}},{"base_weights":[-2.7696035E-6,-9.3287126E-5,6.311048E-4,1.7363776E-4,-2.974271E-4,3.6897062E-4,1.6262234E-4,-1.1566654E-3,3.3968856E-4,-4.7435836E-4,3.5157503E-4,8.0547485E-5,6.6829575E-6,-1.462693E-4,-1.1929124E-5,1.5030846E-3,1.1166378E-4,-1.2791653E-4,-7.944469E-4,5.531814E-5,-3.0323366E-5,-2.9046461E-5,2.024088E-4,-5.447523E-6,1.0805819E-4,-5.3785927E-5,1.8185243E-5,2.012526E-5,-9.314877E-5],"categories":[],"categories_nodes":[],"categories_segments":[],"categories_sizes":[],"default_left":[0,0,0,0,0,0,0,0,0,0,0,0,0,0,0,0,0,0,0,0,0,0,0,0,0,0,0,0,0],"id":40,"left_children":[1,3,5,7,9,11,-1,13,15,17,19,-1,-1,-1,-1,21,23,25,27,-1,-1,-1,-1,-1,-1,-1,-1,-1,-1],"loss_changes":[5.05065E-6,4.247377E-6,2.269372E-6,7.903434E-6,5.219238E-6,1.2650289E-6,0E0,1.0953745E-6,8.055937E-6,3.779599E-6,1.4878794E-6,0E0,0E0,0E0,0E0,5.2601526E-6,4.4051926E-6,2.3835867E-6,2.6435891E-6,0E0,0E0,0E0,0E0,0E0,0E0,0E0,0E0,0E0,0E0],"parents":[2147483647,0,0,1,1,2,2,3,3,4,4,5,5,7,7,8,8,9,9,10,10,15,15,16,16,17,17,18,18],"right_children":[2,4,6,8,10,12,-1,14,16,18,20,-1,-1,-1,-1,22,24,26,28,-1,-1,-1,-1,-1,-1,-1,-1,-1,-1],"split_conditions":[8.944406E-2,3.8027883E-5,9.122642E-2,7.957002E-6,8.841053E-2,9.047759E-2,1.6262234E-4,8.770164E-2,1.1871961E-5,7.3214896E-2,8.471693E-2,8.0547485E-5,6.6829575E-6,-1.462693E-4,-1.1929124E-5,7.47307E-2,3.3509295E-5,7.2568566E-2,7.851301E-6,5.531814E-5,-3.0323366E-5,-2.9046461E-5,2.024088E-4,-5.447523E-6,1.0805819E-4,-5.3785927E-5,1.8185243E-5,2.012526E-5,-9.314877E-5],"split_indices":[5,10,3,8,3,0,0,0,8,4,0,0,0,0,0,0,10,0,8,0,0,0,0,0,0,0,0,0,0],"split_type":[0,0,0,0,0,0,0,0,0,0,0,0,0,0,0,0,0,0,0,0,0,0,0,0,0,0,0,0,0],"sum_hessian":[8.6E1,7.6E1,1E1,3.3E1,4.3E1,9E0,1E0,3E0,3E1,3.4E1,9E0,3E0,6E0,2E0,1E0,4E0,2.6E1,1.7E1,1.7E1,7E0,2E0,1E0,3E0,2.3E1,3E0,7E0,1E1,2E0,1.5E1],"tree_param":{"num_deleted":"0","num_feature":"13","num_nodes":"29","size_leaf_vector":"1"}},{"base_weights":[7.7079255E-7,-3.1151707E-4,1.7059804E-4,-4.0359193E-4,6.823788E-5,5.946867E-4,-5.7095956E-5,-1.5497497E-4,-2.1173719E-4,-1.9587258E-4,9.4748876E-4,-1.0642633E-3,2.0466E-4,-2.604103E-5,5.025454E-5,2.9050187E-5,-6.332789E-5,-2.21055E-5,1.2862784E-3,-1.4747419E-4,1.1144827E-5,-2.3519683E-4,4.583411E-4,1.7358256E-4,3.996566E-5,-8.46756E-5,-2.8209388E-6,9.249979E-6,6.9452704E-5],"categories":[],"categories_nodes":[],"categories_segments":[],"categories_sizes":[],"default_left":[0,0,0,0,0,0,0,0,0,0,0,0,0,0,0,0,0,0,0,0,0,0,0,0,0,0,0,0,0],"id":41,"left_children":[1,3,5,7,-1,9,11,-1,13,15,17,19,21,-1,-1,-1,-1,-1,23,-1,-1,25,27,-1,-1,-1,-1,-1,-1],"loss_changes":[4.667188E-6,3.1122997E-6,5.5380137E-6,6.048838E-6,0E0,5.7638053E-6,1.0235831E-5,0E0,1.0347934E-6,1.6731715E-6,5.826806E-6,4.0251925E-6,3.5668847E-6,0E0,0E0,0E0,0E0,0E0,3.6906276E-6,0E0,0E0,1.495134E-6,1.6638878E-6,0E0,0E0,0E0,0E0,0E0,0E0],"parents":[2147483647,0,0,1,1,2,2,3,3,5,5,6,6,8,8,9,9,10,10,11,11,12,12,18,18,21,21,22,22],"right_children":[2,4,6,8,-1,10,12,-1,14,16,18,20,22,-1,-1,-1,-1,-1,24,-1,-1,26,28,-1,-1,-1,-1,-1,-1],"split_conditions":[7.424997E-2,8.689036E-2,8.075512E-2,9.851714E-6,6.823788E-5,7.072012E-2,8.25068E-2,-1.5497497E-4,8.689036E-2,2.8058323E-6,7.208225E-2,2.6371952E-3,-4.1207103E-3,-2.604103E-5,5.025454E-5,2.9050187E-5,-6.332789E-5,-2.21055E-5,3.8027883E-5,-1.4747419E-4,1.1144827E-5,7.3214896E-2,8.187233E-2,1.7358256E-4,3.996566E-5,-8.46756E-5,-2.8209388E-6,9.249979E-6,6.9452704E-5],"split_indices":[2,3,2,8,0,1,2,0,4,6,5,11,11,0,0,0,0,0,10,0,0,3,9,0,0,0,0,0,0],"split_type":[0,0,0,0,0,0,0,0,0,0,0,0,0,0,0,0,0,0,0,0,0,0,0,0,0,0,0,0,0],"sum_hessian":[8.6E1,3E1,5.6E1,2.8E1,2E0,1.9E1,3.7E1,3E0,2.5E1,6E0,1.3E1,7E0,3E1,2.4E1,1E0,3E0,3E0,3E0,1E1,5E0,2E0,1.1E1,1.9E1,6E0,4E0,2E0,9E0,8E0,1.1E1],"tree_param":{"num_deleted":"0","num_feature":"13","num_nodes":"29","size_leaf_vector":"1"}}]},"name":"gbtree"},"learner_model_param":{"base_score":"7.845646E-2","boost_from_average":"1","num_class":"0","num_feature":"13","num_target":"1"},"objective":{"name":"reg:squarederror","reg_loss_param":{"scale_pos_weight":"1"}}},"version":[2,1,1]}