{"learner":{"attributes":{"best_iteration":"14","best_score":"0.012466240208445","scikit_learn":"{\"_estimator_type\": \"regressor\"}"},"feature_names":["cpu_lag1","cpu_lag2","cpu_lag3","cpu_lag5","cpu_lag10","cpu_rmean30s","cpu_rvar30s","cpu_rmean60s","cpu_rvar60s","cpu_rmean120s","cpu_rvar120s","cpu_diff1","cpu_logdiff1"],"feature_types":["float","float","float","float","float","float","float","float","float","float","float","float","float"],"gradient_booster":{"model":{"gbtree_model_param":{"num_parallel_tree":"1","num_trees":"35"},"iteration_indptr":[0,1,2,3,4,5,6,7,8,9,10,11,12,13,14,15,16,17,18,19,20,21,22,23,24,25,26,27,28,29,30,31,32,33,34,35],"tree_info":[0,0,0,0,0,0,0,0,0,0,0,0,0,0,0,0,0,0,0,0,0,0,0,0,0,0,0,0,0,0,0,0,0,0,0],"trees":[{"base_weights":[4.3175727E-10,-1.1310783E-2,7.601054E-2,-2.9592598E-2,-1.069282E-3,4.7356468E-2,8.624965E-2,-5.9734634E-3,-3.916219E-3,-3.437097E-4,8.705848E-3,1.5134952E-2,4.0237564E-3,9.66769E-3,1.7777251E-2],"categories":[],"categories_nodes":[],"categories_segments":[],"categories_sizes":[],"default_left":[0,0,0,0,0,0,0,0,0,0,0,0,0,0,0],"id":0,"left_children":[1,3,5,7,9,11,13,-1,-1,-1,-1,-1,-1,-1,-1],"loss_changes":[2.8938806E0,5.485617E-1,1.2383437E-1,2.308607E-3,5.4483738E-2,8.87225E-2,2.7689695E-2,0E0,0E0,0E0,0E0,0E0,0E0,0E0,0E0],"parents":[2147483647,0,0,1,1,2,2,3,3,4,4,5,5,6,6],"right_children":[2,4,6,8,10,12,14,-1,-1,-1,-1,-1,-1,-1,-1],"split_conditions":[6.310868E-2,1.2869981E-2,1.039533E-1,8.416959E-3,1.51430005E-2,7.2893836E-2,-2.2924414E-2,-5.9734634E-3,-3.916219E-3,-3.437097E-4,8.705848E-3,1.5134952E-2,4.0237564E-3,9.66769E-3,1.7777251E-2],"split_indices":[5,5,5,7,11,4,11,0,0,0,0,0,0,0,0],"split_type":[0,0,0,0,0,0,0,0,0,0,0,0,0,0,0],"sum_hessian":[3.364E3,2.929E3,4.35E2,1.051E3,1.878E3,1.16E2,3.19E2,1.021E3,3E1,1.852E3,2.6E1,5.6E1,6E1,2.2E1,2.97E2],"tree_param":{"num_deleted":"0","num_feature":"13","num_nodes":"15","size_leaf_vector":"1"}},{"base_weights":[1.339642E-5,-9.211365E-3,5.9943497E-2,-2.3326036E-2,-7.653449E-4,3.8419254E-2,6.9979794E-2,-4.77994E-3,-2.9479966E-3,-3.6201705E-4,3.2408244E-3,1.207628E-2,3.4232342E-3,8.0627715E-3,1.4406291E-2],"categories":[],"categories_nodes":[],"categories_segments":[],"categories_sizes":[],"default_left":[0,0,0,0,0,0,0,0,0,0,0,0,0,0,0],"id":1,"left_children":[1,3,5,7,9,11,13,-1,-1,-1,-1,-1,-1,-1,-1],"loss_changes":[1.8608615E0,3.4772587E-1,9.430611E-2,5.0264E-3,3.2401916E-2,6.6806376E-2,1.565981E-2,0E0,0E0,0E0,0E0,0E0,0E0,0E0,0E0],"parents":[2147483647,0,0,1,1,2,2,3,3,4,4,5,5,6,6],"right_children":[2,4,6,8,10,12,14,-1,-1,-1,-1,-1,-1,-1,-1],"split_conditions":[6.063015E-2,1.8952643E-2,1.07576914E-1,8.416959E-3,3.7284072E-2,7.2893836E-2,-2.2924414E-2,-4.77994E-3,-2.9479966E-3,-3.6201705E-4,3.2408244E-3,1.207628E-2,3.4232342E-3,8.0627715E-3,1.4406291E-2],"split_indices":[5,5,5,7,5,4,11,0,0,0,0,0,0,0,0],"split_type":[0,0,0,0,0,0,0,0,0,0,0,0,0,0,0],"sum_hessian":[3.364E3,2.916E3,4.48E2,1.091E3,1.825E3,1.44E2,3.04E2,1.021E3,7E1,1.72E3,1.05E2,7E1,7.4E1,2.1E1,2.83E2],"tree_param":{"num_deleted":"0","num_feature":"13","num_nodes":"15","size_leaf_vector":"1"}},{"base_weights":[2.0559037E-5,-7.6236743E-3,4.6545736E-2,-1.8568149E-2,-8.518408E-4,2.387971E-2,5.39707E-2,-3.831518E-3,-2.3895993E-3,-2.8590957E-4,1.9372989E-3,8.505332E-3,1.546828E-3,7.4719274E-3,1.1467039E-2],"categories":[],"categories_nodes":[],"categories_segments":[],"categories_sizes":[],"default_left":[0,0,0,0,0,0,0,0,0,0,0,0,0,0,0],"id":2,"left_children":[1,3,5,7,9,11,13,-1,-1,-1,-1,-1,-1,-1,-1],"loss_changes":[1.1971148E0,2.142482E-1,7.865083E-2,4.083067E-3,1.08932275E-2,3.549791E-2,1.7810106E-2,0E0,0E0,0E0,0E0,0E0,0E0,0E0,0E0],"parents":[2147483647,0,0,1,1,2,2,3,3,4,4,5,5,6,6],"right_children":[2,4,6,8,10,12,14,-1,-1,-1,-1,-1,-1,-1,-1],"split_conditions":[5.3119782E-2,2.1011433E-2,8.829346E-2,7.310492E-3,3.6757167E-2,3.9817173E-2,-4.6691783E-3,-3.831518E-3,-2.3895993E-3,-2.8590957E-4,1.9372989E-3,8.505332E-3,1.546828E-3,7.4719274E-3,1.1467039E-2],"split_indices":[5,5,5,5,5,4,11,0,0,0,0,0,0,0,0],"split_type":[0,0,0,0,0,0,0,0,0,0,0,0,0,0,0],"sum_hessian":[3.364E3,2.89E3,4.74E2,1.104E3,1.786E3,1.18E2,3.56E2,1.012E3,9.2E1,1.694E3,9.2E1,5.4E1,6.4E1,6.2E1,2.94E2],"tree_param":{"num_deleted":"0","num_feature":"13","num_nodes":"15","size_leaf_vector":"1"}},{"base_weights":[2.3704335E-5,-5.4275156E-3,4.198536E-2,-1.4613212E-2,2.9899052E-4,2.0873798E-2,4.4632692E-2,-3.0685791E-3,-1.7805472E-3,-1.7059552E-4,3.1098174E-3,1.7759778E-3,8.411553E-3,9.592202E-3,7.304559E-3],"categories":[],"categories_nodes":[],"categories_segments":[],"categories_sizes":[],"default_left":[0,0,0,0,0,0,0,0,0,0,0,0,0,0,0],"id":3,"left_children":[1,3,5,7,9,11,13,-1,-1,-1,-1,-1,-1,-1,-1],"loss_changes":[7.699453E-1,1.5670557E-1,2.0697534E-2,4.6302676E-3,3.226742E-2,1.10600665E-2,7.5066686E-3,0E0,0E0,0E0,0E0,0E0,0E0,0E0,0E0],"parents":[2147483647,0,0,1,1,2,2,3,3,4,4,5,5,6,6],"right_children":[2,4,6,8,10,12,14,-1,-1,-1,-1,-1,-1,-1,-1],"split_conditions":[7.890166E-2,2.334979E-2,-1.4725046E-1,7.018385E-3,4.109012E-2,1.256457E-1,1.1868743E-1,-3.0685791E-3,-1.7805472E-3,-1.7059552E-4,3.1098174E-3,1.7759778E-3,8.411553E-3,9.592202E-3,7.304559E-3],"split_indices":[5,5,12,9,5,7,4,0,0,0,0,0,0,0,0],"split_type":[0,0,0,0,0,0,0,0,0,0,0,0,0,0,0],"sum_hessian":[3.364E3,2.978E3,3.86E2,1.143E3,1.835E3,4.4E1,3.42E2,1.012E3,1.31E2,1.707E3,1.28E2,2.9E1,1.5E1,2.39E2,1.03E2],"tree_param":{"num_deleted":"0","num_feature":"13","num_nodes":"15","size_leaf_vector":"1"}},{"base_weights":[2.644524E-5,-4.8879753E-3,2.9937105E-2,-1.2058645E-2,-6.2399026E-4,1.7636366E-2,3.673543E-2,-2.4341613E-3,-5.330108E-4,-1.8621758E-4,2.7506577E-3,1.8655288E-3,8.430476E-3,3.5845083E-3,7.5567365E-3],"categories":[],"categories_nodes":[],"categories_segments":[],"categories_sizes":[],"default_left":[0,0,0,0,0,0,0,0,0,0,0,0,0,0,0],"id":4,"left_children":[1,3,5,7,9,11,13,-1,-1,-1,-1,-1,-1,-1,-1],"loss_changes":[4.9477968E-1,8.8386595E-2,3.9073706E-2,1.1033416E-3,8.022032E-3,3.4438968E-2,5.3376555E-3,0E0,0E0,0E0,0E0,0E0,0E0,0E0,0E0],"parents":[2147483647,0,0,1,1,2,2,3,3,4,4,5,5,6,6],"right_children":[2,4,6,8,10,12,14,-1,-1,-1,-1,-1,-1,-1,-1],"split_conditions":[5.3119782E-2,1.5540966E-2,1.07576914E-1,2.9643853E-3,9.601683E-3,1.0680458E-5,-2.2334258E-1,-2.4341613E-3,-5.330108E-4,-1.8621758E-4,2.7506577E-3,1.8655288E-3,8.430476E-3,3.5845083E-3,7.5567365E-3],"split_indices":[5,5,5,11,11,11,12,0,0,0,0,0,0,0,0],"split_type":[0,0,0,0,0,0,0,0,0,0,0,0,0,0,0],"sum_hessian":[3.364E3,2.89E3,4.74E2,1.077E3,1.813E3,1.7E2,3.04E2,1.064E3,1.3E1,1.776E3,3.7E1,1.28E2,4.2E1,1.7E1,2.87E2],"tree_param":{"num_deleted":"0","num_feature":"13","num_nodes":"15","size_leaf_vector":"1"}},{"base_weights":[2.7406524E-5,-3.4888475E-3,2.7094316E-2,-8.969558E-3,5.3917646E-4,3.0908933E-2,1.9225476E-2,-1.960697E-3,-1.0122877E-3,2.9474998E-6,4.1935123E-3,3.2167707E-3,6.3253986E-3,1.5080301E-3,6.0530812E-3],"categories":[],"categories_nodes":[],"categories_segments":[],"categories_sizes":[],"default_left":[0,0,0,0,0,0,0,0,0,0,0,0,0,0,0],"id":5,"left_children":[1,3,5,7,9,11,13,-1,-1,-1,-1,-1,-1,-1,-1],"loss_changes":[3.2035545E-1,6.577053E-2,1.102221E-2,4.0633455E-3,1.8405382E-2,2.2484362E-3,1.6413458E-2,0E0,0E0,0E0,0E0,0E0,0E0,0E0,0E0],"parents":[2147483647,0,0,1,1,2,2,3,3,4,4,5,5,6,6],"right_children":[2,4,6,8,10,12,14,-1,-1,-1,-1,-1,-1,-1,-1],"split_conditions":[7.890166E-2,2.692667E-2,1.1868743E-1,1.0086301E-2,9.601683E-3,2.5277903E-2,1.2779896E-1,-1.960697E-3,-1.0122877E-3,2.9474998E-6,4.1935123E-3,3.2167707E-3,6.3253986E-3,1.5080301E-3,6.0530812E-3],"split_indices":[5,5,4,5,11,4,5,0,0,0,0,0,0,0,0],"split_type":[0,0,0,0,0,0,0,0,0,0,0,0,0,0,0],"sum_hessian":[3.364E3,2.978E3,3.86E2,1.261E3,1.717E3,2.58E2,1.28E2,1.038E3,2.23E2,1.675E3,4.2E1,1.3E1,2.45E2,6.3E1,6.5E1],"tree_param":{"num_deleted":"0","num_feature":"13","num_nodes":"15","size_leaf_vector":"1"}},{"base_weights":[2.7371618E-5,-3.3412944E-3,1.8675992E-2,-7.552402E-3,-5.1878364E-4,-3.5852424E-3,2.1183917E-2,-1.574213E-3,-4.4566175E-4,-4.9383804E-4,4.60427E-5,-1.7981699E-3,4.1115903E-3,-2.1824988E-3,4.3833074E-3],"categories":[],"categories_nodes":[],"categories_segments":[],"categories_sizes":[],"default_left":[0,0,0,0,0,0,0,0,0,0,0,0,0,0,0],"id":6,"left_children":[1,3,5,7,9,11,13,-1,-1,-1,-1,-1,-1,-1,-1],"loss_changes":[2.1145497E-1,3.388278E-2,2.8828174E-2,1.9233599E-3,2.4956984E-3,7.1017896E-3,1.1126339E-2,0E0,0E0,0E0,0E0,0E0,0E0,0E0,0E0],"parents":[2147483647,0,0,1,1,2,2,3,3,4,4,5,5,6,6],"right_children":[2,4,6,8,10,12,14,-1,-1,-1,-1,-1,-1,-1,-1],"split_conditions":[4.109012E-2,2.334979E-2,-2.2334258E-1,1.4684312E-3,3.138584E-2,1.3347998E-1,1.0689163E-2,-1.574213E-3,-4.4566175E-4,-4.9383804E-4,4.60427E-5,-1.7981699E-3,4.1115903E-3,-2.1824988E-3,4.3833074E-3],"split_indices":[5,5,12,11,5,1,4,0,0,0,0,0,0,0,0],"split_type":[0,0,0,0,0,0,0,0,0,0,0,0,0,0,0],"sum_hessian":[3.364E3,2.85E3,5.14E2,1.143E3,1.707E3,5.2E1,4.62E2,1.078E3,6.5E1,4.73E2,1.234E3,4.3E1,9E0,1E1,4.52E2],"tree_param":{"num_deleted":"0","num_feature":"13","num_nodes":"15","size_leaf_vector":"1"}},{"base_weights":[2.2505867E-5,-2.2157899E-3,1.8146591E-2,-5.7092435E-3,4.2196052E-4,1.6007429E-2,2.5350591E-2,-1.2085554E-3,-2.0633102E-4,2.5983229E-5,4.559455E-3,-6.969455E-4,3.6074424E-3,-1.2854524E-3,5.1633012E-3],"categories":[],"categories_nodes":[],"categories_segments":[],"categories_sizes":[],"default_left":[0,0,0,0,0,0,0,0,0,0,0,0,0,0,0],"id":7,"left_children":[1,3,5,7,9,11,13,-1,-1,-1,-1,-1,-1,-1,-1],"loss_changes":[1.3654837E-1,2.7610123E-2,5.296096E-3,2.0047799E-3,1.115811E-2,1.1457525E-2,1.3948083E-3,0E0,0E0,0E0,0E0,0E0,0E0,0E0,0E0],"parents":[2147483647,0,0,1,1,2,2,3,3,4,4,5,5,6,6],"right_children":[2,4,6,8,10,12,14,-1,-1,-1,-1,-1,-1,-1,-1],"split_conditions":[8.223251E-2,2.7258875E-2,8.0075336E-4,1.6046856E-3,4.2885327E-1,1.039533E-1,5.0903462E-2,-1.2085554E-3,-2.0633102E-4,2.5983229E-5,4.559455E-3,-6.969455E-4,3.6074424E-3,-1.2854524E-3,5.1633012E-3],"split_indices":[5,5,11,11,12,0,9,0,0,0,0,0,0,0,0],"split_type":[0,0,0,0,0,0,0,0,0,0,0,0,0,0,0],"sum_hessian":[3.364E3,2.995E3,3.69E2,1.288E3,1.707E3,2.87E2,8.2E1,1.202E3,8.6E1,1.686E3,2.1E1,2.7E1,2.6E2,1E0,8.1E1],"tree_param":{"num_deleted":"0","num_feature":"13","num_nodes":"15","size_leaf_vector":"1"}},{"base_weights":[2.0963766E-5,-2.1803281E-3,1.2207104E-2,-5.124544E-3,-4.9184466E-4,-5.0224815E-3,1.3948157E-2,-1.2884288E-3,-9.302442E-4,-2.9270878E-4,1.06194886E-4,-1.7544099E-3,3.638484E-3,3.7151244E-3,1.8157944E-3],"categories":[],"categories_nodes":[],"categories_segments":[],"categories_sizes":[],"default_left":[0,0,0,0,0,0,0,0,0,0,0,0,0,0,0],"id":8,"left_children":[1,3,5,7,9,11,13,-1,-1,-1,-1,-1,-1,-1,-1],"loss_changes":[9.0293586E-2,1.417054E-2,1.5518829E-2,6.1800703E-4,1.802668E-3,4.337785E-3,1.0376327E-2,0E0,0E0,0E0,0E0,0E0,0E0,0E0,0E0],"parents":[2147483647,0,0,1,1,2,2,3,3,4,4,5,5,6,6],"right_children":[2,4,6,8,10,12,14,-1,-1,-1,-1,-1,-1,-1,-1],"split_conditions":[4.109012E-2,1.0086301E-2,-2.6459506E-1,3.49595E-3,3.2526866E-2,1.3548672E-1,8.199575E-2,-1.2884288E-3,-9.302442E-4,-2.9270878E-4,1.06194886E-4,-1.7544099E-3,3.638484E-3,3.7151244E-3,1.8157944E-3],"split_indices":[5,5,12,0,5,0,4,0,0,0,0,0,0,0,0],"split_type":[0,0,0,0,0,0,0,0,0,0,0,0,0,0,0],"sum_hessian":[3.364E3,2.85E3,5.14E2,1.038E3,1.812E3,4.7E1,4.67E2,2.71E2,7.67E2,9.29E2,8.83E2,4.1E1,6E0,2.38E2,2.29E2],"tree_param":{"num_deleted":"0","num_feature":"13","num_nodes":"15","size_leaf_vector":"1"}},{"base_weights":[1.825968E-5,-1.4563065E-3,1.1958212E-2,-4.082772E-3,1.9871488E-5,8.5571855E-3,1.5135199E-2,-7.9165E-4,-6.002702E-3,-1.3486372E-4,9.18753E-4,2.5534763E-3,-6.090253E-4,-3.4161906E-3,3.1137562E-3],"categories":[],"categories_nodes":[],"categories_segments":[],"categories_sizes":[],"default_left":[0,0,0,0,0,0,0,0,0,0,0,0,0,0,0],"id":9,"left_children":[1,3,5,7,9,11,13,-1,-1,-1,-1,-1,-1,-1,-1],"loss_changes":[5.926245E-2,1.1615964E-2,3.8683414E-3,3.362E-3,6.096213E-3,8.8803675E-3,2.9199086E-3,0E0,0E0,0E0,0E0,0E0,0E0,0E0,0E0],"parents":[2147483647,0,0,1,1,2,2,3,3,4,4,5,5,6,6],"right_children":[2,4,6,8,10,12,14,-1,-1,-1,-1,-1,-1,-1,-1],"split_conditions":[8.223251E-2,1.4226548E-2,1.2779896E-1,5.742193E-2,3.551942E-2,1.2779896E-1,3.2627802E-2,-7.9165E-4,-6.002702E-3,-1.3486372E-4,9.18753E-4,2.5534763E-3,-6.090253E-4,-3.4161906E-3,3.1137562E-3],"split_indices":[5,4,5,0,5,4,3,0,0,0,0,0,0,0,0],"split_type":[0,0,0,0,0,0,0,0,0,0,0,0,0,0,0],"sum_hessian":[3.364E3,2.995E3,3.69E2,1.077E3,1.918E3,1.8E2,1.89E2,1.073E3,4E0,1.666E3,2.52E2,1.32E2,4.8E1,2E0,1.87E2],"tree_param":{"num_deleted":"0","num_feature":"13","num_nodes":"15","size_leaf_vector":"1"}},{"base_weights":[1.3309141E-5,-1.167052E-3,9.571007E-3,-2.9645066E-3,3.1494483E-4,8.034369E-3,1.5409659E-2,-6.509397E-4,-6.83302E-5,1.6720784E-6,2.4002905E-3,2.2087782E-4,2.1761311E-3,-2.880153E-3,3.1998286E-3],"categories":[],"categories_nodes":[],"categories_segments":[],"categories_sizes":[],"default_left":[0,0,0,0,0,0,0,0,0,0,0,0,0,0,0],"id":10,"left_children":[1,3,5,7,9,11,13,-1,-1,-1,-1,-1,-1,-1,-1],"loss_changes":[3.7973534E-2,7.981744E-3,3.1958E-3,1.0294598E-3,5.8866064E-3,5.806772E-3,1.5659276E-3,0E0,0E0,0E0,0E0,0E0,0E0,0E0,0E0],"parents":[2147483647,0,0,1,1,2,2,3,3,4,4,5,5,6,6],"right_children":[2,4,6,8,10,12,14,-1,-1,-1,-1,-1,-1,-1,-1],"split_conditions":[8.223251E-2,2.8690007E-2,1.6046856E-3,1.2848523E-3,9.601683E-3,1.2621811E-1,1.1897507E-6,-6.509397E-4,-6.83302E-5,1.6720784E-6,2.4002905E-3,2.2087782E-4,2.1761311E-3,-2.880153E-3,3.1998286E-3],"split_indices":[5,5,11,11,11,0,10,0,0,0,0,0,0,0,0],"split_type":[0,0,0,0,0,0,0,0,0,0,0,0,0,0,0],"sum_hessian":[3.364E3,2.995E3,3.69E2,1.353E3,1.642E3,2.94E2,7.5E1,1.218E3,1.35E2,1.601E3,4.1E1,8.6E1,2.08E2,1E0,7.4E1],"tree_param":{"num_deleted":"0","num_feature":"13","num_nodes":"15","size_leaf_vector":"1"}},{"base_weights":[1.1954454E-5,-1.1416922E-3,6.3984296E-3,-2.6084573E-3,-1.7992804E-4,1.1162268E-2,2.6638573E-3,-5.041835E-4,-2.4304108E-3,-9.678692E-5,3.9320113E-4,-2.9482997E-3,2.5624917E-3,1.5289139E-3,-9.7462226E-4],"categories":[],"categories_nodes":[],"categories_segments":[],"categories_sizes":[],"default_left":[0,0,0,0,0,0,0,0,0,0,0,0,0,0,0],"id":11,"left_children":[1,3,5,7,9,11,13,-1,-1,-1,-1,-1,-1,-1,-1],"loss_changes":[2.4799734E-2,4.021385E-3,9.132579E-3,9.1258157E-4,1.1249986E-3,9.849504E-3,1.0923699E-2,0E0,0E0,0E0,0E0,0E0,0E0,0E0,0E0],"parents":[2147483647,0,0,1,1,2,2,3,3,4,4,5,5,6,6],"right_children":[2,4,6,8,10,12,14,-1,-1,-1,-1,-1,-1,-1,-1],"split_conditions":[4.109012E-2,2.275761E-2,7.2893836E-2,2.275761E-2,1.2848523E-3,1.0689163E-2,1.6620304E-4,-5.041835E-4,-2.4304108E-3,-9.678692E-5,3.9320113E-4,-2.9482997E-3,2.5624917E-3,1.5289139E-3,-9.7462226E-4],"split_indices":[5,5,4,0,11,4,8,0,0,0,0,0,0,0,0],"split_type":[0,0,0,0,0,0,0,0,0,0,0,0,0,0,0],"sum_hessian":[3.364E3,2.85E3,5.14E2,1.128E3,1.722E3,2.25E2,2.89E2,1.119E3,9E0,1.509E3,2.13E2,1.3E1,2.12E2,1.74E2,1.15E2],"tree_param":{"num_deleted":"0","num_feature":"13","num_nodes":"15","size_leaf_vector":"1"}},{"base_weights":[8.829636E-6,-6.789629E-4,6.911532E-3,-9.824188E-4,5.258259E-3,7.121999E-3,6.508534E-3,-1.6357795E-4,-1.5504052E-3,8.0526894E-4,5.9346664E-3,1.437975E-3,-1.604238E-3],"categories":[],"categories_nodes":[],"categories_segments":[],"categories_sizes":[],"default_left":[0,0,0,0,0,0,0,0,0,0,0,0,0],"id":12,"left_children":[1,3,5,7,9,-1,11,-1,-1,-1,-1,-1,-1],"loss_changes":[1.5980458E-2,5.5201235E-3,3.2956852E-3,3.2381513E-3,4.3620393E-3,0E0,3.0473797E-3,0E0,0E0,0E0,0E0,0E0,0E0],"parents":[2147483647,0,0,1,1,2,2,3,3,4,4,6,6],"right_children":[2,4,6,8,10,-1,12,-1,-1,-1,-1,-1,-1],"split_conditions":[1.07576914E-1,6.141924E-3,-3.714924E-1,1.1868743E-1,8.467904E-2,7.121999E-3,1.4175181E-1,-1.6357795E-4,-1.5504052E-3,8.0526894E-4,5.9346664E-3,1.437975E-3,-1.604238E-3],"split_indices":[5,11,12,3,9,0,2,0,0,0,0,0,0],"split_type":[0,0,0,0,0,0,0,0,0,0,0,0,0],"sum_hessian":[3.364E3,3.06E3,3.04E2,2.912E3,1.48E2,3E0,3.01E2,2.844E3,6.8E1,1.42E2,6E0,2.88E2,1.3E1],"tree_param":{"num_deleted":"0","num_feature":"13","num_nodes":"13","size_leaf_vector":"1"}},{"base_weights":[1.0624006E-5,-9.308188E-4,3.8344231E-3,-1.6723393E-3,1.7514385E-4,2.6131067E-3,9.303705E-3,-4.921351E-4,-2.260517E-4,3.0297576E-3,2.114471E-5,1.2531041E-4,1.2127936E-3,3.367729E-4,2.106613E-3],"categories":[],"categories_nodes":[],"categories_segments":[],"categories_sizes":[],"default_left":[0,0,0,0,0,0,0,0,0,0,0,0,0,0,0],"id":13,"left_children":[1,3,5,7,9,11,13,-1,-1,-1,-1,-1,-1,-1,-1],"loss_changes":[1.2117193E-2,2.2153666E-3,4.4177035E-3,6.882311E-4,1.126229E-3,3.7323525E-3,1.1157347E-3,0E0,0E0,0E0,0E0,0E0,0E0,0E0,0E0],"parents":[2147483647,0,0,1,1,2,2,3,3,4,4,5,5,6,6],"right_children":[2,4,6,8,10,12,14,-1,-1,-1,-1,-1,-1,-1,-1],"split_conditions":[3.5323936E-2,3.138584E-2,1.6046856E-3,4.778943E-3,2.692667E-2,1.1903349E-1,3.150906E-2,-4.921351E-4,-2.260517E-4,3.0297576E-3,2.114471E-5,1.2531041E-4,1.2127936E-3,3.367729E-4,2.106613E-3],"split_indices":[5,5,11,5,0,5,2,0,0,0,0,0,0,0,0],"split_type":[0,0,0,0,0,0,0,0,0,0,0,0,0,0,0],"sum_hessian":[3.364E3,2.7E3,6.64E2,1.616E3,1.084E3,5.44E2,1.2E2,6.57E2,9.59E2,4E0,1.08E3,3.46E2,1.98E2,1.7E1,1.03E2],"tree_param":{"num_deleted":"0","num_feature":"13","num_nodes":"15","size_leaf_vector":"1"}},{"base_weights":[1.0316205E-5,-7.4379146E-4,3.0732253E-3,-1.359227E-3,1.3417572E-4,9.232364E-3,2.239077E-3,-3.3138276E-4,6.229643E-5,9.821436E-6,1.006845E-3,5.7919644E-4,2.84137E-3,3.8757535E-5,9.914488E-4],"categories":[],"categories_nodes":[],"categories_segments":[],"categories_sizes":[],"default_left":[0,0,0,0,0,0,0,0,0,0,0,0,0,0,0],"id":14,"left_children":[1,3,5,7,9,11,13,-1,-1,-1,-1,-1,-1,-1,-1],"loss_changes":[7.7746394E-3,1.4596198E-3,3.395856E-3,7.903045E-4,4.6411259E-4,2.448956E-3,3.2624293E-3,0E0,0E0,0E0,0E0,0E0,0E0,0E0,0E0],"parents":[2147483647,0,0,1,1,2,2,3,3,4,4,5,5,6,6],"right_children":[2,4,6,8,10,12,14,-1,-1,-1,-1,-1,-1,-1,-1],"split_conditions":[3.5323936E-2,3.1512454E-2,3.3756923E-2,1.2848523E-3,4.8703615E-2,3.1640507E-2,1.1608952E-1,-3.3138276E-4,6.229643E-5,9.821436E-6,1.006845E-3,5.7919644E-4,2.84137E-3,3.8757535E-5,9.914488E-4],"split_indices":[5,0,2,11,12,2,5,0,0,0,0,0,0,0,0],"split_type":[0,0,0,0,0,0,0,0,0,0,0,0,0,0,0],"sum_hessian":[3.364E3,2.7E3,6.64E2,1.587E3,1.113E3,7.8E1,5.86E2,1.347E3,2.4E2,1.095E3,1.8E1,3.5E1,4.3E1,3.35E2,2.51E2],"tree_param":{"num_deleted":"0","num_feature":"13","num_nodes":"15","size_leaf_vector":"1"}},{"base_weights":[9.798253E-6,-5.947558E-4,2.465273E-3,-1.5353633E-3,-1.9951667E-4,4.5209043E-3,1.1088615E-4,-4.6964872E-4,-2.2732916E-4,-4.706585E-5,1.6626004E-3,-3.7622067E-5,1.5248903E-3,-5.763864E-4,9.055952E-4],"categories":[],"categories_nodes":[],"categories_segments":[],"categories_sizes":[],"default_left":[0,0,0,0,0,0,0,0,0,0,0,0,0,0,0],"id":15,"left_children":[1,3,5,7,9,11,13,-1,-1,-1,-1,-1,-1,-1,-1],"loss_changes":[4.9966983E-3,1.0038305E-3,3.2179332E-3,2.562945E-4,5.8209576E-4,5.189634E-3,4.1243285E-3,0E0,0E0,0E0,0E0,0E0,0E0,0E0,0E0],"parents":[2147483647,0,0,1,1,2,2,3,3,4,4,5,5,6,6],"right_children":[2,4,6,8,10,12,14,-1,-1,-1,-1,-1,-1,-1,-1],"split_conditions":[3.5323936E-2,5.1626954E-3,7.2893836E-2,3.4488055E-3,1.51430005E-2,2.704905E-6,1.2779896E-1,-4.6964872E-4,-2.2732916E-4,-4.706585E-5,1.6626004E-3,-3.7622067E-5,1.5248903E-3,-5.763864E-4,9.055952E-4],"split_indices":[5,5,4,0,11,8,5,0,0,0,0,0,0,0,0],"split_type":[0,0,0,0,0,0,0,0,0,0,0,0,0,0,0],"sum_hessian":[3.364E3,2.7E3,6.64E2,7.98E2,1.902E3,3.54E2,3.1E2,2.61E2,5.37E2,1.895E3,7E0,1.41E2,2.13E2,1.85E2,1.25E2],"tree_param":{"num_deleted":"0","num_feature":"13","num_nodes":"15","size_leaf_vector":"1"}},{"base_weights":[8.651152E-6,-5.5624894E-4,1.6993206E-3,-9.438464E-4,4.991222E-5,-8.79474E-3,1.9650264E-3,-1.9571786E-4,1.3599339E-3,6.8234414E-4,-2.746166E-5,-6.8133016E-4,-5.0710584E-3,2.7608123E-4,1.2452978E-3],"categories":[],"categories_nodes":[],"categories_segments":[],"categories_sizes":[],"default_left":[0,0,0,0,0,0,0,0,0,0,0,0,0,0,0],"id":16,"left_children":[1,3,5,7,9,11,13,-1,-1,-1,-1,-1,-1,-1,-1],"loss_changes":[3.21472E-3,5.928173E-4,2.3678471E-3,4.206939E-4,6.2042696E-4,1.7874475E-3,2.0417762E-3,0E0,0E0,0E0,0E0,0E0,0E0,0E0,0E0],"parents":[2147483647,0,0,1,1,2,2,3,3,4,4,5,5,6,6],"right_children":[2,4,6,8,10,12,14,-1,-1,-1,-1,-1,-1,-1,-1],"split_conditions":[3.405617E-2,3.142447E-2,1.0689163E-2,1.51430005E-2,2.9505024E-2,5.3991012E-2,3.7056473E-3,-1.9571786E-4,1.3599339E-3,6.8234414E-4,-2.746166E-5,-6.8133016E-4,-5.0710584E-3,2.7608123E-4,1.2452978E-3],"split_indices":[5,1,4,11,9,7,11,0,0,0,0,0,0,0,0],"split_type":[0,0,0,0,0,0,0,0,0,0,0,0,0,0,0],"sum_hessian":[3.364E3,2.522E3,8.42E2,1.538E3,9.84E2,2E1,8.22E2,1.532E3,6E0,5.1E1,9.33E2,1.6E1,4E0,7.24E2,9.8E1],"tree_param":{"num_deleted":"0","num_feature":"13","num_nodes":"15","size_leaf_vector":"1"}},{"base_weights":[6.204518E-6,-1.2947244E-4,6.4891134E-3,-8.6189284E-5,-1.1971052E-2,5.156928E-3,1.600241E-2,-1.328618E-4,1.4496942E-4,4.5960755E-4,-3.8785704E-3,1.4570245E-3,-2.5210658E-3,5.793508E-4,4.6572904E-3],"categories":[],"categories_nodes":[],"categories_segments":[],"categories_sizes":[],"default_left":[0,0,0,0,0,0,0,0,0,0,0,0,0,0,0],"id":17,"left_children":[1,3,5,7,9,11,13,-1,-1,-1,-1,-1,-1,-1,-1],"loss_changes":[2.9606314E-3,1.6888154E-3,7.919462E-4,1.5412084E-3,1.3153934E-3,2.4355263E-3,6.9624186E-4,0E0,0E0,0E0,0E0,0E0,0E0,0E0,0E0],"parents":[2147483647,0,0,1,1,2,2,3,3,4,4,5,5,6,6],"right_children":[2,4,6,8,10,12,14,-1,-1,-1,-1,-1,-1,-1,-1],"split_conditions":[1.3691613E-1,1.4175181E-1,1.1383114E-4,3.240589E-2,1.2621811E-1,1.4175181E-1,1.287506E-1,-1.328618E-4,1.4496942E-4,4.5960755E-4,-3.8785704E-3,1.4570245E-3,-2.5210658E-3,5.793508E-4,4.6572904E-3],"split_indices":[0,2,6,5,0,1,7,0,0,0,0,0,0,0,0],"split_type":[0,0,0,0,0,0,0,0,0,0,0,0,0,0,0],"sum_hessian":[3.364E3,3.296E3,6.8E1,3.285E3,1.1E1,6.1E1,7E0,1.918E3,1.367E3,4E0,7E0,5.5E1,6E0,3E0,4E0],"tree_param":{"num_deleted":"0","num_feature":"13","num_nodes":"15","size_leaf_vector":"1"}},{"base_weights":[5.1915526E-6,-1.6015238E-4,3.550131E-3,-5.349479E-3,-4.2986987E-5,-9.63039E-4,5.2565807E-3,8.5713335E-5,-1.739486E-3,-5.5333065E-5,4.2377357E-4,1.3706578E-3,-1.980733E-3,1.2343826E-3,-2.2970545E-3],"categories":[],"categories_nodes":[],"categories_segments":[],"categories_sizes":[],"default_left":[0,0,0,0,0,0,0,0,0,0,0,0,0,0,0],"id":18,"left_children":[1,3,5,7,9,11,13,-1,-1,-1,-1,-1,-1,-1,-1],"loss_changes":[1.9729105E-3,1.955129E-3,1.1602868E-3,1.3771947E-3,1.5898781E-3,3.0029528E-3,1.7412405E-3,0E0,0E0,0E0,0E0,0E0,0E0,0E0,0E0],"parents":[2147483647,0,0,1,1,2,2,3,3,4,4,5,5,6,6],"right_children":[2,4,6,8,10,12,14,-1,-1,-1,-1,-1,-1,-1,-1],"split_conditions":[1.3205194E-1,-1.2400767E-2,-1.5732812E-3,3.1844518E-4,4.109012E-2,1.1868743E-1,1.4175181E-1,8.5713335E-5,-1.739486E-3,-5.5333065E-5,4.2377357E-4,1.3706578E-3,-1.980733E-3,1.2343826E-3,-2.2970545E-3],"split_indices":[0,11,11,10,5,4,2,0,0,0,0,0,0,0,0],"split_type":[0,0,0,0,0,0,0,0,0,0,0,0,0,0,0],"sum_hessian":[3.364E3,3.215E3,1.49E2,7E1,3.145E3,4.1E1,1.08E2,2.6E1,4.4E1,2.839E3,3.06E2,2.2E1,1.9E1,1.03E2,5E0],"tree_param":{"num_deleted":"0","num_feature":"13","num_nodes":"15","size_leaf_vector":"1"}},{"base_weights":[3.2736557E-6,-8.96231E-5,4.4420753E-3,-2.9125746E-4,1.9183098E-3,3.1998644E-3,1.3513951E-2,-5.029415E-5,-3.025027E-3,6.490526E-5,7.6476554E-4,-1.5857508E-3,1.1511241E-3,4.5441874E-4,3.9609293E-3],"categories":[],"categories_nodes":[],"categories_segments":[],"categories_sizes":[],"default_left":[0,0,0,0,0,0,0,0,0,0,0,0,0,0,0],"id":19,"left_children":[1,3,5,7,9,11,13,-1,-1,-1,-1,-1,-1,-1,-1],"loss_changes":[1.3879568E-3,1.3354094E-3,7.3433074E-4,1.7649997E-3,9.12891E-4,1.809041E-3,5.2075484E-4,0E0,0E0,0E0,0E0,0E0,0E0,0E0,0E0],"parents":[2147483647,0,0,1,1,2,2,3,3,4,4,5,5,6,6],"right_children":[2,4,6,8,10,12,14,-1,-1,-1,-1,-1,-1,-1,-1],"split_conditions":[1.3691613E-1,1.9579115E-3,1.1383114E-4,1.4175181E-1,3.2015383E-2,-1.5732812E-3,1.287506E-1,-5.029415E-5,-3.025027E-3,6.490526E-5,7.6476554E-4,-1.5857508E-3,1.1511241E-3,4.5441874E-4,3.9609293E-3],"split_indices":[0,11,6,2,5,11,7,0,0,0,0,0,0,0,0],"split_type":[0,0,0,0,0,0,0,0,0,0,0,0,0,0,0],"sum_hessian":[3.364E3,3.296E3,6.8E1,2.996E3,3E2,6.1E1,7E0,2.989E3,7E0,1.64E2,1.36E2,1.1E1,5E1,3E0,4E0],"tree_param":{"num_deleted":"0","num_feature":"13","num_nodes":"15","size_leaf_vector":"1"}},{"base_weights":[3.1345417E-6,-1.15468625E-4,2.5459656E-3,-4.211392E-3,-2.2993732E-5,1.6683687E-3,9.791566E-3,-1.165589E-3,1.0271968E-3,1.754601E-6,-1.997184E-3,5.4228463E-4,-3.5583952E-3,8.2907913E-4,4.276812E-3],"categories":[],"categories_nodes":[],"categories_segments":[],"categories_sizes":[],"default_left":[0,0,0,0,0,0,0,0,0,0,0,0,0,0,0],"id":20,"left_children":[1,3,5,7,9,11,13,-1,-1,-1,-1,-1,-1,-1,-1],"loss_changes":[1.015137E-3,1.2180277E-3,9.3747134E-4,1.1027799E-3,9.95764E-4,2.7884985E-3,9.5860567E-4,0E0,0E0,0E0,0E0,0E0,0E0,0E0,0E0],"parents":[2147483647,0,0,1,1,2,2,3,3,4,4,5,5,6,6],"right_children":[2,4,6,8,10,12,14,-1,-1,-1,-1,-1,-1,-1,-1],"split_conditions":[1.3205194E-1,-1.2400767E-2,3.731296E-4,1.2779896E-1,1.3226159E-1,3.3185416E-4,1.256457E-1,-1.165589E-3,1.0271968E-3,1.754601E-6,-1.997184E-3,5.4228463E-4,-3.5583952E-3,8.2907913E-4,4.276812E-3],"split_indices":[0,11,8,0,7,8,7,0,0,0,0,0,0,0,0],"split_type":[0,0,0,0,0,0,0,0,0,0,0,0,0,0,0],"sum_hessian":[3.364E3,3.215E3,1.49E2,7E1,3.145E3,1.34E2,1.5E1,6E1,1E1,3.136E3,9E0,1.28E2,6E0,1.1E1,4E0],"tree_param":{"num_deleted":"0","num_feature":"13","num_nodes":"15","size_leaf_vector":"1"}},{"base_weights":[2.4947433E-6,-3.8666732E-4,7.196815E-4,-4.1020988E-4,1.2534797E-2,-8.134005E-3,9.020836E-4,-7.790831E-5,-3.0543567E-3,4.2155758E-4,3.0615742E-3,-8.9452864E-4,-4.23053E-3,2.996182E-4,-1.5962865E-4],"categories":[],"categories_nodes":[],"categories_segments":[],"categories_sizes":[],"default_left":[0,0,0,0,0,0,0,0,0,0,0,0,0,0,0],"id":21,"left_children":[1,3,5,7,9,11,13,-1,-1,-1,-1,-1,-1,-1,-1],"loss_changes":[9.3945616E-4,6.689152E-4,1.9194152E-3,6.633608E-4,8.339371E-5,1.0493752E-3,1.1776926E-3,0E0,0E0,0E0,0E0,0E0,0E0,0E0,0E0],"parents":[2147483647,0,0,1,1,2,2,3,3,4,4,5,5,6,6],"right_children":[2,4,6,8,10,12,14,-1,-1,-1,-1,-1,-1,-1,-1],"split_conditions":[3.307066E-2,4.8783187E-2,1.0689163E-2,3.8845263E-2,2.6110824E-2,5.742193E-2,8.199575E-2,-7.790831E-5,-3.0543567E-3,4.2155758E-4,3.0615742E-3,-8.9452864E-4,-4.23053E-3,2.996182E-4,-1.5962865E-4],"split_indices":[0,5,4,5,0,0,4,0,0,0,0,0,0,0,0],"split_type":[0,0,0,0,0,0,0,0,0,0,0,0,0,0,0],"sum_hessian":[3.364E3,2.181E3,1.183E3,2.178E3,3E0,2.3E1,1.16E3,2.176E3,2E0,1E0,2E0,1.9E1,4E0,8.59E2,3.01E2],"tree_param":{"num_deleted":"0","num_feature":"13","num_nodes":"15","size_leaf_vector":"1"}},{"base_weights":[6.185377E-7,-1.9019931E-4,1.3763672E-3,-1.4063166E-4,-5.770683E-3,9.4364776E-4,6.8260245E-3,-3.4181445E-5,2.1885328E-3,-3.4412314E-4,-3.7968275E-3,2.3055592E-4,-3.8110432E-3,3.880603E-3,9.4199023E-4],"categories":[],"categories_nodes":[],"categories_segments":[],"categories_sizes":[],"default_left":[0,0,0,0,0,0,0,0,0,0,0,0,0,0,0],"id":22,"left_children":[1,3,5,7,9,11,13,-1,-1,-1,-1,-1,-1,-1,-1],"loss_changes":[8.8363286E-4,8.1685174E-4,9.6040935E-4,9.85376E-4,1.3587353E-3,1.6154599E-3,7.0702774E-4,0E0,0E0,0E0,0E0,0E0,0E0,0E0,0E0],"parents":[2147483647,0,0,1,1,2,2,3,3,4,4,5,5,6,6],"right_children":[2,4,6,8,10,12,14,-1,-1,-1,-1,-1,-1,-1,-1],"split_conditions":[1.1681449E-3,7.6684175E-4,1.2929064E-1,7.662457E-4,1.0093484E-1,1.1868743E-1,9.839321E-2,-3.4181445E-5,2.1885328E-3,-3.4412314E-4,-3.7968275E-3,2.3055592E-4,-3.8110432E-3,3.880603E-3,9.4199023E-4],"split_indices":[11,8,2,6,1,2,5,0,0,0,0,0,0,0,0],"split_type":[0,0,0,0,0,0,0,0,0,0,0,0,0,0,0],"sum_hessian":[3.364E3,2.955E3,4.09E2,2.93E3,2.5E1,3.8E2,2.9E1,2.923E3,7E0,2E1,5E0,3.77E2,3E0,3E0,2.6E1],"tree_param":{"num_deleted":"0","num_feature":"13","num_nodes":"15","size_leaf_vector":"1"}},{"base_weights":[2.7449246E-7,-2.242417E-4,9.121812E-4,-1.3649415E-3,-9.594393E-5,6.7799506E-3,4.4470487E-4,-2.5057266E-4,-5.440179E-4,-2.3425002E-5,1.4498889E-3,8.4385695E-4,4.8856353E-3,-2.0957806E-3,1.3943296E-4],"categories":[],"categories_nodes":[],"categories_segments":[],"categories_sizes":[],"default_left":[0,0,0,0,0,0,0,0,0,0,0,0,0,0,0],"id":23,"left_children":[1,3,5,7,9,11,13,-1,-1,-1,-1,-1,-1,-1,-1],"loss_changes":[6.891473E-4,3.9515833E-4,1.8211086E-3,3.805611E-5,3.7876095E-4,2.1112997E-3,1.7088515E-3,0E0,0E0,0E0,0E0,0E0,0E0,0E0,0E0],"parents":[2147483647,0,0,1,1,2,2,3,3,4,4,5,5,6,6],"right_children":[2,4,6,8,10,12,14,-1,-1,-1,-1,-1,-1,-1,-1],"split_conditions":[3.5323936E-2,3.49595E-3,3.3756923E-2,1.0447264E-6,1.51430005E-2,3.3563137E-2,1.0689163E-2,-2.5057266E-4,-5.440179E-4,-2.3425002E-5,1.4498889E-3,8.4385695E-4,4.8856353E-3,-2.0957806E-3,1.3943296E-4],"split_indices":[5,0,1,6,11,1,4,0,0,0,0,0,0,0,0],"split_type":[0,0,0,0,0,0,0,0,0,0,0,0,0,0,0],"sum_hessian":[3.364E3,2.7E3,6.64E2,2.72E2,2.428E3,4.8E1,6.16E2,2.53E2,1.9E1,2.422E3,6E0,4.3E1,5E0,1.3E1,6.03E2],"tree_param":{"num_deleted":"0","num_feature":"13","num_nodes":"15","size_leaf_vector":"1"}},{"base_weights":[1.5287708E-6,-6.868413E-5,2.445519E-3,6.383128E-6,-4.02028E-3,1.7383642E-3,3.5843824E-3,-1.7559558E-5,1.025878E-3,-1.3530963E-3,9.6987386E-4,1.440406E-3,-4.3110507E-5],"categories":[],"categories_nodes":[],"categories_segments":[],"categories_sizes":[],"default_left":[0,0,0,0,0,0,0,0,0,0,0,0,0],"id":24,"left_children":[1,3,5,7,9,11,-1,-1,-1,-1,-1,-1,-1],"loss_changes":[5.776008E-4,9.70617E-4,9.976005E-4,1.5502066E-3,1.5180958E-3,9.730273E-4,0E0,0E0,0E0,0E0,0E0,0E0,0E0],"parents":[2147483647,0,0,1,1,2,2,3,3,4,4,5,5],"right_children":[2,4,6,8,10,12,-1,-1,-1,-1,-1,-1,-1],"split_conditions":[1.3548672E-1,1.3347998E-1,7.662457E-4,1.2779896E-1,1.1681449E-3,1.3548672E-1,3.5843824E-3,-1.7559558E-5,1.025878E-3,-1.3530963E-3,9.6987386E-4,1.440406E-3,-4.3110507E-5],"split_indices":[0,2,6,7,11,1,0,0,0,0,0,0,0],"split_type":[0,0,0,0,0,0,0,0,0,0,0,0,0],"sum_hessian":[3.364E3,3.271E3,9.3E1,3.211E3,6E1,9E1,3E0,3.154E3,5.7E1,4.6E1,1.4E1,2.3E1,6.7E1],"tree_param":{"num_deleted":"0","num_feature":"13","num_nodes":"13","size_leaf_vector":"1"}},{"base_weights":[2.8897825E-6,-2.2656957E-4,6.62219E-4,-2.7544E-4,2.1686365E-3,1.5535994E-3,-1.1044936E-3,-5.0071587E-5,-4.191983E-3,1.0705559E-4,1.4138435E-3,-2.0442281E-3,-2.741146E-5],"categories":[],"categories_nodes":[],"categories_segments":[],"categories_sizes":[],"default_left":[0,0,0,0,0,0,0,0,0,0,0,0,0],"id":25,"left_children":[1,3,5,7,-1,9,11,-1,-1,-1,-1,-1,-1],"loss_changes":[5.092384E-4,1.353822E-3,1.3702285E-3,1.2850299E-3,0E0,3.2426524E-3,2.5739735E-3,0E0,0E0,0E0,0E0,0E0,0E0],"parents":[2147483647,0,0,1,1,2,2,3,3,5,5,6,6],"right_children":[2,4,6,8,-1,10,12,-1,-1,-1,-1,-1,-1],"split_conditions":[1.7954973E-5,1.372286E-1,8.199575E-2,1.3715942E-1,2.1686365E-3,5.742193E-2,7.890166E-2,-5.0071587E-5,-4.191983E-3,1.0705559E-4,1.4138435E-3,-2.0442281E-3,-2.741146E-5],"split_indices":[10,3,1,3,0,5,5,0,0,0,0,0,0],"split_type":[0,0,0,0,0,0,0,0,0,0,0,0,0],"sum_hessian":[3.364E3,2.496E3,8.68E2,2.486E3,1E1,5.77E2,2.91E2,2.484E3,2E0,4.88E2,8.9E1,2.7E1,2.64E2],"tree_param":{"num_deleted":"0","num_feature":"13","num_nodes":"13","size_leaf_vector":"1"}},{"base_weights":[1.5319531E-6,3.5662582E-5,-3.7938452E-3,-1.6435568E-5,6.6687902E-3,1.8406784E-3,-8.210873E-3,1.7301278E-5,-6.8564166E-4,-1.156422E-4,2.404361E-3,-2.3236373E-4,1.4955074E-3,-2.1449437E-3,1.4190625E-3],"categories":[],"categories_nodes":[],"categories_segments":[],"categories_sizes":[],"default_left":[0,0,0,0,0,0,0,0,0,0,0,0,0,0,0],"id":26,"left_children":[1,3,5,7,9,11,13,-1,-1,-1,-1,-1,-1,-1,-1],"loss_changes":[4.3603271E-4,1.1529435E-3,7.617491E-4,1.1631679E-3,1.0155771E-3,2.4563263E-4,7.302107E-4,0E0,0E0,0E0,0E0,0E0,0E0,0E0,0E0],"parents":[2147483647,0,0,1,1,2,2,3,3,4,4,5,5,6,6],"right_children":[2,4,6,8,10,12,14,-1,-1,-1,-1,-1,-1,-1,-1],"split_conditions":[1.3911313E-1,1.3715942E-1,6.376782E-2,1.3347998E-1,1.3610952E-1,5.3835053E-2,1.3691613E-1,1.7301278E-5,-6.8564166E-4,-1.156422E-4,2.404361E-3,-2.3236373E-4,1.4955074E-3,-2.1449437E-3,1.4190625E-3],"split_indices":[4,4,1,3,3,0,1,0,0,0,0,0,0,0,0],"split_type":[0,0,0,0,0,0,0,0,0,0,0,0,0,0,0],"sum_hessian":[3.364E3,3.335E3,2.9E1,3.31E3,2.5E1,1.3E1,1.6E1,3.214E3,9.6E1,1.1E1,1.4E1,9E0,4E0,1.4E1,2E0],"tree_param":{"num_deleted":"0","num_feature":"13","num_nodes":"15","size_leaf_vector":"1"}},{"base_weights":[1.8672356E-6,-9.0049754E-5,1.3489769E-3,-3.654757E-3,-1.9672145E-5,-4.637747E-3,1.6882452E-3,-8.672455E-5,-1.1759222E-3,-4.5892146E-5,2.0264655E-4,4.144601E-3,2.6352782E-4],"categories":[],"categories_nodes":[],"categories_segments":[],"categories_sizes":[],"default_left":[0,0,0,0,0,0,0,0,0,0,0,0,0],"id":27,"left_children":[1,3,5,7,9,-1,11,-1,-1,-1,-1,-1,-1],"loss_changes":[4.167834E-4,7.904371E-4,1.8289952E-3,4.346103E-4,6.7002646E-4,0E0,1.4752812E-3,0E0,0E0,0E0,0E0,0E0,0E0],"parents":[2147483647,0,0,1,1,2,2,3,3,4,4,6,6],"right_children":[2,4,6,8,10,-1,12,-1,-1,-1,-1,-1,-1],"split_conditions":[1.2779896E-1,-1.2400767E-2,3.2627802E-2,-2.6544446E-2,2.5069654E-5,-4.637747E-3,-3.714924E-1,-8.672455E-5,-1.1759222E-3,-4.5892146E-5,2.0264655E-4,4.144601E-3,2.6352782E-4],"split_indices":[0,11,3,11,10,0,12,0,0,0,0,0,0],"split_type":[0,0,0,0,0,0,0,0,0,0,0,0,0],"sum_hessian":[3.364E3,3.15E3,2.14E2,6E1,3.09E3,2E0,2.12E2,2.5E1,3.5E1,2.569E3,5.21E2,3E0,2.09E2],"tree_param":{"num_deleted":"0","num_feature":"13","num_nodes":"13","size_leaf_vector":"1"}},{"base_weights":[1.0967484E-6,-2.9560237E-4,3.4788225E-4,-1.345916E-4,-4.6961377E-3,5.09294E-4,-1.5652542E-3,-5.1588224E-5,2.3511113E-3,-2.0114335E-3,-1.5268056E-4,2.9902472E-5,5.204337E-4,-1.447157E-3,2.6486776E-4],"categories":[],"categories_nodes":[],"categories_segments":[],"categories_sizes":[],"default_left":[0,0,0,0,0,0,0,0,0,0,0,0,0,0,0],"id":28,"left_children":[1,3,5,7,9,11,13,-1,-1,-1,-1,-1,-1,-1,-1],"loss_changes":[3.463309E-4,1.284648E-3,4.80059E-4,2.5711255E-3,1.3416667E-3,1.0778751E-3,1.9922312E-3,0E0,0E0,0E0,0E0,0E0,0E0,0E0,0E0],"parents":[2147483647,0,0,1,1,2,2,3,3,4,4,5,5,6,6],"right_children":[2,4,6,8,10,12,14,-1,-1,-1,-1,-1,-1,-1,-1],"split_conditions":[3.220811E-2,5.481664E-4,1.3347998E-1,6.1426125E-2,9.38924E-2,8.223251E-2,1.3610952E-1,-5.1588224E-5,2.3511113E-3,-2.0114335E-3,-1.5268056E-4,2.9902472E-5,5.204337E-4,-1.447157E-3,2.6486776E-4],"split_indices":[4,10,3,0,7,5,3,0,0,0,0,0,0,0,0],"split_type":[0,0,0,0,0,0,0,0,0,0,0,0,0,0,0],"sum_hessian":[3.364E3,1.813E3,1.551E3,1.75E3,6.3E1,1.431E3,1.2E2,1.733E3,1.7E1,2.6E1,3.7E1,1.222E3,2.09E2,4E1,8E1],"tree_param":{"num_deleted":"0","num_feature":"13","num_nodes":"15","size_leaf_vector":"1"}},{"base_weights":[7.29592E-7,2.3179065E-5,-4.6996744E-3,-3.1531086E-5,4.5512323E-3,4.558791E-3,-1.2407236E-2,9.562652E-6,-7.7478646E-4,-2.1929943E-3,1.2211307E-3,1.7053931E-3,-9.794307E-4,1.5577674E-4,-3.2571934E-3],"categories":[],"categories_nodes":[],"categories_segments":[],"categories_sizes":[],"default_left":[0,0,0,0,0,0,0,0,0,0,0,0,0,0,0],"id":29,"left_children":[1,3,5,7,9,11,13,-1,-1,-1,-1,-1,-1,-1,-1],"loss_changes":[3.5518908E-4,8.300406E-4,1.1983251E-3,1.009619E-3,1.0316968E-3,3.4194055E-4,4.729936E-4,0E0,0E0,0E0,0E0,0E0,0E0,0E0,0E0],"parents":[2147483647,0,0,1,1,2,2,3,3,4,4,5,5,6,6],"right_children":[2,4,6,8,10,12,14,-1,-1,-1,-1,-1,-1,-1,-1],"split_conditions":[1.4175181E-1,1.3715942E-1,1.2929064E-1,1.3347998E-1,2.906572E-14,7.6684175E-4,7.2893836E-2,9.562652E-6,-7.7478646E-4,-2.1929943E-3,1.2211307E-3,1.7053931E-3,-9.794307E-4,1.5577674E-4,-3.2571934E-3],"split_indices":[3,3,1,3,10,8,4,0,0,0,0,0,0,0,0],"split_type":[0,0,0,0,0,0,0,0,0,0,0,0,0,0,0],"sum_hessian":[3.364E3,3.349E3,1.5E1,3.31E3,3.9E1,7E0,8E0,3.244E3,6.6E1,3E0,3.6E1,5E0,2E0,2E0,6E0],"tree_param":{"num_deleted":"0","num_feature":"13","num_nodes":"15","size_leaf_vector":"1"}},{"base_weights":[-6.385606E-7,2.1698137E-5,-4.6773446E-3,-2.9871608E-5,4.2898413E-3,-1.08426325E-2,1.3226164E-3,7.552501E-6,-5.0733093E-4,-1.8640448E-3,1.1290516E-3,-2.5685166E-3,3.1570197E-4,-7.1947946E-4,1.6743966E-3],"categories":[],"categories_nodes":[],"categories_segments":[],"categories_sizes":[],"default_left":[0,0,0,0,0,0,0,0,0,0,0,0,0,0,0],"id":30,"left_children":[1,3,5,7,9,11,13,-1,-1,-1,-1,-1,-1,-1,-1],"loss_changes":[3.516167E-4,7.374868E-4,6.0620444E-4,5.6145614E-4,7.905074E-4,2.190054E-4,3.4226413E-4,0E0,0E0,0E0,0E0,0E0,0E0,0E0,0E0],"parents":[2147483647,0,0,1,1,2,2,3,3,4,4,5,5,6,6],"right_children":[2,4,6,8,10,12,14,-1,-1,-1,-1,-1,-1,-1,-1],"split_conditions":[1.4175181E-1,1.3715942E-1,1.3715942E-1,1.3347998E-1,2.906572E-14,6.909157E-4,1.3358967E-1,7.552501E-6,-5.0733093E-4,-1.8640448E-3,1.1290516E-3,-2.5685166E-3,3.1570197E-4,-7.1947946E-4,1.6743966E-3],"split_indices":[2,2,3,3,10,6,5,0,0,0,0,0,0,0,0],"split_type":[0,0,0,0,0,0,0,0,0,0,0,0,0,0,0],"sum_hessian":[3.364E3,3.349E3,1.5E1,3.31E3,3.9E1,7E0,8E0,3.224E3,8.6E1,3E0,3.6E1,6E0,1E0,5E0,3E0],"tree_param":{"num_deleted":"0","num_feature":"13","num_nodes":"15","size_leaf_vector":"1"}},{"base_weights":[-1.2632022E-6,2.440458E-3,-8.518208E-6,-9.510116E-4,8.037012E-5,-2.7917128E-4,-1.4811516E-4,1.1752927E-3,1.0388185E-5],"categories":[],"categories_nodes":[],"categories_segments":[],"categories_sizes":[],"default_left":[0,0,0,0,0,0,0,0,0],"id":31,"left_children":[1,-1,3,5,7,-1,-1,-1,-1],"loss_changes":[2.9803044E-4,0E0,2.819011E-4,2.6113557E-5,5.06388E-4,0E0,0E0,0E0,0E0],"parents":[2147483647,0,0,2,2,3,3,4,4],"right_children":[2,-1,4,6,8,-1,-1,-1,-1],"split_conditions":[0E0,2.440458E-3,3.644929E-3,2.6247152E-3,3.728731E-3,-2.7917128E-4,-1.4811516E-4,1.1752927E-3,1.0388185E-5],"split_indices":[10,0,7,0,7,0,0,0,0],"split_type":[0,0,0,0,0,0,0,0,0],"sum_hessian":[3.364E3,1E0,3.363E3,2.89E2,3.074E3,9.1E1,1.98E2,1.4E1,3.06E3],"tree_param":{"num_deleted":"0","num_feature":"13","num_nodes":"9","size_leaf_vector":"1"}},{"base_weights":[-6.0318015E-8,-1.0469174E-4,7.5430685E-4,-1.616622E-5,-1.6414163E-3,1.8392083E-3,-5.7510956E-4,-3.3699995E-5,4.1959115E-4,1.8360009E-3,-5.797629E-4,-4.2832557E-6,7.7446224E-4,8.521594E-5,-6.573684E-4],"categories":[],"categories_nodes":[],"categories_segments":[],"categories_sizes":[],"default_left":[0,0,0,0,0,0,0,0,0,0,0,0,0,0,0],"id":32,"left_children":[1,3,5,7,9,11,13,-1,-1,-1,-1,-1,-1,-1,-1],"loss_changes":[2.6568014E-4,4.0210574E-4,5.9239485E-4,9.008113E-4,2.2173119E-3,8.550052E-4,5.036675E-4,0E0,0E0,0E0,0E0,0E0,0E0,0E0,0E0],"parents":[2147483647,0,0,1,1,2,2,3,3,4,4,5,5,6,6],"right_children":[2,4,6,8,10,12,14,-1,-1,-1,-1,-1,-1,-1,-1],"split_conditions":[1.1681449E-3,2.220008E-4,2.261723E-1,9.858339E-2,5.3835053E-2,1.9877345E-5,3.2632165E-2,-3.3699995E-5,4.1959115E-4,1.8360009E-3,-5.797629E-4,-4.2832557E-6,7.7446224E-4,8.521594E-5,-6.573684E-4],"split_indices":[11,8,12,3,2,10,0,0,0,0,0,0,0,0,0],"split_type":[0,0,0,0,0,0,0,0,0,0,0,0,0,0,0],"sum_hessian":[3.364E3,2.955E3,4.09E2,2.795E3,1.6E2,2.25E2,1.84E2,2.608E3,1.87E2,1.6E1,1.44E2,1.18E2,1.07E2,1.35E2,4.9E1],"tree_param":{"num_deleted":"0","num_feature":"13","num_nodes":"15","size_leaf_vector":"1"}},{"base_weights":[4.982317E-7,-2.6873999E-5,3.1501753E-3,1.4655391E-6,-6.7535704E-3,-6.4648427E-3,5.4226723E-3,4.5675874E-6,-9.429616E-4,-2.2501366E-3,2.2353877E-4,9.0778427E-4,-2.620291E-3,2.589467E-4,1.4092502E-3],"categories":[],"categories_nodes":[],"categories_segments":[],"categories_sizes":[],"default_left":[0,0,0,0,0,0,0,0,0,0,0,0,0,0,0],"id":33,"left_children":[1,3,5,7,9,11,13,-1,-1,-1,-1,-1,-1,-1,-1],"loss_changes":[2.901937E-4,6.361471E-4,6.6870963E-4,3.3516053E-4,5.081462E-4,4.976328E-4,1.5172584E-4,0E0,0E0,0E0,0E0,0E0,0E0,0E0,0E0],"parents":[2147483647,0,0,1,1,2,2,3,3,4,4,5,5,6,6],"right_children":[2,4,6,8,10,12,14,-1,-1,-1,-1,-1,-1,-1,-1],"split_conditions":[3.4095336E-2,2.7213408E-2,2.858964E-4,1.4175181E-1,1.039533E-1,3.3122756E-2,3.2057177E-2,4.5675874E-6,-9.429616E-4,-2.2501366E-3,2.2353877E-4,9.0778427E-4,-2.620291E-3,2.589467E-4,1.4092502E-3],"split_indices":[11,11,10,2,0,0,4,0,0,0,0,0,0,0,0],"split_type":[0,0,0,0,0,0,0,0,0,0,0,0,0,0,0],"sum_hessian":[3.364E3,3.336E3,2.8E1,3.323E3,1.3E1,5E0,2.3E1,3.309E3,1.4E1,8E0,5E0,2E0,3E0,7E0,1.6E1],"tree_param":{"num_deleted":"0","num_feature":"13","num_nodes":"15","size_leaf_vector":"1"}},{"base_weights":[-4.9576306E-7,-2.874447E-4,2.5670775E-4,-3.2192485E-3,-1.6445851E-4,-3.8117447E-3,3.2883688E-4,1.0180446E-4,-8.5466896E-4,-4.1288786E-5,1.1288959E-3,-2.7982186E-4,-3.2155253E-3,1.2533406E-5,3.361597E-4],"categories":[],"categories_nodes":[],"categories_segments":[],"categories_sizes":[],"default_left":[0,0,0,0,0,0,0,0,0,0,0,0,0,0,0],"id":34,"left_children":[1,3,5,7,9,11,13,-1,-1,-1,-1,-1,-1,-1,-1],"loss_changes":[2.484252E-4,5.731395E-4,5.2213407E-4,2.5369244E-4,3.7383017E-4,8.9489174E-4,6.278354E-4,0E0,0E0,0E0,0E0,0E0,0E0,0E0,0E0],"parents":[2147483647,0,0,1,1,2,2,3,3,4,4,5,5,6,6],"right_children":[2,4,6,8,10,12,14,-1,-1,-1,-1,-1,-1,-1,-1],"split_conditions":[3.1512454E-2,-1.7841263E-3,1.0689163E-2,2.3786863E-2,1.1383114E-4,5.742193E-2,1.0289477E-5,1.0180446E-4,-8.5466896E-4,-4.1288786E-5,1.1288959E-3,-2.7982186E-4,-3.2155253E-3,1.2533406E-5,3.361597E-4],"split_indices":[0,11,4,3,6,0,6,0,0,0,0,0,0,0,0],"split_type":[0,0,0,0,0,0,0,0,0,0,0,0,0,0,0],"sum_hessian":[3.364E3,1.59E3,1.774E3,6.3E1,1.527E3,3E1,1.744E3,1.4E1,4.9E1,1.517E3,1E1,2.6E1,4E0,1.458E3,2.86E2],"tree_param":{"num_deleted":"0","num_feature":"13","num_nodes":"15","size_leaf_vector":"1"}}]},"name":"gbtree"},"learner_model_param":{"base_score":"3.4287162E-2","boost_from_average":"1","num_class":"0","num_feature":"13","num_target":"1"},"objective":{"name":"reg:squarederror","reg_loss_param":{"scale_pos_weight":"1"}}},"version":[2,1,1]}