{"learner":{"attributes":{"best_iteration":"37","best_score":"0.0156616777319575","scikit_learn":"{\"_estimator_type\": \"regressor\"}"},"feature_names":["cpu_lag1","cpu_lag2","cpu_lag3","cpu_lag5","cpu_lag10","cpu_rmean30s","cpu_rvar30s","cpu_rmean60s","cpu_rvar60s","cpu_rmean120s","cpu_rvar120s","cpu_diff1","cpu_logdiff1"],"feature_types":["float","float","float","float","float","float","float","float","float","float","float","float","float"],"gradient_booster":{"model":{"gbtree_model_param":{"num_parallel_tree":"1","num_trees":"58"},"iteration_indptr":[0,1,2,3,4,5,6,7,8,9,10,11,12,13,14,15,16,17,18,19,20,21,22,23,24,25,26,27,28,29,30,31,32,33,34,35,36,37,38,39,40,41,42,43,44,45,46,47,48,49,50,51,52,53,54,55,56,57,58],"tree_info":[0,0,0,0,0,0,0,0,0,0,0,0,0,0,0,0,0,0,0,0,0,0,0,0,0,0,0,0,0,0,0,0,0,0,0,0,0,0,0,0,0,0,0,0,0,0,0,0,0,0,0,0,0,0,0,0,0,0],"trees":[{"base_weights":[-2.4100952E-9,-6.581969E-2,3.0474173E-2,-6.643172E-3,-4.3776263E-2,1.6294643E-2,9.585245E-2,-4.802711E-3,-1.7351434E-3,1.4437757E-3,3.65257E-3,7.52527E-3,1.0679391E-2],"categories":[],"categories_nodes":[],"categories_segments":[],"categories_sizes":[],"default_left":[0,0,0,0,0,0,0,0,0,0,0,0,0],"id":0,"left_children":[1,3,5,-1,7,9,11,-1,-1,-1,-1,-1,-1],"loss_changes":[6.8197227E0,1.1608124E-2,2.152863E0,0E0,2.761148E-3,7.126272E-2,8.527565E-2,0E0,0E0,0E0,0E0,0E0,0E0],"parents":[2147483647,0,0,1,1,2,2,4,4,5,5,6,6],"right_children":[2,4,6,-1,8,10,12,-1,-1,-1,-1,-1,-1],"split_conditions":[2.9571027E-2,5.0125956E-3,1.22280404E-1,-6.643172E-3,6.924536E-4,9.3272716E-2,1.6425192E-1,-4.802711E-3,-1.7351434E-3,1.4437757E-3,3.65257E-3,7.52527E-3,1.0679391E-2],"split_indices":[5,1,5,0,11,5,5,0,0,0,0,0,0],"split_type":[0,0,0,0,0,0,0,0,0,0,0,0,0],"sum_hessian":[3.398E3,1.075E3,2.323E3,1.044E3,3.1E1,1.91E3,4.13E2,2.6E1,5E0,1.751E3,1.59E2,1.46E2,2.67E2],"tree_param":{"num_deleted":"0","num_feature":"13","num_nodes":"13","size_leaf_vector":"1"}},{"base_weights":[2.9759722E-6,-5.924997E-2,2.7436784E-2,-5.9794905E-3,-3.9602943E-2,1.4170442E-2,8.420864E-2,-4.340227E-3,-1.5905481E-3,-3.59713E-4,1.595656E-3,6.0653696E-3,9.410668E-3],"categories":[],"categories_nodes":[],"categories_segments":[],"categories_sizes":[],"default_left":[0,0,0,0,0,0,0,0,0,0,0,0,0],"id":1,"left_children":[1,3,5,-1,7,9,11,-1,-1,-1,-1,-1,-1],"loss_changes":[5.5268154E0,9.151936E-3,1.7491386E0,0E0,2.1907687E-3,5.9877813E-2,9.68771E-2,0E0,0E0,0E0,0E0,0E0,0E0],"parents":[2147483647,0,0,1,1,2,2,4,4,5,5,6,6],"right_children":[2,4,6,-1,8,10,12,-1,-1,-1,-1,-1,-1],"split_conditions":[2.9571027E-2,5.0125956E-3,1.144661E-1,-5.9794905E-3,6.924536E-4,6.369811E-2,1.5995656E-1,-4.340227E-3,-1.5905481E-3,-3.59713E-4,1.595656E-3,6.0653696E-3,9.410668E-3],"split_indices":[5,1,5,0,11,5,5,0,0,0,0,0,0],"split_type":[0,0,0,0,0,0,0,0,0,0,0,0,0],"sum_hessian":[3.398E3,1.075E3,2.323E3,1.044E3,3.1E1,1.884E3,4.39E2,2.6E1,5E0,1.72E2,1.712E3,1.32E2,3.07E2],"tree_param":{"num_deleted":"0","num_feature":"13","num_nodes":"13","size_leaf_vector":"1"}},{"base_weights":[4.0918762E-6,-5.3336043E-2,2.4700297E-2,-5.3638306E-2,-2.6575962E-2,1.318821E-2,7.777976E-2,-5.382379E-3,-4.1274247E-3,1.3203737E-3,-3.4306224E-3,1.1592031E-3,3.0583946E-3,6.0844226E-3,8.67788E-3],"categories":[],"categories_nodes":[],"categories_segments":[],"categories_sizes":[],"default_left":[0,0,0,0,0,0,0,0,0,0,0,0,0,0,0],"id":2,"left_children":[1,3,5,7,9,11,13,-1,-1,-1,-1,-1,-1,-1,-1],"loss_changes":[4.4788165E0,7.2774887E-3,1.4190673E0,2.1648407E-4,4.758076E-3,5.2707672E-2,5.7815075E-2,0E0,0E0,0E0,0E0,0E0,0E0,0E0,0E0],"parents":[2147483647,0,0,1,1,2,2,3,3,4,4,5,5,6,6],"right_children":[2,4,6,8,10,12,14,-1,-1,-1,-1,-1,-1,-1,-1],"split_conditions":[2.9571027E-2,1.5612118E-2,1.22280404E-1,5.0125956E-3,6.959025E-3,9.3272716E-2,1.6425192E-1,-5.382379E-3,-4.1274247E-3,1.3203737E-3,-3.4306224E-3,1.1592031E-3,3.0583946E-3,6.0844226E-3,8.67788E-3],"split_indices":[5,7,5,1,4,5,5,0,0,0,0,0,0,0,0],"split_type":[0,0,0,0,0,0,0,0,0,0,0,0,0,0,0],"sum_hessian":[3.398E3,1.075E3,2.323E3,1.062E3,1.3E1,1.91E3,4.13E2,1.043E3,1.9E1,2E0,1.1E1,1.751E3,1.59E2,1.46E2,2.67E2],"tree_param":{"num_deleted":"0","num_feature":"13","num_nodes":"15","size_leaf_vector":"1"}},{"base_weights":[5.846426E-6,-4.801324E-2,2.2238433E-2,-4.828342E-2,-2.4069097E-2,1.1229543E-2,6.7434885E-2,-4.8449994E-3,-3.7174148E-3,1.2323487E-3,-3.1161485E-3,-4.3920008E-4,1.2814524E-3,4.8293644E-3,7.6413676E-3],"categories":[],"categories_nodes":[],"categories_segments":[],"categories_sizes":[],"default_left":[0,0,0,0,0,0,0,0,0,0,0,0,0,0,0],"id":3,"left_children":[1,3,5,7,9,11,13,-1,-1,-1,-1,-1,-1,-1,-1],"loss_changes":[3.6298008E0,5.799055E-3,1.1555785E0,1.6617775E-4,3.9975634E-3,4.6357214E-2,7.450843E-2,0E0,0E0,0E0,0E0,0E0,0E0,0E0,0E0],"parents":[2147483647,0,0,1,1,2,2,3,3,4,4,5,5,6,6],"right_children":[2,4,6,8,10,12,14,-1,-1,-1,-1,-1,-1,-1,-1],"split_conditions":[2.9571027E-2,1.5612118E-2,1.10300526E-1,5.0125956E-3,6.959025E-3,6.369811E-2,1.5995656E-1,-4.8449994E-3,-3.7174148E-3,1.2323487E-3,-3.1161485E-3,-4.3920008E-4,1.2814524E-3,4.8293644E-3,7.6413676E-3],"split_indices":[5,7,5,0,4,5,5,0,0,0,0,0,0,0,0],"split_type":[0,0,0,0,0,0,0,0,0,0,0,0,0,0,0],"sum_hessian":[3.398E3,1.075E3,2.323E3,1.062E3,1.3E1,1.869E3,4.54E2,1.043E3,1.9E1,2E0,1.1E1,1.72E2,1.697E3,1.47E2,3.07E2],"tree_param":{"num_deleted":"0","num_feature":"13","num_nodes":"15","size_leaf_vector":"1"}},{"base_weights":[6.104168E-6,-4.2457115E-2,2.039658E-2,-4.3552923E-3,-1.7464882E-2,1.06335115E-2,6.1577007E-2,-2.9900174E-3,-1.146505E-3,7.2532584E-4,1.5124346E-3,3.1479013E-3,6.7380206E-3],"categories":[],"categories_nodes":[],"categories_segments":[],"categories_sizes":[],"default_left":[0,0,0,0,0,0,0,0,0,0,0,0,0],"id":4,"left_children":[1,3,5,-1,7,9,11,-1,-1,-1,-1,-1,-1],"loss_changes":[2.9438741E0,2.9446602E-2,9.2284805E-1,0E0,3.2384563E-3,2.8095007E-2,7.473135E-2,0E0,0E0,0E0,0E0,0E0,0E0],"parents":[2147483647,0,0,1,1,2,2,4,4,5,5,6,6],"right_children":[2,4,6,-1,8,10,12,-1,-1,-1,-1,-1,-1],"split_conditions":[4.6155147E-2,1.2881029E-2,1.144661E-1,-4.3552923E-3,1.3325501E-2,8.6368114E-2,-9.823977E-3,-2.9900174E-3,-1.146505E-3,7.2532584E-4,1.5124346E-3,3.1479013E-3,6.7380206E-3],"split_indices":[5,1,5,0,5,5,11,0,0,0,0,0,0],"split_type":[0,0,0,0,0,0,0,0,0,0,0,0,0],"sum_hessian":[3.398E3,1.102E3,2.296E3,1.055E3,4.7E1,1.857E3,4.39E2,1.4E1,3.3E1,1.061E3,7.96E2,7.2E1,3.67E2],"tree_param":{"num_deleted":"0","num_feature":"13","num_nodes":"13","size_leaf_vector":"1"}},{"base_weights":[6.560524E-6,-3.761428E-2,1.8684508E-2,-3.9226864E-3,-1.3418197E-2,1.0148762E-2,5.6967765E-2,-1.6050622E-3,9.6475333E-4,9.405149E-4,3.2287992E-3,4.799581E-3,6.894664E-3],"categories":[],"categories_nodes":[],"categories_segments":[],"categories_sizes":[],"default_left":[0,0,0,0,0,0,0,0,0,0,0,0,0],"id":5,"left_children":[1,3,5,-1,7,9,11,-1,-1,-1,-1,-1,-1],"loss_changes":[2.3891122E0,4.3486238E-2,7.4185735E-1,0E0,4.526604E-3,3.0301064E-2,4.118502E-2,0E0,0E0,0E0,0E0,0E0,0E0],"parents":[2147483647,0,0,1,1,2,2,4,4,5,5,6,6],"right_children":[2,4,6,-1,8,10,12,-1,-1,-1,-1,-1,-1],"split_conditions":[5.1959414E-2,1.2881029E-2,1.22280404E-1,-3.9226864E-3,2.3967335E-1,2.3632327E-2,1.8416458E-1,-1.6050622E-3,9.6475333E-4,9.405149E-4,3.2287992E-3,4.799581E-3,6.894664E-3],"split_indices":[5,1,5,0,12,11,5,0,0,0,0,0,0],"split_type":[0,0,0,0,0,0,0,0,0,0,0,0,0],"sum_hessian":[3.398E3,1.127E3,2.271E3,1.056E3,7.1E1,1.858E3,4.13E2,6.4E1,7E0,1.799E3,5.9E1,2.39E2,1.74E2],"tree_param":{"num_deleted":"0","num_feature":"13","num_nodes":"13","size_leaf_vector":"1"}},{"base_weights":[9.228152E-6,-3.3365417E-2,1.70898E-2,-3.530789E-3,-1.140167E-2,8.8818325E-3,4.943313E-2,-2.8548518E-3,-8.8163855E-4,7.349107E-4,1.5013613E-3,2.40149E-3,5.4227677E-3],"categories":[],"categories_nodes":[],"categories_segments":[],"categories_sizes":[],"default_left":[0,0,0,0,0,0,0,0,0,0,0,0,0],"id":6,"left_children":[1,3,5,-1,7,9,11,-1,-1,-1,-1,-1,-1],"loss_changes":[1.9381979E0,4.870355E-2,5.966097E-1,0E0,3.9596055E-3,1.6759664E-2,5.4148078E-2,0E0,0E0,0E0,0E0,0E0,0E0],"parents":[2147483647,0,0,1,1,2,2,4,4,5,5,6,6],"right_children":[2,4,6,-1,8,10,12,-1,-1,-1,-1,-1,-1],"split_conditions":[5.407635E-2,1.2881029E-2,1.10300526E-1,-3.530789E-3,-3.6565694E-1,8.841927E-2,-9.823977E-3,-2.8548518E-3,-8.8163855E-4,7.349107E-4,1.5013613E-3,2.40149E-3,5.4227677E-3],"split_indices":[5,1,5,0,12,5,11,0,0,0,0,0,0],"split_type":[0,0,0,0,0,0,0,0,0,0,0,0,0],"sum_hessian":[3.398E3,1.15E3,2.248E3,1.056E3,9.4E1,1.794E3,4.54E2,1.1E1,8.3E1,1.437E3,3.57E2,7.3E1,3.81E2],"tree_param":{"num_deleted":"0","num_feature":"13","num_nodes":"13","size_leaf_vector":"1"}},{"base_weights":[9.127197E-6,-2.9689204E-2,1.5570463E-2,-3.1731438E-3,-9.122987E-3,8.916498E-3,4.8585158E-2,4.2408533E-4,-1.6247316E-3,8.5030496E-4,5.9148655E-3,3.0782414E-3,5.2092522E-3],"categories":[],"categories_nodes":[],"categories_segments":[],"categories_sizes":[],"default_left":[0,0,0,0,0,0,0,0,0,0,0,0,0],"id":7,"left_children":[1,3,5,-1,7,9,11,-1,-1,-1,-1,-1,-1],"loss_changes":[1.5712955E0,4.8809767E-2,4.8966986E-1,0E0,1.0256198E-2,3.8084745E-2,2.1749318E-2,0E0,0E0,0E0,0E0,0E0,0E0],"parents":[2147483647,0,0,1,1,2,2,4,4,5,5,6,6],"right_children":[2,4,6,-1,8,10,12,-1,-1,-1,-1,-1,-1],"split_conditions":[5.6438547E-2,1.5612118E-2,1.3400748E-1,-3.1731438E-3,2.0369713E-4,4.1915152E-2,-1.9581383E-3,4.2408533E-4,-1.6247316E-3,8.5030496E-4,5.9148655E-3,3.0782414E-3,5.2092522E-3],"split_indices":[5,7,5,0,10,11,11,0,0,0,0,0,0],"split_type":[0,0,0,0,0,0,0,0,0,0,0,0,0],"sum_hessian":[3.398E3,1.168E3,2.23E3,1.062E3,1.06E2,1.857E3,3.73E2,3.7E1,6.9E1,1.843E3,1.4E1,6.3E1,3.1E2],"tree_param":{"num_deleted":"0","num_feature":"13","num_nodes":"13","size_leaf_vector":"1"}},{"base_weights":[1.1356276E-5,-2.651078E-2,1.41453305E-2,-2.861956E-2,-8.610071E-3,8.3811795E-3,4.520108E-2,-2.8673287E-3,-1.7990703E-3,-2.322898E-3,-5.9585023E-4,7.9461356E-4,5.538473E-3,2.9526937E-3,4.786389E-3],"categories":[],"categories_nodes":[],"categories_segments":[],"categories_sizes":[],"default_left":[0,0,0,0,0,0,0,0,0,0,0,0,0,0,0],"id":8,"left_children":[1,3,5,7,9,11,13,-1,-1,-1,-1,-1,-1,-1,-1],"loss_changes":[1.274535E0,4.43725E-2,3.9666545E-1,8.779764E-5,4.745733E-3,3.783971E-2,1.306957E-2,0E0,0E0,0E0,0E0,0E0,0E0,0E0,0E0],"parents":[2147483647,0,0,1,1,2,2,3,3,4,4,5,5,6,6],"right_children":[2,4,6,8,10,12,14,-1,-1,-1,-1,-1,-1,-1,-1],"split_conditions":[5.818935E-2,1.2881029E-2,1.438791E-1,1.046501E-5,-3.3006972E-1,4.1915152E-2,-1.9581383E-3,-2.8673287E-3,-1.7990703E-3,-2.322898E-3,-5.9585023E-4,7.9461356E-4,5.538473E-3,2.9526937E-3,4.786389E-3],"split_indices":[5,1,5,6,12,11,11,0,0,0,0,0,0,0,0],"split_type":[0,0,0,0,0,0,0,0,0,0,0,0,0,0,0],"sum_hessian":[3.398E3,1.181E3,2.217E3,1.056E3,1.25E2,1.871E3,3.46E2,1.049E3,7E0,1.8E1,1.07E2,1.855E3,1.6E1,5.2E1,2.94E2],"tree_param":{"num_deleted":"0","num_feature":"13","num_nodes":"15","size_leaf_vector":"1"}},{"base_weights":[1.2130153E-5,-2.386612E-2,1.2737144E-2,-2.5720925E-3,-7.2367727E-3,6.4687296E-3,3.622649E-2,2.4540059E-3,-9.124502E-4,4.2450867E-4,9.2990836E-4,1.6341697E-3,4.0171663E-3],"categories":[],"categories_nodes":[],"categories_segments":[],"categories_sizes":[],"default_left":[0,0,0,0,0,0,0,0,0,0,0,0,0],"id":9,"left_children":[1,3,5,-1,7,9,11,-1,-1,-1,-1,-1,-1],"loss_changes":[1.0330938E0,3.627175E-2,3.263461E-1,0E0,7.42224E-3,1.0987073E-2,3.597921E-2,0E0,0E0,0E0,0E0,0E0,0E0],"parents":[2147483647,0,0,1,1,2,2,4,4,5,5,6,6],"right_children":[2,4,6,-1,8,10,12,-1,-1,-1,-1,-1,-1],"split_conditions":[5.818935E-2,1.5612118E-2,1.0444291E-1,-2.5720925E-3,1.35043E-2,8.6368114E-2,-7.186871E-2,2.4540059E-3,-9.124502E-4,4.2450867E-4,9.2990836E-4,1.6341697E-3,4.0171663E-3],"split_indices":[5,7,5,0,4,5,12,0,0,0,0,0,0],"split_type":[0,0,0,0,0,0,0,0,0,0,0,0,0],"sum_hessian":[3.398E3,1.181E3,2.217E3,1.062E3,1.19E2,1.751E3,4.66E2,6E0,1.13E2,9.82E2,7.69E2,7.8E1,3.88E2],"tree_param":{"num_deleted":"0","num_feature":"13","num_nodes":"13","size_leaf_vector":"1"}},{"base_weights":[1.2675141E-5,-2.215565E-2,1.11213E-2,-2.3203397E-3,-7.856627E-3,6.4323316E-3,3.7020463E-2,-9.978892E-4,9.7586383E-4,5.9629855E-4,4.0375E-3,2.9606894E-3,4.21335E-3],"categories":[],"categories_nodes":[],"categories_segments":[],"categories_sizes":[],"default_left":[0,0,0,0,0,0,0,0,0,0,0,0,0],"id":10,"left_children":[1,3,5,-1,7,9,11,-1,-1,-1,-1,-1,-1],"loss_changes":[8.3728284E-1,1.682192E-2,2.7482426E-1,0E0,3.0507366E-3,3.0330569E-2,1.1905938E-2,0E0,0E0,0E0,0E0,0E0,0E0],"parents":[2147483647,0,0,1,1,2,2,4,4,5,5,6,6],"right_children":[2,4,6,-1,8,10,12,-1,-1,-1,-1,-1,-1],"split_conditions":[5.1986624E-2,1.2881029E-2,1.438791E-1,-2.3203397E-3,2.2626062E-1,3.450209E-2,1.8337E-1,-9.978892E-4,9.7586383E-4,5.9629855E-4,4.0375E-3,2.9606894E-3,4.21335E-3],"split_indices":[5,1,5,0,12,11,0,0,0,0,0,0,0],"split_type":[0,0,0,0,0,0,0,0,0,0,0,0,0],"sum_hessian":[3.398E3,1.134E3,2.264E3,1.056E3,7.8E1,1.918E3,3.46E2,7E1,8E0,1.893E3,2.5E1,1.44E2,2.02E2],"tree_param":{"num_deleted":"0","num_feature":"13","num_nodes":"13","size_leaf_vector":"1"}},{"base_weights":[1.4192182E-5,-1.9378604E-2,1.0348851E-2,-2.0848636E-2,-6.1951005E-3,5.0886683E-3,2.933398E-2,-2.0874017E-3,-1.1303286E-3,1.2872246E-3,-8.8348653E-4,4.9476826E-4,4.496194E-3,3.8231139E-3,2.0750314E-3],"categories":[],"categories_nodes":[],"categories_segments":[],"categories_sizes":[],"default_left":[0,0,0,0,0,0,0,0,0,0,0,0,0,0,0],"id":11,"left_children":[1,3,5,7,9,11,13,-1,-1,-1,-1,-1,-1,-1,-1],"loss_changes":[6.814211E-1,2.2778183E-2,2.2135186E-1,2.1576881E-5,6.1537223E-3,9.547822E-3,3.5940766E-2,0E0,0E0,0E0,0E0,0E0,0E0,0E0,0E0],"parents":[2147483647,0,0,1,1,2,2,3,3,4,4,5,5,6,6],"right_children":[2,4,6,8,10,12,14,-1,-1,-1,-1,-1,-1,-1,-1],"split_conditions":[5.818935E-2,1.5612118E-2,1.0215092E-1,1.1563147E-2,4.2876497E-2,4.822854E-2,1.4228715E-1,-2.0874017E-3,-1.1303286E-3,1.2872246E-3,-8.8348653E-4,4.9476826E-4,4.496194E-3,3.8231139E-3,2.0750314E-3],"split_indices":[5,7,5,11,3,11,4,0,0,0,0,0,0,0,0],"split_type":[0,0,0,0,0,0,0,0,0,0,0,0,0,0,0],"sum_hessian":[3.398E3,1.181E3,2.217E3,1.062E3,1.19E2,1.737E3,4.8E2,1.058E3,4E0,1.4E1,1.05E2,1.732E3,5E0,2.34E2,2.46E2],"tree_param":{"num_deleted":"0","num_feature":"13","num_nodes":"15","size_leaf_vector":"1"}},{"base_weights":[1.514723E-5,-1.7443126E-2,9.318872E-3,-1.8813249E-2,-5.8108782E-3,5.4027676E-3,3.041867E-2,-1.8736502E-3,-3.1213134E-3,-1.9012453E-3,-3.4345748E-4,4.55679E-4,1.9740572E-3,2.346061E-3,3.5238867E-3],"categories":[],"categories_nodes":[],"categories_segments":[],"categories_sizes":[],"default_left":[0,0,0,0,0,0,0,0,0,0,0,0,0,0,0],"id":12,"left_children":[1,3,5,7,9,11,13,-1,-1,-1,-1,-1,-1,-1,-1],"loss_changes":[5.522518E-1,1.8728942E-2,1.8310678E-1,4.21077E-4,3.88744E-3,2.2616398E-2,1.08113885E-2,0E0,0E0,0E0,0E0,0E0,0E0,0E0,0E0],"parents":[2147483647,0,0,1,1,2,2,3,3,4,4,5,5,6,6],"right_children":[2,4,6,8,10,12,14,-1,-1,-1,-1,-1,-1,-1,-1],"split_conditions":[5.818935E-2,1.2881029E-2,1.438791E-1,1.9163535E-4,-3.3006972E-1,1.8917738E-2,1.8337E-1,-1.8736502E-3,-3.1213134E-3,-1.9012453E-3,-3.4345748E-4,4.55679E-4,1.9740572E-3,2.346061E-3,3.5238867E-3],"split_indices":[5,1,5,8,12,11,0,0,0,0,0,0,0,0,0],"split_type":[0,0,0,0,0,0,0,0,0,0,0,0,0,0,0],"sum_hessian":[3.398E3,1.181E3,2.217E3,1.056E3,1.25E2,1.871E3,3.46E2,1.052E3,4E0,1.8E1,1.07E2,1.768E3,1.03E2,1.44E2,2.02E2],"tree_param":{"num_deleted":"0","num_feature":"13","num_nodes":"15","size_leaf_vector":"1"}},{"base_weights":[1.3945309E-5,-1.5060965E-2,8.756266E-3,-1.6840065E-2,-3.9085196E-3,4.364051E-3,2.4005802E-2,-1.6913264E-3,2.2216619E-4,3.8437413E-3,-4.8819036E-4,4.2019473E-4,4.867455E-3,3.2072205E-3,1.6234098E-3],"categories":[],"categories_nodes":[],"categories_segments":[],"categories_sizes":[],"default_left":[0,0,0,0,0,0,0,0,0,0,0,0,0,0,0],"id":13,"left_children":[1,3,5,7,9,11,13,-1,-1,-1,-1,-1,-1,-1,-1],"loss_changes":[4.4808507E-1,2.4696141E-2,1.4403453E-1,1.5389025E-3,7.318507E-3,1.1805285E-2,2.9633075E-2,0E0,0E0,0E0,0E0,0E0,0E0,0E0,0E0],"parents":[2147483647,0,0,1,1,2,2,3,3,4,4,5,5,6,6],"right_children":[2,4,6,8,10,12,14,-1,-1,-1,-1,-1,-1,-1,-1],"split_conditions":[6.369811E-2,2.9571027E-2,1.0215092E-1,4.3622773E-2,2.2990758E-2,4.1915152E-2,1.4228715E-1,-1.6913264E-3,2.2216619E-4,3.8437413E-3,-4.8819036E-4,4.2019473E-4,4.867455E-3,3.2072205E-3,1.6234098E-3],"split_indices":[5,5,5,1,3,11,4,0,0,0,0,0,0,0,0],"split_type":[0,0,0,0,0,0,0,0,0,0,0,0,0,0,0],"sum_hessian":[3.398E3,1.247E3,2.151E3,1.075E3,1.72E2,1.671E3,4.8E2,1.071E3,4E0,3E0,1.69E2,1.666E3,5E0,2.34E2,2.46E2],"tree_param":{"num_deleted":"0","num_feature":"13","num_nodes":"15","size_leaf_vector":"1"}},{"base_weights":[1.6081327E-5,-1.41404085E-2,7.5602448E-3,-1.5157424E-2,-3.7810695E-3,4.3228446E-3,2.5003625E-2,-1.5223514E-3,2.0439297E-4,3.555461E-3,-5.257624E-4,2.9809665E-4,1.1100755E-3,1.8480852E-3,2.9539578E-3],"categories":[],"categories_nodes":[],"categories_segments":[],"categories_sizes":[],"default_left":[0,0,0,0,0,0,0,0,0,0,0,0,0,0,0],"id":14,"left_children":[1,3,5,7,9,11,13,-1,-1,-1,-1,-1,-1,-1,-1],"loss_changes":[3.631163E-1,1.2395769E-2,1.2514503E-1,1.2543797E-3,6.4016273E-3,1.699299E-2,9.7207725E-3,0E0,0E0,0E0,0E0,0E0,0E0,0E0,0E0],"parents":[2147483647,0,0,1,1,2,2,3,3,4,4,5,5,6,6],"right_children":[2,4,6,8,10,12,14,-1,-1,-1,-1,-1,-1,-1,-1],"split_conditions":[5.818935E-2,2.9571027E-2,1.438791E-1,4.3622773E-2,2.2990758E-2,1.7388238E-3,1.8337E-1,-1.5223514E-3,2.0439297E-4,3.555461E-3,-5.257624E-4,2.9809665E-4,1.1100755E-3,1.8480852E-3,2.9539578E-3],"split_indices":[5,5,5,1,3,11,0,0,0,0,0,0,0,0,0],"split_type":[0,0,0,0,0,0,0,0,0,0,0,0,0,0,0],"sum_hessian":[3.398E3,1.181E3,2.217E3,1.075E3,1.06E2,1.871E3,3.46E2,1.071E3,4E0,3E0,1.03E2,1.563E3,3.08E2,1.44E2,2.02E2],"tree_param":{"num_deleted":"0","num_feature":"13","num_nodes":"15","size_leaf_vector":"1"}},{"base_weights":[1.6802918E-5,-1.2343951E-2,7.0678485E-3,-1.3642906E-2,-3.5313217E-3,3.3756136E-3,1.951766E-2,-1.3702584E-3,1.8804164E-4,3.1056681E-3,-5.316764E-4,2.3114358E-4,7.1112456E-4,-2.9123677E-3,2.0786438E-3],"categories":[],"categories_nodes":[],"categories_segments":[],"categories_sizes":[],"default_left":[0,0,0,0,0,0,0,0,0,0,0,0,0,0,0],"id":15,"left_children":[1,3,5,7,9,11,13,-1,-1,-1,-1,-1,-1,-1,-1],"loss_changes":[2.9633132E-1,1.4089122E-2,9.945404E-2,1.0225475E-3,1.0045902E-2,6.6264197E-3,3.115432E-2,0E0,0E0,0E0,0E0,0E0,0E0,0E0,0E0],"parents":[2147483647,0,0,1,1,2,2,3,3,4,4,5,5,6,6],"right_children":[2,4,6,8,10,12,14,-1,-1,-1,-1,-1,-1,-1,-1],"split_conditions":[6.568425E-2,2.9571027E-2,1.0058266E-1,4.3622773E-2,2.2990758E-2,8.814354E-2,1.35043E-2,-1.3702584E-3,1.8804164E-4,3.1056681E-3,-5.316764E-4,2.3114358E-4,7.1112456E-4,-2.9123677E-3,2.0786438E-3],"split_indices":[7,5,5,1,3,5,4,0,0,0,0,0,0,0,0],"split_type":[0,0,0,0,0,0,0,0,0,0,0,0,0,0,0],"sum_hessian":[3.398E3,1.234E3,2.164E3,1.075E3,1.59E2,1.67E3,4.94E2,1.071E3,4E0,7E0,1.52E2,1.301E3,3.69E2,1.2E1,4.82E2],"tree_param":{"num_deleted":"0","num_feature":"13","num_nodes":"15","size_leaf_vector":"1"}},{"base_weights":[1.556302E-5,-1.1026675E-2,6.419233E-3,-1.2362799E-2,-3.6136047E-3,3.7126201E-3,2.0487601E-2,-1.2292012E-3,-2.7924643E-3,1.2802797E-3,-5.385433E-4,3.4172175E-4,3.8755895E-3,1.0107819E-3,2.3027519E-3],"categories":[],"categories_nodes":[],"categories_segments":[],"categories_sizes":[],"default_left":[0,0,0,0,0,0,0,0,0,0,0,0,0,0,0],"id":16,"left_children":[1,3,5,7,9,11,13,-1,-1,-1,-1,-1,-1,-1,-1],"loss_changes":[2.4041696E-1,1.2316495E-2,8.186699E-2,8.211285E-4,5.6536593E-3,1.8563056E-2,8.915469E-3,0E0,0E0,0E0,0E0,0E0,0E0,0E0,0E0],"parents":[2147483647,0,0,1,1,2,2,3,3,4,4,5,5,6,6],"right_children":[2,4,6,8,10,12,14,-1,-1,-1,-1,-1,-1,-1,-1],"split_conditions":[6.369811E-2,1.2881029E-2,1.438791E-1,4.2876497E-2,1.2971479E-5,4.1915152E-2,-2.292075E-3,-1.2292012E-3,-2.7924643E-3,1.2802797E-3,-5.385433E-4,3.4172175E-4,3.8755895E-3,1.0107819E-3,2.3027519E-3],"split_indices":[5,1,5,3,10,11,12,0,0,0,0,0,0,0,0],"split_type":[0,0,0,0,0,0,0,0,0,0,0,0,0,0,0],"sum_hessian":[3.398E3,1.247E3,2.151E3,1.056E3,1.91E2,1.805E3,3.46E2,1.053E3,3E0,1.8E1,1.73E2,1.791E3,1.4E1,6.9E1,2.77E2],"tree_param":{"num_deleted":"0","num_feature":"13","num_nodes":"15","size_leaf_vector":"1"}},{"base_weights":[1.52580415E-5,-9.468536E-3,6.093667E-3,-1.1065372E-2,-2.639823E-3,3.8795501E-3,2.0191899E-2,-1.111674E-3,2.1608174E-4,3.4228738E-3,-3.5211598E-4,3.0108888E-4,1.824256E-3,1.0398881E-3,2.2475708E-3],"categories":[],"categories_nodes":[],"categories_segments":[],"categories_sizes":[],"default_left":[0,0,0,0,0,0,0,0,0,0,0,0,0,0,0],"id":17,"left_children":[1,3,5,7,9,11,13,-1,-1,-1,-1,-1,-1,-1,-1],"loss_changes":[1.9599773E-1,1.4451742E-2,6.459942E-2,7.5507164E-4,8.341411E-3,2.230313E-2,6.0509443E-3,0E0,0E0,0E0,0E0,0E0,0E0,0E0,0E0],"parents":[2147483647,0,0,1,1,2,2,3,3,4,4,5,5,6,6],"right_children":[2,4,6,8,10,12,14,-1,-1,-1,-1,-1,-1,-1,-1],"split_conditions":[6.941848E-2,2.9571027E-2,1.6216715E-1,4.3622773E-2,2.2990758E-2,1.8917738E-2,-3.2157736E-4,-1.111674E-3,2.1608174E-4,3.4228738E-3,-3.5211598E-4,3.0108888E-4,1.824256E-3,1.0398881E-3,2.2475708E-3],"split_indices":[5,5,5,1,3,11,11,0,0,0,0,0,0,0,0],"split_type":[0,0,0,0,0,0,0,0,0,0,0,0,0,0,0],"sum_hessian":[3.398E3,1.327E3,2.071E3,1.075E3,2.52E2,1.791E3,2.8E2,1.071E3,4E0,5E0,2.47E2,1.69E3,1.01E2,5.4E1,2.26E2],"tree_param":{"num_deleted":"0","num_feature":"13","num_nodes":"15","size_leaf_vector":"1"}},{"base_weights":[1.5966047E-5,-7.828288E-3,6.019296E-3,-9.959667E-3,-2.0608872E-3,4.199111E-3,2.011492E-2,-1.0032986E-3,-1.14061884E-4,1.1878707E-3,-3.1449503E-4,3.1989577E-4,2.789552E-3,5.8870733E-4,2.1353604E-3],"categories":[],"categories_nodes":[],"categories_segments":[],"categories_sizes":[],"default_left":[0,0,0,0,0,0,0,0,0,0,0,0,0,0,0],"id":18,"left_children":[1,3,5,7,9,11,13,-1,-1,-1,-1,-1,-1,-1,-1],"loss_changes":[1.6011162E-1,1.8098652E-2,4.9330235E-2,6.842911E-4,6.0668057E-3,4.0366743E-2,3.7515238E-3,0E0,0E0,0E0,0E0,0E0,0E0,0E0,0E0],"parents":[2147483647,0,0,1,1,2,2,3,3,4,4,5,5,6,6],"right_children":[2,4,6,8,10,12,14,-1,-1,-1,-1,-1,-1,-1,-1],"split_conditions":[7.651059E-2,2.9571027E-2,1.8024911E-1,4.4582975E-3,1.2971479E-5,2.3632327E-2,1.4228715E-1,-1.0032986E-3,-1.14061884E-4,1.1878707E-3,-3.1449503E-4,3.1989577E-4,2.789552E-3,5.8870733E-4,2.1353604E-3],"split_indices":[5,5,0,11,10,11,2,0,0,0,0,0,0,0,0],"split_type":[0,0,0,0,0,0,0,0,0,0,0,0,0,0,0],"sum_hessian":[3.398E3,1.473E3,1.925E3,1.075E3,3.98E2,1.706E3,2.19E2,1.066E3,9E0,2.8E1,3.7E2,1.638E3,6.8E1,1.8E1,2.01E2],"tree_param":{"num_deleted":"0","num_feature":"13","num_nodes":"15","size_leaf_vector":"1"}},{"base_weights":[1.6012675E-5,-9.007404E-3,4.2680614E-3,-8.760066E-3,-5.219189E-3,1.3008256E-3,1.354365E-2,-9.0226595E-4,5.661052E-4,-1.528883E-4,2.8910622E-4,2.1139337E-3,6.0874905E-4],"categories":[],"categories_nodes":[],"categories_segments":[],"categories_sizes":[],"default_left":[0,0,0,0,0,0,0,0,0,0,0,0,0],"id":19,"left_children":[1,3,5,7,-1,9,11,-1,-1,-1,-1,-1,-1],"loss_changes":[1.3045132E-1,1.11745745E-2,6.358771E-2,4.1560754E-3,0E0,7.888256E-3,3.1586714E-2,0E0,0E0,0E0,0E0,0E0,0E0],"parents":[2147483647,0,0,1,1,2,2,3,3,5,5,6,6],"right_children":[2,4,6,8,-1,10,12,-1,-1,-1,-1,-1,-1],"split_conditions":[3.2802507E-2,1.3091172E-1,9.3272716E-2,1.3582947E-3,-5.219189E-3,8.209582E-2,1.3284752E-1,-9.0226595E-4,5.661052E-4,-1.528883E-4,2.8910622E-4,2.1139337E-3,6.0874905E-4],"split_indices":[4,1,5,11,0,7,4,0,0,0,0,0,0],"split_type":[0,0,0,0,0,0,0,0,0,0,0,0,0],"sum_hessian":[3.398E3,1.088E3,2.31E3,1.083E3,5E0,1.751E3,5.59E2,1.064E3,1.9E1,6.3E2,1.121E3,2.76E2,2.83E2],"tree_param":{"num_deleted":"0","num_feature":"13","num_nodes":"13","size_leaf_vector":"1"}},{"base_weights":[1.3618451E-5,-7.3850686E-3,4.2341105E-3,-7.754901E-3,3.047376E-3,2.7844529E-3,1.7037746E-2,-7.825646E-4,1.5230216E-3,1.3869356E-4,2.472427E-3,1.3598765E-4,1.0128439E-3,5.6235696E-4,1.8406708E-3],"categories":[],"categories_nodes":[],"categories_segments":[],"categories_sizes":[],"default_left":[0,0,0,0,0,0,0,0,0,0,0,0,0,0,0],"id":20,"left_children":[1,3,5,7,9,11,13,-1,-1,-1,-1,-1,-1,-1,-1],"loss_changes":[1.06168784E-1,4.7885776E-3,4.013688E-2,2.0590723E-3,1.5134162E-3,2.0345412E-2,3.3341125E-3,0E0,0E0,0E0,0E0,0E0,0E0,0E0,0E0],"parents":[2147483647,0,0,1,1,2,2,3,3,4,4,5,5,6,6],"right_children":[2,4,6,8,10,12,14,-1,-1,-1,-1,-1,-1,-1,-1],"split_conditions":[6.568425E-2,8.007188E-3,1.8024911E-1,7.821263E-2,1.2194347E-3,2.168968E-3,1.5381306E-1,-7.825646E-4,1.5230216E-3,1.3869356E-4,2.472427E-3,1.3598765E-4,1.0128439E-3,5.6235696E-4,1.8406708E-3],"split_indices":[7,11,0,1,6,11,2,0,0,0,0,0,0,0,0],"split_type":[0,0,0,0,0,0,0,0,0,0,0,0,0,0,0],"sum_hessian":[3.398E3,1.234E3,2.164E3,1.192E3,4.2E1,1.945E3,2.19E2,1.189E3,3E0,4E1,2E0,1.63E3,3.15E2,2.4E1,1.95E2],"tree_param":{"num_deleted":"0","num_feature":"13","num_nodes":"15","size_leaf_vector":"1"}},{"base_weights":[1.4287388E-5,-5.731651E-3,4.5559616E-3,-7.0448816E-3,-4.5087028E-4,3.140413E-3,1.5344898E-2,-7.165515E-4,3.0876247E-3,-6.82129E-4,1.2373118E-4,2.1313425E-4,1.9586056E-3,1.8571671E-3,1.0566597E-3],"categories":[],"categories_nodes":[],"categories_segments":[],"categories_sizes":[],"default_left":[0,0,0,0,0,0,0,0,0,0,0,0,0,0,0],"id":21,"left_children":[1,3,5,7,9,11,13,-1,-1,-1,-1,-1,-1,-1,-1],"loss_changes":[8.8727035E-2,1.0406077E-2,2.8953843E-2,5.7198703E-3,3.2347685E-3,2.7837537E-2,3.195826E-3,0E0,0E0,0E0,0E0,0E0,0E0,0E0,0E0],"parents":[2147483647,0,0,1,1,2,2,3,3,4,4,5,5,6,6],"right_children":[2,4,6,8,10,12,14,-1,-1,-1,-1,-1,-1,-1,-1],"split_conditions":[7.747623E-2,4.1659092E-7,1.8024911E-1,8.874365E-2,-2.762118E-1,1.7536236E-2,6.344521E-9,-7.165515E-4,3.0876247E-3,-6.82129E-4,1.2373118E-4,2.1313425E-4,1.9586056E-3,1.8571671E-3,1.0566597E-3],"split_indices":[5,6,0,1,12,11,6,0,0,0,0,0,0,0,0],"split_type":[0,0,0,0,0,0,0,0,0,0,0,0,0,0,0],"sum_hessian":[3.398E3,1.5E3,1.898E3,1.201E3,2.99E2,1.679E3,2.19E2,1.198E3,3E0,6.2E1,2.37E2,1.583E3,9.6E1,1.29E2,9E1],"tree_param":{"num_deleted":"0","num_feature":"13","num_nodes":"15","size_leaf_vector":"1"}},{"base_weights":[1.4889787E-5,-6.583841E-3,3.234833E-3,-6.223772E-3,-3.4456134E-2,8.487402E-4,1.0135577E-2,-6.5141625E-4,7.091014E-4,-5.6335086E-4,-4.984276E-3,6.727309E-5,2.7797013E-3,1.6410142E-3,3.383452E-4],"categories":[],"categories_nodes":[],"categories_segments":[],"categories_sizes":[],"default_left":[0,0,0,0,0,0,0,0,0,0,0,0,0,0,0],"id":22,"left_children":[1,3,5,7,9,11,13,-1,-1,-1,-1,-1,-1,-1,-1],"loss_changes":[7.224168E-2,1.0975633E-2,3.7615784E-2,4.3070577E-3,5.9279706E-3,8.039907E-3,2.48137E-2,0E0,0E0,0E0,0E0,0E0,0E0,0E0,0E0],"parents":[2147483647,0,0,1,1,2,2,3,3,4,4,5,5,6,6],"right_children":[2,4,6,8,10,12,14,-1,-1,-1,-1,-1,-1,-1,-1],"split_conditions":[4.510013E-2,1.0215092E-1,9.17939E-2,1.3582947E-3,5.66338E-4,9.586068E-2,1.3284752E-1,-6.5141625E-4,7.091014E-4,-5.6335086E-4,-4.984276E-3,6.727309E-5,2.7797013E-3,1.6410142E-3,3.383452E-4],"split_indices":[4,1,5,11,4,0,4,0,0,0,0,0,0,0,0],"split_type":[0,0,0,0,0,0,0,0,0,0,0,0,0,0,0],"sum_hessian":[3.398E3,1.114E3,2.284E3,1.101E3,1.3E1,1.698E3,5.86E2,1.078E3,2.3E1,5E0,8E0,1.688E3,1E1,3.03E2,2.83E2],"tree_param":{"num_deleted":"0","num_feature":"13","num_nodes":"15","size_leaf_vector":"1"}},{"base_weights":[1.3206187E-5,-4.7214045E-3,3.7555113E-3,-5.7820156E-3,-4.5614992E-4,2.5844497E-3,1.3526624E-2,-5.8921956E-4,2.8689746E-3,-4.7452544E-4,1.6166993E-4,1.8654799E-4,1.9520934E-3,6.1235786E-4,1.5905896E-3],"categories":[],"categories_nodes":[],"categories_segments":[],"categories_sizes":[],"default_left":[0,0,0,0,0,0,0,0,0,0,0,0,0,0,0],"id":23,"left_children":[1,3,5,7,9,11,13,-1,-1,-1,-1,-1,-1,-1,-1],"loss_changes":[6.0242426E-2,6.7875534E-3,2.1694493E-2,4.73433E-3,2.6748718E-3,2.062765E-2,3.4782104E-3,0E0,0E0,0E0,0E0,0E0,0E0,0E0,0E0],"parents":[2147483647,0,0,1,1,2,2,3,3,4,4,5,5,6,6],"right_children":[2,4,6,8,10,12,14,-1,-1,-1,-1,-1,-1,-1,-1],"split_conditions":[7.747623E-2,4.1659092E-7,1.8337E-1,8.874365E-2,-6.4573768E-3,2.3632327E-2,-3.2157736E-4,-5.8921956E-4,2.8689746E-3,-4.7452544E-4,1.6166993E-4,1.8654799E-4,1.9520934E-3,6.1235786E-4,1.5905896E-3],"split_indices":[5,6,0,1,11,11,11,0,0,0,0,0,0,0,0],"split_type":[0,0,0,0,0,0,0,0,0,0,0,0,0,0,0],"sum_hessian":[3.398E3,1.5E3,1.898E3,1.201E3,2.99E2,1.696E3,2.02E2,1.198E3,3E0,9.7E1,2.02E2,1.628E3,6.8E1,5E1,1.52E2],"tree_param":{"num_deleted":"0","num_feature":"13","num_nodes":"15","size_leaf_vector":"1"}},{"base_weights":[1.3741399E-5,-4.2479536E-3,3.382246E-3,-5.2019176E-3,-4.1157752E-4,2.2745372E-3,1.18257385E-2,-5.303467E-4,2.6538016E-3,-4.2755698E-4,1.4558255E-4,9.9009485E-5,1.0286963E-3,9.950739E-4,1.9535243E-3],"categories":[],"categories_nodes":[],"categories_segments":[],"categories_sizes":[],"default_left":[0,0,0,0,0,0,0,0,0,0,0,0,0,0,0],"id":24,"left_children":[1,3,5,7,9,11,13,-1,-1,-1,-1,-1,-1,-1,-1],"loss_changes":[4.8808843E-2,5.4911654E-3,1.7734315E-2,4.0149987E-3,2.1709139E-3,1.7279532E-2,2.9857792E-3,0E0,0E0,0E0,0E0,0E0,0E0,0E0,0E0],"parents":[2147483647,0,0,1,1,2,2,3,3,4,4,5,5,6,6],"right_children":[2,4,6,8,10,12,14,-1,-1,-1,-1,-1,-1,-1,-1],"split_conditions":[7.747623E-2,4.1659092E-7,1.8024911E-1,8.874365E-2,-6.4573768E-3,2.168968E-3,1.8859777E-1,-5.303467E-4,2.6538016E-3,-4.2755698E-4,1.4558255E-4,9.9009485E-5,1.0286963E-3,9.950739E-4,1.9535243E-3],"split_indices":[5,6,0,1,11,11,7,0,0,0,0,0,0,0,0],"split_type":[0,0,0,0,0,0,0,0,0,0,0,0,0,0,0],"sum_hessian":[3.398E3,1.5E3,1.898E3,1.201E3,2.99E2,1.679E3,2.19E2,1.198E3,3E0,9.7E1,2.02E2,1.448E3,2.31E2,1.78E2,4.1E1],"tree_param":{"num_deleted":"0","num_feature":"13","num_nodes":"15","size_leaf_vector":"1"}},{"base_weights":[1.4108073E-5,-2.6888675E-3,4.5077675E-3,-4.9030893E-3,-4.1292113E-4,3.2756226E-3,1.4993334E-2,-4.805861E-4,-1.4787049E-3,2.114496E-3,-5.7819503E-5,1.5166127E-4,1.065657E-3,-6.2829215E-4,1.6947169E-3],"categories":[],"categories_nodes":[],"categories_segments":[],"categories_sizes":[],"default_left":[0,0,0,0,0,0,0,0,0,0,0,0,0,0,0],"id":25,"left_children":[1,3,5,7,9,11,13,-1,-1,-1,-1,-1,-1,-1,-1],"loss_changes":[4.1297227E-2,1.0696727E-2,1.6449392E-2,9.629745E-4,3.7462024E-3,1.4836574E-2,5.6768972E-3,0E0,0E0,0E0,0E0,0E0,0E0,0E0,0E0],"parents":[2147483647,0,0,1,1,2,2,3,3,4,4,5,5,6,6],"right_children":[2,4,6,8,10,12,14,-1,-1,-1,-1,-1,-1,-1,-1],"split_conditions":[8.6212665E-2,2.9571027E-2,2.66664E-2,5.775704E-4,2.2990758E-2,1.8024911E-1,6.641506E-2,-4.805861E-4,-1.4787049E-3,2.114496E-3,-5.7819503E-5,1.5166127E-4,1.065657E-3,-6.2829215E-4,1.6947169E-3],"split_indices":[5,5,12,10,3,0,2,0,0,0,0,0,0,0,0],"split_type":[0,0,0,0,0,0,0,0,0,0,0,0,0,0,0],"sum_hessian":[3.398E3,2.122E3,1.276E3,1.075E3,1.047E3,1.143E3,1.33E2,1.066E3,9E0,7E0,1.04E3,9.24E2,2.19E2,1.1E1,1.22E2],"tree_param":{"num_deleted":"0","num_feature":"13","num_nodes":"15","size_leaf_vector":"1"}},{"base_weights":[1.3396111E-5,-2.4199362E-3,4.0587764E-3,-4.4146013E-3,-3.696693E-4,2.949122E-3,1.3501955E-2,-4.3257253E-4,-1.3456213E-3,-7.0606795E-5,9.683693E-4,1.439324E-4,9.940653E-4,-5.706987E-4,1.5266226E-3],"categories":[],"categories_nodes":[],"categories_segments":[],"categories_sizes":[],"default_left":[0,0,0,0,0,0,0,0,0,0,0,0,0,0,0],"id":26,"left_children":[1,3,5,7,9,11,13,-1,-1,-1,-1,-1,-1,-1,-1],"loss_changes":[3.3468746E-2,8.680581E-3,1.3341434E-2,8.0644526E-4,3.5511078E-3,1.206153E-2,4.6283565E-3,0E0,0E0,0E0,0E0,0E0,0E0,0E0,0E0],"parents":[2147483647,0,0,1,1,2,2,3,3,4,4,5,5,6,6],"right_children":[2,4,6,8,10,12,14,-1,-1,-1,-1,-1,-1,-1,-1],"split_conditions":[8.6212665E-2,2.9571027E-2,2.66664E-2,5.775704E-4,9.2098795E-2,1.8337E-1,6.641506E-2,-4.3257253E-4,-1.3456213E-3,-7.0606795E-5,9.683693E-4,1.439324E-4,9.940653E-4,-5.706987E-4,1.5266226E-3],"split_indices":[5,5,12,10,1,0,2,0,0,0,0,0,0,0,0],"split_type":[0,0,0,0,0,0,0,0,0,0,0,0,0,0,0],"sum_hessian":[3.398E3,2.122E3,1.276E3,1.075E3,1.047E3,1.143E3,1.33E2,1.066E3,9E0,1.014E3,3.3E1,9.41E2,2.02E2,1.1E1,1.22E2],"tree_param":{"num_deleted":"0","num_feature":"13","num_nodes":"15","size_leaf_vector":"1"}},{"base_weights":[1.2414281E-5,-4.048114E-3,1.9938045E-3,-3.687486E-3,-3.2145534E-2,5.178567E-4,6.262359E-3,-3.8993842E-4,5.992736E-4,-5.905781E-4,-4.6066972E-3,3.608791E-5,2.4573978E-3,1.2653125E-3,6.657594E-5],"categories":[],"categories_nodes":[],"categories_segments":[],"categories_sizes":[],"default_left":[0,0,0,0,0,0,0,0,0,0,0,0,0,0,0],"id":27,"left_children":[1,3,5,7,9,11,13,-1,-1,-1,-1,-1,-1,-1,-1],"loss_changes":[2.7354697E-2,1.117944E-2,1.4392631E-2,2.2838106E-3,4.842072E-3,6.4070183E-3,2.0986546E-2,0E0,0E0,0E0,0E0,0E0,0E0,0E0,0E0],"parents":[2147483647,0,0,1,1,2,2,3,3,4,4,5,5,6,6],"right_children":[2,4,6,8,10,12,14,-1,-1,-1,-1,-1,-1,-1,-1],"split_conditions":[4.510013E-2,1.0215092E-1,9.17939E-2,1.3582947E-3,5.66338E-4,9.586068E-2,1.10300526E-1,-3.8993842E-4,5.992736E-4,-5.905781E-4,-4.6066972E-3,3.608791E-5,2.4573978E-3,1.2653125E-3,6.657594E-5],"split_indices":[4,1,5,11,4,0,4,0,0,0,0,0,0,0,0],"split_type":[0,0,0,0,0,0,0,0,0,0,0,0,0,0,0],"sum_hessian":[3.398E3,1.114E3,2.284E3,1.101E3,1.3E1,1.698E3,5.86E2,1.078E3,2.3E1,5E0,8E0,1.688E3,1E1,2.73E2,3.13E2],"tree_param":{"num_deleted":"0","num_feature":"13","num_nodes":"15","size_leaf_vector":"1"}},{"base_weights":[1.0829163E-5,-2.5960533E-3,2.6177054E-3,-3.272699E-3,3.8942872E-4,-2.2440368E-2,2.8841507E-3,-3.3656927E-4,2.308529E-3,1.2176571E-3,-1.9926412E-5,-3.7154954E-4,-3.704872E-3,2.4620822E-4,1.510279E-3],"categories":[],"categories_nodes":[],"categories_segments":[],"categories_sizes":[],"default_left":[0,0,0,0,0,0,0,0,0,0,0,0,0,0,0],"id":28,"left_children":[1,3,5,7,9,11,13,-1,-1,-1,-1,-1,-1,-1,-1],"loss_changes":[2.3105789E-2,3.4354664E-3,1.1414955E-2,3.47496E-3,2.1882132E-3,4.7860565E-3,8.642226E-3,0E0,0E0,0E0,0E0,0E0,0E0,0E0,0E0],"parents":[2147483647,0,0,1,1,2,2,3,3,4,4,5,5,6,6],"right_children":[2,4,6,8,10,12,14,-1,-1,-1,-1,-1,-1,-1,-1],"split_conditions":[8.209582E-2,7.4505865E-6,1.35043E-2,8.9596555E-2,1.35043E-2,5.66338E-4,2.5952335E-2,-3.3656927E-4,2.308529E-3,1.2176571E-3,-1.9926412E-5,-3.7154954E-4,-3.704872E-3,2.4620822E-4,1.510279E-3],"split_indices":[7,6,4,1,4,4,11,0,0,0,0,0,0,0,0],"split_type":[0,0,0,0,0,0,0,0,0,0,0,0,0,0,0],"sum_hessian":[3.398E3,1.699E3,1.699E3,1.385E3,3.14E2,1.7E1,1.682E3,1.381E3,4E0,1.4E1,3E2,8E0,9E0,1.627E3,5.5E1],"tree_param":{"num_deleted":"0","num_feature":"13","num_nodes":"15","size_leaf_vector":"1"}},{"base_weights":[9.994497E-6,-1.8095926E-3,3.1957359E-3,-3.2803605E-3,-3.5472037E-4,2.2755084E-3,1.08102895E-2,-3.1925092E-4,-1.2326062E-3,-4.9078255E-5,2.0746724E-3,8.347745E-5,8.060845E-4,1.5592382E-3,3.956477E-4],"categories":[],"categories_nodes":[],"categories_segments":[],"categories_sizes":[],"default_left":[0,0,0,0,0,0,0,0,0,0,0,0,0,0,0],"id":29,"left_children":[1,3,5,7,9,11,13,-1,-1,-1,-1,-1,-1,-1,-1],"loss_changes":[1.9708883E-2,4.6293195E-3,8.6362045E-3,8.157212E-4,3.13682E-3,9.195253E-3,4.2974595E-3,0E0,0E0,0E0,0E0,0E0,0E0,0E0,0E0],"parents":[2147483647,0,0,1,1,2,2,3,3,4,4,5,5,6,6],"right_children":[2,4,6,8,10,12,14,-1,-1,-1,-1,-1,-1,-1,-1],"split_conditions":[8.6368114E-2,2.9571027E-2,2.66664E-2,5.775704E-4,9.432276E-2,1.8024911E-1,7.4587757E-4,-3.1925092E-4,-1.2326062E-3,-4.9078255E-5,2.0746724E-3,8.347745E-5,8.060845E-4,1.5592382E-3,3.956477E-4],"split_indices":[5,5,12,10,0,0,10,0,0,0,0,0,0,0,0],"split_type":[0,0,0,0,0,0,0,0,0,0,0,0,0,0,0],"sum_hessian":[3.398E3,2.163E3,1.235E3,1.075E3,1.088E3,1.103E3,1.32E2,1.066E3,9E0,1.082E3,6E0,8.84E2,2.19E2,7.7E1,5.5E1],"tree_param":{"num_deleted":"0","num_feature":"13","num_nodes":"15","size_leaf_vector":"1"}},{"base_weights":[9.971619E-6,-1.6723295E-3,2.806773E-3,-2.3456037E-3,8.6450105E-4,2.2792348E-3,1.3854873E-2,-2.4243926E-4,1.2534744E-3,1.3866933E-4,-1.2394745E-3,-2.152182E-3,2.5334852E-4,2.28607E-3,6.825446E-4],"categories":[],"categories_nodes":[],"categories_segments":[],"categories_sizes":[],"default_left":[0,0,0,0,0,0,0,0,0,0,0,0,0,0,0],"id":30,"left_children":[1,3,5,7,9,11,13,-1,-1,-1,-1,-1,-1,-1,-1],"loss_changes":[1.5997201E-2,3.6280742E-3,7.411155E-3,1.9976879E-3,3.1052367E-3,7.437266E-3,3.5157027E-3,0E0,0E0,0E0,0E0,0E0,0E0,0E0,0E0],"parents":[2147483647,0,0,1,1,2,2,3,3,4,4,5,5,6,6],"right_children":[2,4,6,8,10,12,14,-1,-1,-1,-1,-1,-1,-1,-1],"split_conditions":[8.6212665E-2,7.4505865E-6,1.965441E-1,9.586068E-2,1.0035717E-1,1.35043E-2,7.0457585E-4,-2.4243926E-4,1.2534744E-3,1.3866933E-4,-1.2394745E-3,-2.152182E-3,2.5334852E-4,2.28607E-3,6.825446E-4],"split_indices":[5,6,12,1,2,4,10,0,0,0,0,0,0,0,0],"split_type":[0,0,0,0,0,0,0,0,0,0,0,0,0,0,0],"sum_hessian":[3.398E3,2.122E3,1.276E3,1.677E3,4.45E2,1.219E3,5.7E1,1.669E3,8E0,4.29E2,1.6E1,1.2E1,1.207E3,2.4E1,3.3E1],"tree_param":{"num_deleted":"0","num_feature":"13","num_nodes":"15","size_leaf_vector":"1"}},{"base_weights":[9.262708E-6,-2.4759618E-3,1.5747353E-3,-2.2160546E-3,-9.140586E-3,-1.772207E-2,1.7701167E-3,-2.3107987E-4,1.2971296E-3,-5.289881E-4,-1.8389499E-3,-2.3030788E-4,-2.9094392E-3,1.4170649E-4,1.1967616E-3],"categories":[],"categories_nodes":[],"categories_segments":[],"categories_sizes":[],"default_left":[0,0,0,0,0,0,0,0,0,0,0,0,0,0,0],"id":31,"left_children":[1,3,5,7,9,11,13,-1,-1,-1,-1,-1,-1,-1,-1],"loss_changes":[1.3227881E-2,2.2558337E-3,7.896089E-3,1.8516355E-3,1.6478486E-3,3.6153365E-3,7.4211494E-3,0E0,0E0,0E0,0E0,0E0,0E0,0E0,0E0],"parents":[2147483647,0,0,1,1,2,2,3,3,4,4,5,5,6,6],"right_children":[2,4,6,8,10,12,14,-1,-1,-1,-1,-1,-1,-1,-1],"split_conditions":[6.641506E-2,8.269928E-2,3.2802507E-2,8.3432265E-4,2.4003439E-6,1.9943855E-4,1.8814732E-1,-2.3107987E-4,1.2971296E-3,-5.289881E-4,-1.8389499E-3,-2.3030788E-4,-2.9094392E-3,1.4170649E-4,1.1967616E-3],"split_indices":[2,1,4,8,6,8,5,0,0,0,0,0,0,0,0],"split_type":[0,0,0,0,0,0,0,0,0,0,0,0,0,0,0],"sum_hessian":[3.398E3,1.313E3,2.085E3,1.265E3,4.8E1,2E1,2.065E3,1.258E3,7E0,3.5E1,1.3E1,9E0,1.1E1,1.997E3,6.8E1],"tree_param":{"num_deleted":"0","num_feature":"13","num_nodes":"15","size_leaf_vector":"1"}},{"base_weights":[7.421571E-6,-1.3809848E-3,2.43825E-3,-1.5556759E-3,7.271931E-3,3.745849E-3,-1.7641447E-3,-2.522948E-4,-6.112509E-5,2.4037438E-3,6.656373E-7,1.6541922E-4,9.797903E-4,-7.675147E-4,9.1086014E-4],"categories":[],"categories_nodes":[],"categories_segments":[],"categories_sizes":[],"default_left":[0,0,0,0,0,0,0,0,0,0,0,0,0,0,0],"id":32,"left_children":[1,3,5,7,9,11,13,-1,-1,-1,-1,-1,-1,-1,-1],"loss_changes":[1.1474916E-2,3.2823873E-3,6.798486E-3,1.9369391E-3,5.237499E-3,1.192106E-2,1.8964943E-2,0E0,0E0,0E0,0E0,0E0,0E0,0E0,0E0],"parents":[2147483647,0,0,1,1,2,2,3,3,4,4,5,5,6,6],"right_children":[2,4,6,8,10,12,14,-1,-1,-1,-1,-1,-1,-1,-1],"split_conditions":[8.6368114E-2,9.074441E-2,1.4228715E-1,5.0125956E-3,8.884214E-2,1.0058266E-1,1.84738E-1,-2.522948E-4,-6.112509E-5,2.4037438E-3,6.656373E-7,1.6541922E-4,9.797903E-4,-7.675147E-4,9.1086014E-4],"split_indices":[5,1,4,0,3,5,5,0,0,0,0,0,0,0,0],"split_type":[0,0,0,0,0,0,0,0,0,0,0,0,0,0,0],"sum_hessian":[3.398E3,2.163E3,1.235E3,2.121E3,4.2E1,9.42E2,2.93E2,1.047E3,1.074E3,1.2E1,3E1,7.01E2,2.41E2,1.9E2,1.03E2],"tree_param":{"num_deleted":"0","num_feature":"13","num_nodes":"15","size_leaf_vector":"1"}},{"base_weights":[7.673382E-6,-1.3299157E-3,2.0589035E-3,-1.4097971E-3,3.1751346E-2,-2.123652E-2,2.338231E-3,-1.4667171E-4,2.2209368E-3,4.2442456E-4,4.8674666E-3,-3.3404861E-4,-3.1640094E-3,3.6736435E-4,-1.6912076E-4],"categories":[],"categories_nodes":[],"categories_segments":[],"categories_sizes":[],"default_left":[0,0,0,0,0,0,0,0,0,0,0,0,0,0,0],"id":33,"left_children":[1,3,5,7,9,11,13,-1,-1,-1,-1,-1,-1,-1,-1],"loss_changes":[9.328584E-3,5.4831877E-3,8.782126E-3,2.7939784E-3,2.1209698E-3,2.8732298E-3,7.146749E-3,0E0,0E0,0E0,0E0,0E0,0E0,0E0,0E0],"parents":[2147483647,0,0,1,1,2,2,3,3,4,4,5,5,6,6],"right_children":[2,4,6,8,10,12,14,-1,-1,-1,-1,-1,-1,-1,-1],"split_conditions":[8.4864795E-2,9.586068E-2,1.35043E-2,1.2194347E-3,4.9511794E-2,5.66338E-4,1.3284752E-1,-1.4667171E-4,2.2209368E-3,4.2442456E-4,4.8674666E-3,-3.3404861E-4,-3.1640094E-3,3.6736435E-4,-1.6912076E-4],"split_indices":[7,1,4,6,0,4,4,0,0,0,0,0,0,0,0],"split_type":[0,0,0,0,0,0,0,0,0,0,0,0,0,0,0],"sum_hessian":[3.398E3,2.057E3,1.341E3,2.053E3,4E0,1.5E1,1.326E3,2.049E3,4E0,2E0,2E0,6E0,9E0,9.96E2,3.3E2],"tree_param":{"num_deleted":"0","num_feature":"13","num_nodes":"15","size_leaf_vector":"1"}},{"base_weights":[8.102923E-6,-9.0623816E-4,2.6876943E-3,-9.819547E-4,2.6578542E-2,-2.9952908E-3,4.281007E-3,-2.1175717E-4,-1.65063E-5,5.726429E-3,-1.0751841E-3,1.4288655E-4,-1.3088697E-3,3.240676E-4,8.7096076E-4],"categories":[],"categories_nodes":[],"categories_segments":[],"categories_sizes":[],"default_left":[0,0,0,0,0,0,0,0,0,0,0,0,0,0,0],"id":34,"left_children":[1,3,5,7,9,11,13,-1,-1,-1,-1,-1,-1,-1,-1],"loss_changes":[8.330191E-3,5.301569E-3,7.845202E-3,2.3457434E-3,8.634271E-3,8.503115E-3,3.0862503E-3,0E0,0E0,0E0,0E0,0E0,0E0,0E0,0E0],"parents":[2147483647,0,0,1,1,2,2,3,3,4,4,5,5,6,6],"right_children":[2,4,6,8,10,12,14,-1,-1,-1,-1,-1,-1,-1,-1],"split_conditions":[8.814354E-2,9.586068E-2,-3.2157736E-4,1.2881029E-2,1.0035717E-1,1.84738E-1,2.306784E-2,-2.1175717E-4,-1.65063E-5,5.726429E-3,-1.0751841E-3,1.4288655E-4,-1.3088697E-3,3.240676E-4,8.7096076E-4],"split_indices":[5,0,11,1,0,3,12,0,0,0,0,0,0,0,0],"split_type":[0,0,0,0,0,0,0,0,0,0,0,0,0,0,0],"sum_hessian":[3.398E3,2.534E3,8.64E2,2.528E3,6E0,1.89E2,6.75E2,1.057E3,1.471E3,3E0,3E0,1.32E2,5.7E1,5.48E2,1.27E2],"tree_param":{"num_deleted":"0","num_feature":"13","num_nodes":"15","size_leaf_vector":"1"}},{"base_weights":[8.600791E-6,-3.9351318E-4,5.8209365E-3,-9.253602E-5,-1.37641765E-2,2.0724662E-2,4.629324E-3,-5.5185013E-5,6.190971E-4,-1.786108E-3,9.83385E-4,2.7510931E-3,-1.7852811E-3,8.3726546E-4,-1.834653E-4],"categories":[],"categories_nodes":[],"categories_segments":[],"categories_sizes":[],"default_left":[0,0,0,0,0,0,0,0,0,0,0,0,0,0,0],"id":35,"left_children":[1,3,5,7,9,11,13,-1,-1,-1,-1,-1,-1,-1,-1],"loss_changes":[7.946506E-3,1.2795888E-2,3.8111415E-3,8.982085E-3,6.943159E-3,4.6799E-3,4.9757045E-3,0E0,0E0,0E0,0E0,0E0,0E0,0E0,0E0],"parents":[2147483647,0,0,1,1,2,2,3,3,4,4,5,5,6,6],"right_children":[2,4,6,8,10,12,14,-1,-1,-1,-1,-1,-1,-1,-1],"split_conditions":[1.8024911E-1,1.8416458E-1,1.6987883E-1,1.0058266E-1,2.5952335E-2,1.8845628E-1,6.344521E-9,-5.5185013E-5,6.190971E-4,-1.786108E-3,9.83385E-4,2.7510931E-3,-1.7852811E-3,8.3726546E-4,-1.834653E-4],"split_indices":[0,3,5,5,11,2,6,0,0,0,0,0,0,0,0],"split_type":[0,0,0,0,0,0,0,0,0,0,0,0,0,0,0],"sum_hessian":[3.398E3,3.179E3,2.19E2,3.11E3,6.9E1,1.5E1,2.04E2,2.899E3,2.11E2,5.9E1,1E1,1.3E1,2E0,1.29E2,7.5E1],"tree_param":{"num_deleted":"0","num_feature":"13","num_nodes":"15","size_leaf_vector":"1"}},{"base_weights":[8.147565E-6,-3.542362E-4,5.246203E-3,-8.310038E-5,-1.2399226E-2,1.8712556E-2,4.1695796E-3,-4.9668324E-5,5.5747933E-4,-1.610474E-3,8.9398614E-4,2.4956341E-3,-1.6662626E-3,-5.3811126E-4,6.2358874E-4],"categories":[],"categories_nodes":[],"categories_segments":[],"categories_sizes":[],"default_left":[0,0,0,0,0,0,0,0,0,0,0,0,0,0,0],"id":36,"left_children":[1,3,5,7,9,11,13,-1,-1,-1,-1,-1,-1,-1,-1],"loss_changes":[6.453793E-3,1.03843035E-2,3.111579E-3,7.2825328E-3,5.679032E-3,3.949838E-3,4.079163E-3,0E0,0E0,0E0,0E0,0E0,0E0,0E0,0E0],"parents":[2147483647,0,0,1,1,2,2,3,3,4,4,5,5,6,6],"right_children":[2,4,6,8,10,12,14,-1,-1,-1,-1,-1,-1,-1,-1],"split_conditions":[1.8024911E-1,1.8416458E-1,1.6987883E-1,1.0058266E-1,2.5952335E-2,1.8845628E-1,-2.292075E-3,-4.9668324E-5,5.5747933E-4,-1.610474E-3,8.9398614E-4,2.4956341E-3,-1.6662626E-3,-5.3811126E-4,6.2358874E-4],"split_indices":[0,3,5,5,11,2,12,0,0,0,0,0,0,0,0],"split_type":[0,0,0,0,0,0,0,0,0,0,0,0,0,0,0],"sum_hessian":[3.398E3,3.179E3,2.19E2,3.11E3,6.9E1,1.5E1,2.04E2,2.899E3,2.11E2,5.9E1,1E1,1.3E1,2E0,3.6E1,1.68E2],"tree_param":{"num_deleted":"0","num_feature":"13","num_nodes":"15","size_leaf_vector":"1"}},{"base_weights":[7.539242E-6,-1.6255298E-3,1.0362281E-3,-1.3629064E-3,-8.377686E-3,-1.5682872E-2,1.2056691E-3,-1.4380917E-4,1.2365123E-3,-4.7423682E-4,-1.712724E-3,-9.4272586E-4,-3.9912416E-3,1.0006863E-4,1.1060063E-3],"categories":[],"categories_nodes":[],"categories_segments":[],"categories_sizes":[],"default_left":[0,0,0,0,0,0,0,0,0,0,0,0,0,0,0],"id":37,"left_children":[1,3,5,7,9,11,13,-1,-1,-1,-1,-1,-1,-1,-1],"loss_changes":[5.711733E-3,2.318664E-3,5.9283366E-3,1.3244769E-3,1.4773395E-3,2.8067185E-3,4.1622138E-3,0E0,0E0,0E0,0E0,0E0,0E0,0E0,0E0],"parents":[2147483647,0,0,1,1,2,2,3,3,4,4,5,5,6,6],"right_children":[2,4,6,8,10,12,14,-1,-1,-1,-1,-1,-1,-1,-1],"split_conditions":[6.641506E-2,8.269928E-2,3.2802507E-2,4.1915152E-2,2.4003439E-6,1.4811592E-1,1.8859777E-1,-1.4380917E-4,1.2365123E-3,-4.7423682E-4,-1.712724E-3,-9.4272586E-4,-3.9912416E-3,1.0006863E-4,1.1060063E-3],"split_indices":[2,1,4,11,6,1,7,0,0,0,0,0,0,0,0],"split_type":[0,0,0,0,0,0,0,0,0,0,0,0,0,0,0],"sum_hessian":[3.398E3,1.313E3,2.085E3,1.265E3,4.8E1,2E1,2.065E3,1.259E3,6E0,3.5E1,1.3E1,1.7E1,3E0,2.024E3,4.1E1],"tree_param":{"num_deleted":"0","num_feature":"13","num_nodes":"15","size_leaf_vector":"1"}},{"base_weights":[5.3674007E-6,1.14633105E-4,-1.3153537E-2,-6.270863E-4,2.4312327E-3,-1.7376278E-2,5.2258894E-3,-7.00341E-5,2.6137652E-3,5.056516E-4,-1.4075624E-4,-1.002841E-3,-3.6523833E-3,1.4725601E-3,-2.1136336E-3],"categories":[],"categories_nodes":[],"categories_segments":[],"categories_sizes":[],"default_left":[0,0,0,0,0,0,0,0,0,0,0,0,0,0,0],"id":38,"left_children":[1,3,5,7,9,11,13,-1,-1,-1,-1,-1,-1,-1,-1],"loss_changes":[4.8886477E-3,5.7955207E-3,2.2639302E-3,5.0277435E-3,8.250858E-3,2.8696805E-3,1.8138466E-3,0E0,0E0,0E0,0E0,0E0,0E0,0E0,0E0],"parents":[2147483647,0,0,1,1,2,2,3,3,4,4,5,5,6,6],"right_children":[2,4,6,8,10,12,14,-1,-1,-1,-1,-1,-1,-1,-1],"split_conditions":[2.423011E-3,8.803158E-2,1.6300626E-1,9.586068E-2,1.2101675E-1,1.4811592E-1,1.8730146E-1,-7.00341E-5,2.6137652E-3,5.056516E-4,-1.4075624E-4,-1.002841E-3,-3.6523833E-3,1.4725601E-3,-2.1136336E-3],"split_indices":[10,7,7,1,4,1,1,0,0,0,0,0,0,0,0],"split_type":[0,0,0,0,0,0,0,0,0,0,0,0,0,0,0],"sum_hessian":[3.398E3,3.371E3,2.7E1,2.554E3,8.17E2,2.2E1,5E0,2.548E3,6E0,4.85E2,3.32E2,1.7E1,5E0,4E0,1E0],"tree_param":{"num_deleted":"0","num_feature":"13","num_nodes":"15","size_leaf_vector":"1"}},{"base_weights":[4.1288286E-6,-2.895783E-4,4.6296343E-3,-1.1520519E-4,-1.8693728E-2,-6.1096153E-3,5.9023476E-3,-4.9655473E-6,-2.081084E-3,-3.142463E-3,-1.2635916E-3,4.0423853E-4,-2.8441388E-3,4.9618253E-4,1.6042714E-3],"categories":[],"categories_nodes":[],"categories_segments":[],"categories_sizes":[],"default_left":[0,0,0,0,0,0,0,0,0,0,0,0,0,0,0],"id":39,"left_children":[1,3,5,7,9,11,13,-1,-1,-1,-1,-1,-1,-1,-1],"loss_changes":[4.6190317E-3,1.0257623E-2,2.8106626E-3,4.2966534E-3,1.9165641E-3,5.102638E-3,1.656177E-3,0E0,0E0,0E0,0E0,0E0,0E0,0E0,0E0],"parents":[2147483647,0,0,1,1,2,2,3,3,4,4,5,5,6,6],"right_children":[2,4,6,8,10,12,14,-1,-1,-1,-1,-1,-1,-1,-1],"split_conditions":[1.8337E-1,1.8845628E-1,1.5381306E-1,1.8845628E-1,1.8607295E-1,1.6811684E-7,5.321602E-4,-4.9655473E-6,-2.081084E-3,-3.142463E-3,-1.2635916E-3,4.0423853E-4,-2.8441388E-3,4.9618253E-4,1.6042714E-3],"split_indices":[0,3,2,2,4,6,6,0,0,0,0,0,0,0,0],"split_type":[0,0,0,0,0,0,0,0,0,0,0,0,0,0,0],"sum_hessian":[3.398E3,3.196E3,2.02E2,3.167E3,2.9E1,2.1E1,1.81E2,3.158E3,9E0,8E0,2.1E1,1.5E1,6E0,1.67E2,1.4E1],"tree_param":{"num_deleted":"0","num_feature":"13","num_nodes":"15","size_leaf_vector":"1"}},{"base_weights":[1.7041831E-6,-1.268751E-3,1.0058914E-3,-1.3784192E-3,7.843267E-3,1.1742674E-3,-1.3413019E-2,-9.9477824E-5,-4.152158E-4,1.5383137E-3,-9.800327E-4,9.480506E-5,1.0367766E-3,-2.8340216E-4,-2.5824413E-3],"categories":[],"categories_nodes":[],"categories_segments":[],"categories_sizes":[],"default_left":[0,0,0,0,0,0,0,0,0,0,0,0,0,0,0],"id":40,"left_children":[1,3,5,7,9,11,13,-1,-1,-1,-1,-1,-1,-1,-1],"loss_changes":[4.3376354E-3,1.5107582E-3,4.6261395E-3,1.5750229E-3,2.545307E-3,3.8958923E-3,2.8154152E-3,0E0,0E0,0E0,0E0,0E0,0E0,0E0,0E0],"parents":[2147483647,0,0,1,1,2,2,3,3,4,4,5,5,6,6],"right_children":[2,4,6,8,10,12,14,-1,-1,-1,-1,-1,-1,-1,-1],"split_conditions":[7.747623E-2,9.074441E-2,2.423011E-3,8.453673E-2,1.144517E-1,2.3967335E-1,7.182481E-2,-9.9477824E-5,-4.152158E-4,1.5383137E-3,-9.800327E-4,9.480506E-5,1.0367766E-3,-2.8340216E-4,-2.5824413E-3],"split_indices":[5,1,10,3,2,12,3,0,0,0,0,0,0,0,0],"split_type":[0,0,0,0,0,0,0,0,0,0,0,0,0,0,0],"sum_hessian":[3.398E3,1.5E3,1.898E3,1.483E3,1.7E1,1.877E3,2.1E1,1.304E3,1.79E2,1.2E1,5E0,1.833E3,4.4E1,1.2E1,9E0],"tree_param":{"num_deleted":"0","num_feature":"13","num_nodes":"15","size_leaf_vector":"1"}},{"base_weights":[1.0352469E-6,-1.5427837E-4,7.4988413E-3,-1.4838524E-5,-1.2567792E-2,3.2667806E-3,1.1070711E-2,-4.0751765E-5,2.8942304E-4,-1.7062871E-3,5.8597274E-4,6.093623E-4,-4.9485354E-4,1.9626213E-4,1.2770257E-3],"categories":[],"categories_nodes":[],"categories_segments":[],"categories_sizes":[],"default_left":[0,0,0,0,0,0,0,0,0,0,0,0,0,0,0],"id":41,"left_children":[1,3,5,7,9,11,13,-1,-1,-1,-1,-1,-1,-1,-1],"loss_changes":[3.9593307E-3,5.7655694E-3,1.0068642E-3,3.7651593E-3,3.1648097E-3,7.965268E-4,5.4768194E-4,0E0,0E0,0E0,0E0,0E0,0E0,0E0,0E0],"parents":[2147483647,0,0,1,1,2,2,3,3,4,4,5,5,6,6],"right_children":[2,4,6,8,10,12,14,-1,-1,-1,-1,-1,-1,-1,-1],"split_conditions":[1.8814732E-1,1.8845628E-1,1.8770005E-1,1.0058266E-1,1.8337E-1,1.8607295E-1,1.4228715E-1,-4.0751765E-5,2.8942304E-4,-1.7062871E-3,5.8597274E-4,6.093623E-4,-4.9485354E-4,1.9626213E-4,1.2770257E-3],"split_indices":[5,3,3,5,0,3,4,0,0,0,0,0,0,0,0],"split_type":[0,0,0,0,0,0,0,0,0,0,0,0,0,0,0],"sum_hessian":[3.398E3,3.33E3,6.8E1,3.294E3,3.6E1,3.2E1,3.6E1,2.903E3,3.91E2,2.9E1,7E0,2.4E1,8E0,6E0,3E1],"tree_param":{"num_deleted":"0","num_feature":"13","num_nodes":"15","size_leaf_vector":"1"}},{"base_weights":[1.1435311E-6,9.41057E-5,-1.1194198E-2,-3.431152E-4,2.7419308E-3,-1.4891149E-2,4.8431433E-3,-3.879792E-5,1.8221906E-3,1.5696854E-3,7.374563E-5,-8.5358537E-4,-3.1475176E-3,1.348421E-3,-1.9181095E-3],"categories":[],"categories_nodes":[],"categories_segments":[],"categories_sizes":[],"default_left":[0,0,0,0,0,0,0,0,0,0,0,0,0,0,0],"id":42,"left_children":[1,3,5,7,9,11,13,-1,-1,-1,-1,-1,-1,-1,-1],"loss_changes":[3.5385396E-3,3.9046532E-3,1.7322188E-3,2.4183171E-3,1.2401039E-2,2.1554492E-3,1.5042122E-3,0E0,0E0,0E0,0E0,0E0,0E0,0E0,0E0],"parents":[2147483647,0,0,1,1,2,2,3,3,4,4,5,5,6,6],"right_children":[2,4,6,8,10,12,14,-1,-1,-1,-1,-1,-1,-1,-1],"split_conditions":[2.423011E-3,1.0058266E-1,1.6300626E-1,1.2194347E-3,9.2098795E-2,1.4811592E-1,1.8730146E-1,-3.879792E-5,1.8221906E-3,1.5696854E-3,7.374563E-5,-8.5358537E-4,-3.1475176E-3,1.348421E-3,-1.9181095E-3],"split_indices":[10,5,7,6,3,1,1,0,0,0,0,0,0,0,0],"split_type":[0,0,0,0,0,0,0,0,0,0,0,0,0,0,0],"sum_hessian":[3.398E3,3.371E3,2.7E1,2.894E3,4.77E2,2.2E1,5E0,2.888E3,6E0,6.3E1,4.14E2,1.7E1,5E0,4E0,1E0],"tree_param":{"num_deleted":"0","num_feature":"13","num_nodes":"15","size_leaf_vector":"1"}},{"base_weights":[6.911573E-7,-1.3990991E-3,6.837395E-4,-1.1644935E-3,-1.976598E-2,1.1735373E-3,-2.0458924E-3,-1.2556404E-4,1.00443E-3,-8.5127197E-4,-3.831931E-3,3.5151534E-5,7.306656E-4,-5.289306E-4,5.614515E-4],"categories":[],"categories_nodes":[],"categories_segments":[],"categories_sizes":[],"default_left":[0,0,0,0,0,0,0,0,0,0,0,0,0,0,0],"id":43,"left_children":[1,3,5,7,9,11,13,-1,-1,-1,-1,-1,-1,-1,-1],"loss_changes":[3.2508236E-3,4.7814893E-3,3.0573723E-3,1.1384662E-3,2.5967946E-3,9.767972E-3,8.67606E-3,0E0,0E0,0E0,0E0,0E0,0E0,0E0,0E0],"parents":[2147483647,0,0,1,1,2,2,3,3,4,4,5,5,6,6],"right_children":[2,4,6,8,10,12,14,-1,-1,-1,-1,-1,-1,-1,-1],"split_conditions":[4.510013E-2,1.0215092E-1,1.4228715E-1,2.0470938E-2,4.446919E-4,1.0058266E-1,1.84738E-1,-1.2556404E-4,1.00443E-3,-8.5127197E-4,-3.831931E-3,3.5151534E-5,7.306656E-4,-5.289306E-4,5.614515E-4],"split_indices":[4,1,4,11,6,5,5,0,0,0,0,0,0,0,0],"split_type":[0,0,0,0,0,0,0,0,0,0,0,0,0,0,0],"sum_hessian":[3.398E3,1.114E3,2.284E3,1.101E3,1.3E1,1.937E3,3.47E2,1.093E3,8E0,9E0,4E0,1.709E3,2.28E2,2.44E2,1.03E2],"tree_param":{"num_deleted":"0","num_feature":"13","num_nodes":"15","size_leaf_vector":"1"}},{"base_weights":[-2.6212723E-7,8.2390725E-5,-9.954018E-3,-9.5755624E-4,9.1020664E-4,8.157282E-3,-1.2453665E-2,3.4161413E-4,-1.16836745E-4,1.5433176E-4,-1.9074812E-4,1.15341325E-4,1.4584445E-3,-4.678289E-4,-1.8228727E-3],"categories":[],"categories_nodes":[],"categories_segments":[],"categories_sizes":[],"default_left":[0,0,0,0,0,0,0,0,0,0,0,0,0,0,0],"id":44,"left_children":[1,3,5,7,9,11,13,-1,-1,-1,-1,-1,-1,-1,-1],"loss_changes":[2.797199E-3,2.9037748E-3,1.3692002E-3,1.3824177E-3,3.3531245E-3,1.6323812E-4,1.0373029E-3,0E0,0E0,0E0,0E0,0E0,0E0,0E0,0E0],"parents":[2147483647,0,0,1,1,2,2,3,3,4,4,5,5,6,6],"right_children":[2,4,6,8,10,12,14,-1,-1,-1,-1,-1,-1,-1,-1],"split_conditions":[2.423011E-3,7.747623E-2,-4.8507583E-1,2.1196466E-11,1.3284752E-1,1.0215092E-1,6.0376376E-2,3.4161413E-4,-1.16836745E-4,1.5433176E-4,-1.9074812E-4,1.15341325E-4,1.4584445E-3,-4.678289E-4,-1.8228727E-3],"split_indices":[10,5,12,10,4,0,3,0,0,0,0,0,0,0,0],"split_type":[0,0,0,0,0,0,0,0,0,0,0,0,0,0,0],"sum_hessian":[3.398E3,3.371E3,2.7E1,1.494E3,1.877E3,3E0,2.4E1,6.8E1,1.426E3,1.533E3,3.44E2,2E0,1E0,1.1E1,1.3E1],"tree_param":{"num_deleted":"0","num_feature":"13","num_nodes":"15","size_leaf_vector":"1"}},{"base_weights":[-3.9075502E-7,-1.17730786E-4,7.0064925E-3,7.650087E-5,-6.230171E-3,2.9378966E-3,9.36371E-3,-2.9174591E-5,3.1999146E-4,-1.0129488E-3,5.1208504E-4,7.188992E-4,-5.4001436E-4,1.12050984E-4,1.1030561E-3],"categories":[],"categories_nodes":[],"categories_segments":[],"categories_sizes":[],"default_left":[0,0,0,0,0,0,0,0,0,0,0,0,0,0,0],"id":45,"left_children":[1,3,5,7,9,11,13,-1,-1,-1,-1,-1,-1,-1,-1],"loss_changes":[2.7954415E-3,3.970572E-3,5.0956197E-4,3.72984E-3,4.610778E-3,8.1862917E-4,4.68547E-4,0E0,0E0,0E0,0E0,0E0,0E0,0E0,0E0],"parents":[2147483647,0,0,1,1,2,2,3,3,4,4,5,5,6,6],"right_children":[2,4,6,8,10,12,14,-1,-1,-1,-1,-1,-1,-1,-1],"split_conditions":[1.8860915E-1,1.862243E-1,1.8770005E-1,1.0058266E-1,7.6215336E-4,1.8337E-1,1.4228715E-1,-2.9174591E-5,3.1999146E-4,-1.0129488E-3,5.1208504E-4,7.188992E-4,-5.4001436E-4,1.12050984E-4,1.1030561E-3],"split_indices":[5,3,3,5,8,3,4,0,0,0,0,0,0,0,0],"split_type":[0,0,0,0,0,0,0,0,0,0,0,0,0,0,0],"sum_hessian":[3.398E3,3.343E3,5.5E1,3.241E3,1.02E2,2.1E1,3.4E1,2.9E3,3.41E2,7.6E1,2.6E1,1.4E1,7E0,6E0,2.8E1],"tree_param":{"num_deleted":"0","num_feature":"13","num_nodes":"15","size_leaf_vector":"1"}},{"base_weights":[-2.1722126E-9,-6.0311097E-5,1.2755335E-2,1.6099264E-5,-9.219213E-3,2.1753829E-2,5.1808567E-3,-1.3827438E-5,4.7063106E-4,7.6695887E-4,-1.1552654E-3,2.8558553E-3,3.161346E-4,-9.317696E-4,1.2725622E-3],"categories":[],"categories_nodes":[],"categories_segments":[],"categories_sizes":[],"default_left":[0,0,0,0,0,0,0,0,0,0,0,0,0,0,0],"id":46,"left_children":[1,3,5,7,9,11,13,-1,-1,-1,-1,-1,-1,-1,-1],"loss_changes":[2.6154863E-3,2.36839E-3,9.778389E-4,2.43127E-3,1.1920561E-3,7.953339E-4,1.2124552E-3,0E0,0E0,0E0,0E0,0E0,0E0,0E0,0E0],"parents":[2147483647,0,0,1,1,2,2,3,3,4,4,5,5,6,6],"right_children":[2,4,6,8,10,12,14,-1,-1,-1,-1,-1,-1,-1,-1],"split_conditions":[4.822854E-2,2.423011E-3,8.408606E-2,1.8663764E-1,-4.8507583E-1,1.2145349E-3,1.0035717E-1,-1.3827438E-5,4.7063106E-4,7.6695887E-4,-1.1552654E-3,2.8558553E-3,3.161346E-4,-9.317696E-4,1.2725622E-3],"split_indices":[11,10,3,5,12,10,2,0,0,0,0,0,0,0,0],"split_type":[0,0,0,0,0,0,0,0,0,0,0,0,0,0,0],"sum_hessian":[3.398E3,3.383E3,1.5E1,3.356E3,2.7E1,6E0,9E0,3.25E3,1.06E2,3E0,2.4E1,4E0,2E0,3E0,6E0],"tree_param":{"num_deleted":"0","num_feature":"13","num_nodes":"15","size_leaf_vector":"1"}},{"base_weights":[1.0520189E-6,-3.023431E-4,2.2765128E-3,-5.5627845E-4,3.03977E-3,1.8725847E-3,1.4157097E-2,-3.319888E-5,-1.4541348E-3,1.4178505E-3,1.8697469E-4,2.7733264E-4,-4.000926E-4,2.1938689E-3,1.4221246E-4],"categories":[],"categories_nodes":[],"categories_segments":[],"categories_sizes":[],"default_left":[0,0,0,0,0,0,0,0,0,0,0,0,0,0,0],"id":47,"left_children":[1,3,5,7,9,11,13,-1,-1,-1,-1,-1,-1,-1,-1],"loss_changes":[2.3472344E-3,2.547733E-3,1.8930507E-3,8.743444E-3,2.7363962E-3,2.063816E-3,1.2570792E-3,0E0,0E0,0E0,0E0,0E0,0E0,0E0,0E0],"parents":[2147483647,0,0,1,1,2,2,3,3,4,4,5,5,6,6],"right_children":[2,4,6,8,10,12,14,-1,-1,-1,-1,-1,-1,-1,-1],"split_conditions":[1.7388238E-3,1.8024911E-1,1.2194347E-3,1.710709E-1,-1.8821923E-1,5.0714356E-4,1.5057279E-3,-3.319888E-5,-1.4541348E-3,1.4178505E-3,1.8697469E-4,2.7733264E-4,-4.000926E-4,2.1938689E-3,1.4221246E-4],"split_indices":[11,0,6,2,12,8,8,0,0,0,0,0,0,0,0],"split_type":[0,0,0,0,0,0,0,0,0,0,0,0,0,0,0],"sum_hessian":[3.398E3,2.999E3,3.99E2,2.788E3,2.11E2,3.87E2,1.2E1,2.745E3,4.3E1,1.9E1,1.92E2,3.36E2,5.1E1,7E0,5E0],"tree_param":{"num_deleted":"0","num_feature":"13","num_nodes":"15","size_leaf_vector":"1"}},{"base_weights":[1.632869E-6,-7.9725153E-4,7.5132615E-4,-8.7522995E-4,1.5278235E-2,1.2213067E-3,-2.8058502E-3,-8.8694534E-4,-7.609799E-5,2.503007E-3,4.421121E-4,8.394543E-5,1.1990998E-3,-1.7517591E-3,-1.8813825E-4],"categories":[],"categories_nodes":[],"categories_segments":[],"categories_sizes":[],"default_left":[0,0,0,0,0,0,0,0,0,0,0,0,0,0,0],"id":48,"left_children":[1,3,5,7,9,11,13,-1,-1,-1,-1,-1,-1,-1,-1],"loss_changes":[2.0363221E-3,2.0767006E-3,2.9357707E-3,1.4902157E-3,7.3635334E-4,6.364205E-3,2.7551511E-3,0E0,0E0,0E0,0E0,0E0,0E0,0E0,0E0],"parents":[2147483647,0,0,1,1,2,2,3,3,4,4,5,5,6,6],"right_children":[2,4,6,8,10,12,14,-1,-1,-1,-1,-1,-1,-1,-1],"split_conditions":[8.3347894E-2,1.2194347E-3,7.4587757E-4,-1.7995074E-2,1.5057279E-3,4.4582975E-3,8.0208795E-4,-8.8694534E-4,-7.609799E-5,2.503007E-3,4.421121E-4,8.394543E-5,1.1990998E-3,-1.7517591E-3,-1.8813825E-4],"split_indices":[0,6,10,11,8,11,10,0,0,0,0,0,0,0,0],"split_type":[0,0,0,0,0,0,0,0,0,0,0,0,0,0,0],"sum_hessian":[3.398E3,1.645E3,1.753E3,1.638E3,7E0,1.549E3,2.04E2,2.2E1,1.616E3,3E0,4E0,1.497E3,5.2E1,1.1E1,1.93E2],"tree_param":{"num_deleted":"0","num_feature":"13","num_nodes":"15","size_leaf_vector":"1"}},{"base_weights":[1.8602832E-6,6.867553E-5,-8.044671E-3,-4.1722527E-4,1.267127E-3,-5.5353628E-3,-2.7110453E-3,-4.858374E-5,1.3277073E-3,2.6721667E-4,-1.8042247E-4,-1.1620861E-3,7.250675E-4],"categories":[],"categories_nodes":[],"categories_segments":[],"categories_sizes":[],"default_left":[0,0,0,0,0,0,0,0,0,0,0,0,0],"id":49,"left_children":[1,3,5,7,9,11,-1,-1,-1,-1,-1,-1,-1],"loss_changes":[1.8279603E-3,1.9641405E-3,1.1895078E-3,2.2614782E-3,4.203677E-3,2.1073038E-3,0E0,0E0,0E0,0E0,0E0,0E0,0E0],"parents":[2147483647,0,0,1,1,2,2,3,3,4,4,5,5],"right_children":[2,4,6,8,10,12,-1,-1,-1,-1,-1,-1,-1],"split_conditions":[2.423011E-3,8.7626964E-2,1.8730146E-1,9.0570584E-2,1.3284752E-1,1.3400748E-1,-2.7110453E-3,-4.858374E-5,1.3277073E-3,2.6721667E-4,-1.8042247E-4,-1.1620861E-3,7.250675E-4],"split_indices":[10,0,1,5,4,5,0,0,0,0,0,0,0],"split_type":[0,0,0,0,0,0,0,0,0,0,0,0,0],"sum_hessian":[3.398E3,3.371E3,2.7E1,2.399E3,9.72E2,2.5E1,2E0,2.388E3,1.1E1,6.67E2,3.05E2,1.7E1,8E0],"tree_param":{"num_deleted":"0","num_feature":"13","num_nodes":"13","size_leaf_vector":"1"}},{"base_weights":[1.1504875E-6,-8.160542E-5,6.617655E-3,1.4148796E-5,-1.0034502E-2,8.594251E-3,-2.8571598E-3,-4.2636453E-5,1.7881586E-4,-1.4727982E-3,5.8869366E-4,-3.9193482E-4,9.077573E-4,5.318929E-4,-8.8265986E-4],"categories":[],"categories_nodes":[],"categories_segments":[],"categories_sizes":[],"default_left":[0,0,0,0,0,0,0,0,0,0,0,0,0,0,0],"id":50,"left_children":[1,3,5,7,9,11,13,-1,-1,-1,-1,-1,-1,-1,-1],"loss_changes":[1.861679E-3,3.2004227E-3,8.111261E-4,2.6007292E-3,2.4779653E-3,2.472615E-4,4.374013E-4,0E0,0E0,0E0,0E0,0E0,0E0,0E0,0E0],"parents":[2147483647,0,0,1,1,2,2,3,3,4,4,5,5,6,6],"right_children":[2,4,6,8,10,12,14,-1,-1,-1,-1,-1,-1,-1,-1],"split_conditions":[1.8859777E-1,1.8845628E-1,3.2084863E-4,7.4505865E-6,1.8663764E-1,1.6096416E-1,1.8965954E-1,-4.2636453E-5,1.7881586E-4,-1.4727982E-3,5.8869366E-4,-3.9193482E-4,9.077573E-4,5.318929E-4,-8.8265986E-4],"split_indices":[7,2,11,6,5,3,7,0,0,0,0,0,0,0,0],"split_type":[0,0,0,0,0,0,0,0,0,0,0,0,0,0,0],"sum_hessian":[3.398E3,3.357E3,4.1E1,3.326E3,3.1E1,3.4E1,7E0,2.665E3,6.61E2,2.4E1,7E0,1E0,3.3E1,3E0,4E0],"tree_param":{"num_deleted":"0","num_feature":"13","num_nodes":"15","size_leaf_vector":"1"}},{"base_weights":[8.652093E-7,1.6440485E-4,-2.9419395E-3,4.2395935E-5,8.584751E-3,-1.0752602E-2,-1.6041528E-3,-2.912659E-5,1.9883066E-4,5.458957E-4,2.0828685E-3,-1.8642846E-3,6.2560815E-7,8.424558E-4,-4.4088802E-4],"categories":[],"categories_nodes":[],"categories_segments":[],"categories_sizes":[],"default_left":[0,0,0,0,0,0,0,0,0,0,0,0,0,0,0],"id":51,"left_children":[1,3,5,7,9,11,13,-1,-1,-1,-1,-1,-1,-1,-1],"loss_changes":[1.6363041E-3,3.3087535E-3,1.853122E-3,2.0626802E-3,1.6468095E-3,2.2072573E-3,4.368825E-3,0E0,0E0,0E0,0E0,0E0,0E0,0E0,0E0],"parents":[2147483647,0,0,1,1,2,2,3,3,4,4,5,5,6,6],"right_children":[2,4,6,8,10,12,14,-1,-1,-1,-1,-1,-1,-1,-1],"split_conditions":[9.864273E-4,6.707087E-4,4.0534932E-2,9.074441E-2,1.8607295E-1,1.3090777E-3,8.40168E-2,-2.912659E-5,1.9883066E-4,5.458957E-4,2.0828685E-3,-1.8642846E-3,6.2560815E-7,8.424558E-4,-4.4088802E-4],"split_indices":[10,8,4,0,2,8,4,0,0,0,0,0,0,0,0],"split_type":[0,0,0,0,0,0,0,0,0,0,0,0,0,0,0],"sum_hessian":[3.398E3,3.22E3,1.78E2,3.175E3,4.5E1,2.5E1,1.53E2,2.711E3,4.64E2,3.7E1,8E0,1.4E1,1.1E1,3.3E1,1.2E2],"tree_param":{"num_deleted":"0","num_feature":"13","num_nodes":"15","size_leaf_vector":"1"}},{"base_weights":[1.1710428E-6,-8.2966355E-5,5.0253547E-3,8.643046E-5,-5.414049E-3,1.6974827E-3,6.973578E-3,-3.4222638E-5,1.8747555E-4,-8.9776854E-4,4.949434E-4,5.582866E-4,-5.799797E-4,7.641741E-6,8.3979423E-4],"categories":[],"categories_nodes":[],"categories_segments":[],"categories_sizes":[],"default_left":[0,0,0,0,0,0,0,0,0,0,0,0,0,0,0],"id":52,"left_children":[1,3,5,7,9,11,13,-1,-1,-1,-1,-1,-1,-1,-1],"loss_changes":[1.4372481E-3,3.0203287E-3,3.5123504E-4,2.4858864E-3,3.8483974E-3,6.7323516E-4,3.4320063E-4,0E0,0E0,0E0,0E0,0E0,0E0,0E0,0E0],"parents":[2147483647,0,0,1,1,2,2,3,3,4,4,5,5,6,6],"right_children":[2,4,6,8,10,12,14,-1,-1,-1,-1,-1,-1,-1,-1],"split_conditions":[1.8860915E-1,1.862243E-1,1.8770005E-1,7.4505865E-6,7.6215336E-4,1.8337E-1,1.4228715E-1,-3.4222638E-5,1.8747555E-4,-8.9776854E-4,4.949434E-4,5.582866E-4,-5.799797E-4,7.641741E-6,8.3979423E-4],"split_indices":[5,3,3,6,8,3,4,0,0,0,0,0,0,0,0],"split_type":[0,0,0,0,0,0,0,0,0,0,0,0,0,0,0],"sum_hessian":[3.398E3,3.343E3,5.5E1,3.241E3,1.02E2,2.1E1,3.4E1,2.615E3,6.26E2,7.6E1,2.6E1,1.4E1,7E0,6E0,2.8E1],"tree_param":{"num_deleted":"0","num_feature":"13","num_nodes":"15","size_leaf_vector":"1"}},{"base_weights":[1.2224453E-6,1.5588885E-4,-2.7819157E-3,-2.3572067E-4,2.2874994E-3,-9.861072E-3,-1.5686692E-3,-2.8489012E-5,1.1908214E-3,9.941544E-4,7.6220465E-5,-1.7018708E-3,-9.226977E-6,5.52216E-4,-4.8317068E-4],"categories":[],"categories_nodes":[],"categories_segments":[],"categories_sizes":[],"default_left":[0,0,0,0,0,0,0,0,0,0,0,0,0,0,0],"id":53,"left_children":[1,3,5,7,9,11,13,-1,-1,-1,-1,-1,-1,-1,-1],"loss_changes":[1.4635604E-3,2.6892978E-3,1.5219194E-3,1.6287275E-3,5.829759E-3,1.8163894E-3,3.5898783E-3,0E0,0E0,0E0,0E0,0E0,0E0,0E0,0E0],"parents":[2147483647,0,0,1,1,2,2,3,3,4,4,5,5,6,6],"right_children":[2,4,6,8,10,12,14,-1,-1,-1,-1,-1,-1,-1,-1],"split_conditions":[9.864273E-4,9.074441E-2,4.0534932E-2,9.586068E-2,8.916811E-2,1.3090777E-3,8.844655E-2,-2.8489012E-5,1.1908214E-3,9.941544E-4,7.6220465E-5,-1.7018708E-3,-9.226977E-6,5.52216E-4,-4.8317068E-4],"split_indices":[10,0,4,1,3,8,4,0,0,0,0,0,0,0,0],"split_type":[0,0,0,0,0,0,0,0,0,0,0,0,0,0,0],"sum_hessian":[3.398E3,3.22E3,1.78E2,2.721E3,4.99E2,2.5E1,1.53E2,2.711E3,1E1,8.2E1,4.17E2,1.4E1,1.1E1,4.8E1,1.05E2],"tree_param":{"num_deleted":"0","num_feature":"13","num_nodes":"15","size_leaf_vector":"1"}},{"base_weights":[1.2748591E-6,-1.837356E-4,2.146021E-3,-7.818466E-5,-1.3840527E-2,6.8568536E-3,1.6166156E-4,-1.4749008E-5,1.0113436E-3,-2.4951347E-3,-6.7256583E-4,2.4776318E-4,8.6894195E-4,-1.16905E-3,1.6162447E-4],"categories":[],"categories_nodes":[],"categories_segments":[],"categories_sizes":[],"default_left":[0,0,0,0,0,0,0,0,0,0,0,0,0,0,0],"id":54,"left_children":[1,3,5,7,9,11,13,-1,-1,-1,-1,-1,-1,-1,-1],"loss_changes":[1.349119E-3,4.510772E-3,2.5228474E-3,2.1960724E-3,1.7294348E-3,6.204881E-4,3.3117256E-3,0E0,0E0,0E0,0E0,0E0,0E0,0E0,0E0],"parents":[2147483647,0,0,1,1,2,2,3,3,4,4,5,5,6,6],"right_children":[2,4,6,8,10,12,14,-1,-1,-1,-1,-1,-1,-1,-1],"split_conditions":[1.6434932E-1,1.8845628E-1,1.4225507E-8,1.8024911E-1,1.8607295E-1,2.1196466E-11,1.6377791E-7,-1.4749008E-5,1.0113436E-3,-2.4951347E-3,-6.7256583E-4,2.4776318E-4,8.6894195E-4,-1.16905E-3,1.6162447E-4],"split_indices":[0,3,8,1,4,10,8,0,0,0,0,0,0,0,0],"split_type":[0,0,0,0,0,0,0,0,0,0,0,0,0,0,0],"sum_hessian":[3.398E3,3.129E3,2.69E2,3.106E3,2.3E1,7.9E1,1.9E2,3.086E3,2E1,8E0,1.5E1,2.4E1,5.5E1,2E1,1.7E2],"tree_param":{"num_deleted":"0","num_feature":"13","num_nodes":"15","size_leaf_vector":"1"}},{"base_weights":[5.428347E-7,-4.0636733E-5,8.709988E-3,1.4639022E-4,-2.5589326E-3,1.6666377E-2,2.2695162E-3,-1.9113455E-5,3.0919877E-4,-1.044702E-4,-8.5614104E-4,2.2213291E-3,1.8660576E-4,-9.89203E-4,8.8947546E-4],"categories":[],"categories_nodes":[],"categories_segments":[],"categories_sizes":[],"default_left":[0,0,0,0,0,0,0,0,0,0,0,0,0,0,0],"id":55,"left_children":[1,3,5,7,9,11,13,-1,-1,-1,-1,-1,-1,-1,-1],"loss_changes":[1.2194092E-3,1.594202E-3,7.8206183E-4,3.1333533E-3,2.1179132E-3,5.332214E-4,8.9371856E-4,0E0,0E0,0E0,0E0,0E0,0E0,0E0,0E0],"parents":[2147483647,0,0,1,1,2,2,3,3,4,4,5,5,6,6],"right_children":[2,4,6,8,10,12,14,-1,-1,-1,-1,-1,-1,-1,-1],"split_conditions":[4.822854E-2,7.4587757E-4,8.408606E-2,1.0058266E-1,1.7633039E-1,1.2145349E-3,1.0035717E-1,-1.9113455E-5,3.0919877E-4,-1.044702E-4,-8.5614104E-4,2.2213291E-3,1.8660576E-4,-9.89203E-4,8.8947546E-4],"split_indices":[11,10,3,5,3,10,2,0,0,0,0,0,0,0,0],"split_type":[0,0,0,0,0,0,0,0,0,0,0,0,0,0,0],"sum_hessian":[3.398E3,3.383E3,1.5E1,3.15E3,2.33E2,6E0,9E0,2.827E3,3.23E2,1.87E2,4.6E1,4E0,2E0,3E0,6E0],"tree_param":{"num_deleted":"0","num_feature":"13","num_nodes":"15","size_leaf_vector":"1"}},{"base_weights":[9.690727E-7,1.9654486E-4,-1.7142559E-3,-1.3436074E-4,4.039434E-3,-3.94287E-3,3.5523279E-3,1.0524435E-5,-2.1860318E-4,8.4326335E-4,-2.7945542E-5,-6.62142E-4,1.4623144E-4,-8.180257E-4,4.4833418E-4],"categories":[],"categories_nodes":[],"categories_segments":[],"categories_sizes":[],"default_left":[0,0,0,0,0,0,0,0,0,0,0,0,0,0,0],"id":56,"left_children":[1,3,5,7,9,11,13,-1,-1,-1,-1,-1,-1,-1,-1],"loss_changes":[1.1405534E-3,3.881568E-3,4.0985458E-3,1.3820919E-3,4.594002E-3,3.5568068E-3,1.1726877E-3,0E0,0E0,0E0,0E0,0E0,0E0,0E0,0E0],"parents":[2147483647,0,0,1,1,2,2,3,3,4,4,5,5,6,6],"right_children":[2,4,6,8,10,12,14,-1,-1,-1,-1,-1,-1,-1,-1],"split_conditions":[1.4228715E-1,1.0058266E-1,1.84738E-1,8.8987164E-2,7.0457585E-4,1.8730146E-1,1.6096416E-1,1.0524435E-5,-2.1860318E-4,8.4326335E-4,-2.7945542E-5,-6.62142E-4,1.4623144E-4,-8.180257E-4,4.4833418E-4],"split_indices":[4,5,5,4,10,4,3,0,0,0,0,0,0,0,0],"split_type":[0,0,0,0,0,0,0,0,0,0,0,0,0,0,0],"sum_hessian":[3.398E3,3.051E3,3.47E2,2.81E3,2.41E2,2.44E2,1.03E2,2.517E3,2.93E2,1.19E2,1.22E2,1.63E2,8.1E1,7E0,9.6E1],"tree_param":{"num_deleted":"0","num_feature":"13","num_nodes":"15","size_leaf_vector":"1"}},{"base_weights":[7.8891793E-7,-8.519853E-4,3.807662E-4,-7.730187E-4,-1.2485016E-2,2.7682711E-3,-1.6857147E-4,2.6511252E-5,-1.00334924E-4,-2.5244133E-4,-1.3724382E-3,1.4514063E-3,1.9347853E-4,-5.079862E-4,9.370909E-6],"categories":[],"categories_nodes":[],"categories_segments":[],"categories_sizes":[],"default_left":[0,0,0,0,0,0,0,0,0,0,0,0,0,0,0],"id":57,"left_children":[1,3,5,7,9,11,13,-1,-1,-1,-1,-1,-1,-1,-1],"loss_changes":[1.1017187E-3,9.530638E-4,3.0852237E-3,2.4942204E-4,5.176768E-5,4.2794975E-3,2.4646802E-3,0E0,0E0,0E0,0E0,0E0,0E0,0E0,0E0],"parents":[2147483647,0,0,1,1,2,2,3,3,4,4,5,5,6,6],"right_children":[2,4,6,8,10,12,14,-1,-1,-1,-1,-1,-1,-1,-1],"split_conditions":[5.0125956E-3,1.2813194E-4,7.387337E-2,-1.3870835E-1,3.0232317E-4,2.4385731E-6,7.633551E-2,2.6511252E-5,-1.00334924E-4,-2.5244133E-4,-1.3724382E-3,1.4514063E-3,1.9347853E-4,-5.079862E-4,9.370909E-6],"split_indices":[1,8,3,12,0,10,9,0,0,0,0,0,0,0,0],"split_type":[0,0,0,0,0,0,0,0,0,0,0,0,0,0,0],"sum_hessian":[3.398E3,1.047E3,2.351E3,1.041E3,6E0,4.39E2,1.912E3,1.89E2,8.52E2,1E0,5E0,2.8E1,4.11E2,9.6E1,1.816E3],"tree_param":{"num_deleted":"0","num_feature":"13","num_nodes":"15","size_leaf_vector":"1"}}]},"name":"gbtree"},"learner_model_param":{"base_score":"6.733578E-2","boost_from_average":"1","num_class":"0","num_feature":"13","num_target":"1"},"objective":{"name":"reg:squarederror","reg_loss_param":{"scale_pos_weight":"1"}}},"version":[2,1,1]}