{"learner":{"attributes":{"best_iteration":"25","best_score":"0.00537331168791356","scikit_learn":"{\"_estimator_type\": \"regressor\"}"},"feature_names":["cpu_lag1","cpu_lag2","cpu_lag3","cpu_lag5","cpu_lag10","cpu_rmean30s","cpu_rvar30s","cpu_rmean60s","cpu_rvar60s","cpu_rmean120s","cpu_rvar120s","cpu_diff1","cpu_logdiff1"],"feature_types":["float","float","float","float","float","float","float","float","float","float","float","float","float"],"gradient_booster":{"model":{"gbtree_model_param":{"num_parallel_tree":"1","num_trees":"46"},"iteration_indptr":[0,1,2,3,4,5,6,7,8,9,10,11,12,13,14,15,16,17,18,19,20,21,22,23,24,25,26,27,28,29,30,31,32,33,34,35,36,37,38,39,40,41,42,43,44,45,46],"tree_info":[0,0,0,0,0,0,0,0,0,0,0,0,0,0,0,0,0,0,0,0,0,0,0,0,0,0,0,0,0,0,0,0,0,0,0,0,0,0,0,0,0,0,0,0,0,0],"trees":[{"base_weights":[3.8537487E-10,-4.631591E-3,2.646624E-3,-8.304473E-3,-3.0612776E-3,1.3627103E-3,7.7751162E-3,-6.1004237E-5,-9.190022E-4,-4.6521214E-5,-6.087063E-4,2.6168648E-4,-1.4036664E-4,8.903253E-4,1.7990023E-4],"categories":[],"categories_nodes":[],"categories_segments":[],"categories_sizes":[],"default_left":[0,0,0,0,0,0,0,0,0,0,0,0,0,0,0],"id":0,"left_children":[1,3,5,7,9,11,13,-1,-1,-1,-1,-1,-1,-1,-1],"loss_changes":[1.0787111E-3,1.5914021E-4,3.581391E-4,5.571783E-5,1.856915E-4,1.632685E-4,5.8143574E-5,0E0,0E0,0E0,0E0,0E0,0E0,0E0,0E0],"parents":[2147483647,0,0,1,1,2,2,3,3,4,4,5,5,6,6],"right_children":[2,4,6,8,10,12,14,-1,-1,-1,-1,-1,-1,-1,-1],"split_conditions":[6.6647515E-2,5.928415E-2,7.426329E-2,2.055948E-5,6.442821E-2,7.066606E-2,8.039929E-2,-6.1004237E-5,-9.190022E-4,-4.6521214E-5,-6.087063E-4,2.6168648E-4,-1.4036664E-4,8.903253E-4,1.7990023E-4],"split_indices":[7,0,7,10,1,9,2,0,0,0,0,0,0,0,0],"split_type":[0,0,0,0,0,0,0,0,0,0,0,0,0,0,0],"sum_hessian":[8.6E1,3.1E1,5.5E1,8E0,2.3E1,4.5E1,1E1,1E0,7E0,1.3E1,1E1,3.1E1,1.4E1,8E0,2E0],"tree_param":{"num_deleted":"0","num_feature":"13","num_nodes":"15","size_leaf_vector":"1"}},{"base_weights":[-5.099323E-6,-4.219534E-3,2.4032402E-3,-1.9825741E-3,-6.3325833E-3,1.2905253E-3,7.392676E-3,7.3459225E-5,-5.13121E-4,6.633364E-5,-6.8432005E-4,2.4793594E-4,-7.625605E-5,8.611195E-4,1.679068E-4],"categories":[],"categories_nodes":[],"categories_segments":[],"categories_sizes":[],"default_left":[0,0,0,0,0,0,0,0,0,0,0,0,0,0,0],"id":1,"left_children":[1,3,5,7,9,11,13,-1,-1,-1,-1,-1,-1,-1,-1],"loss_changes":[8.931723E-4,1.3870298E-4,3.0136146E-4,1.4921061E-4,6.1695115E-5,1.1660725E-4,5.5162585E-5,0E0,0E0,0E0,0E0,0E0,0E0,0E0,0E0],"parents":[2147483647,0,0,1,1,2,2,3,3,4,4,5,5,6,6],"right_children":[2,4,6,8,10,12,14,-1,-1,-1,-1,-1,-1,-1,-1],"split_conditions":[6.6647515E-2,1.9886937E-2,7.4302204E-2,6.442821E-2,5.368782E-2,7.142536E-2,8.039929E-2,7.3459225E-5,-5.13121E-4,6.633364E-5,-6.8432005E-4,2.4793594E-4,-7.625605E-5,8.611195E-4,1.679068E-4],"split_indices":[7,12,7,1,1,7,2,0,0,0,0,0,0,0,0],"split_type":[0,0,0,0,0,0,0,0,0,0,0,0,0,0,0],"sum_hessian":[8.6E1,3.1E1,5.5E1,1.6E1,1.5E1,4.6E1,9E0,9E0,7E0,1E0,1.4E1,2.9E1,1.7E1,7E0,2E0],"tree_param":{"num_deleted":"0","num_feature":"13","num_nodes":"15","size_leaf_vector":"1"}},{"base_weights":[-2.9443925E-6,-3.8306327E-3,2.1843587E-3,-6.9746324E-3,-2.492023E-3,1.0992957E-3,6.5233167E-3,-1.6226595E-4,-8.27196E-4,-3.2733755E-5,-5.0205295E-4,2.1636943E-4,-1.2447077E-4,7.154431E-4,1.0608509E-5],"categories":[],"categories_nodes":[],"categories_segments":[],"categories_sizes":[],"default_left":[0,0,0,0,0,0,0,0,0,0,0,0,0,0,0],"id":2,"left_children":[1,3,5,7,9,11,13,-1,-1,-1,-1,-1,-1,-1,-1],"loss_changes":[7.367588E-4,1.1729388E-4,2.5647934E-4,4.906673E-5,1.2971873E-4,1.1746103E-4,4.3791108E-5,0E0,0E0,0E0,0E0,0E0,0E0,0E0,0E0],"parents":[2147483647,0,0,1,1,2,2,3,3,4,4,5,5,6,6],"right_children":[2,4,6,8,10,12,14,-1,-1,-1,-1,-1,-1,-1,-1],"split_conditions":[6.6647515E-2,5.928415E-2,7.426329E-2,1.6279602E-5,6.442821E-2,7.066606E-2,8.497826E-2,-1.6226595E-4,-8.27196E-4,-3.2733755E-5,-5.0205295E-4,2.1636943E-4,-1.2447077E-4,7.154431E-4,1.0608509E-5],"split_indices":[7,0,7,8,1,9,1,0,0,0,0,0,0,0,0],"split_type":[0,0,0,0,0,0,0,0,0,0,0,0,0,0,0],"sum_hessian":[8.6E1,3.1E1,5.5E1,8E0,2.3E1,4.5E1,1E1,2E0,6E0,1.3E1,1E1,3.1E1,1.4E1,9E0,1E0],"tree_param":{"num_deleted":"0","num_feature":"13","num_nodes":"15","size_leaf_vector":"1"}},{"base_weights":[-1.0770499E-5,-3.1933512E-3,2.1927617E-3,-6.3871113E-3,-2.0527372E-3,1.2138295E-3,6.182894E-3,-1.5624613E-5,-7.1464386E-4,-5.2683876E-4,-9.362694E-5,6.4920576E-4,5.0600975E-5,8.565158E-4,3.1671923E-4],"categories":[],"categories_nodes":[],"categories_segments":[],"categories_sizes":[],"default_left":[0,0,0,0,0,0,0,0,0,0,0,0,0,0,0],"id":3,"left_children":[1,3,5,7,9,11,13,-1,-1,-1,-1,-1,-1,-1,-1],"loss_changes":[6.1712624E-4,1.1803143E-4,1.956106E-4,4.146481E-5,9.5592135E-5,1.5736441E-4,4.4714485E-5,0E0,0E0,0E0,0E0,0E0,0E0,0E0,0E0],"parents":[2147483647,0,0,1,1,2,2,3,3,4,4,5,5,6,6],"right_children":[2,4,6,8,10,12,14,-1,-1,-1,-1,-1,-1,-1,-1],"split_conditions":[6.7214616E-2,5.928415E-2,7.4302204E-2,2.055948E-5,2.3528697E-5,6.774999E-2,7.7503026E-2,-1.5624613E-5,-7.1464386E-4,-5.2683876E-4,-9.362694E-5,6.4920576E-4,5.0600975E-5,8.565158E-4,3.1671923E-4],"split_indices":[7,0,7,10,10,7,7,0,0,0,0,0,0,0,0],"split_type":[0,0,0,0,0,0,0,0,0,0,0,0,0,0,0],"sum_hessian":[8.6E1,3.5E1,5.1E1,8E0,2.7E1,4.2E1,9E0,1E0,7E0,6E0,2.1E1,4E0,3.8E1,4E0,5E0],"tree_param":{"num_deleted":"0","num_feature":"13","num_nodes":"15","size_leaf_vector":"1"}},{"base_weights":[-3.6921053E-6,-2.9115381E-3,2.009503E-3,-5.8295405E-3,-1.8696253E-3,1.0535126E-3,5.4769665E-3,-1.2710592E-4,-6.9503835E-4,-6.140402E-5,-4.452078E-4,5.972692E-4,3.7852802E-5,6.0361787E-4,-5.7578086E-6],"categories":[],"categories_nodes":[],"categories_segments":[],"categories_sizes":[],"default_left":[0,0,0,0,0,0,0,0,0,0,0,0,0,0,0],"id":4,"left_children":[1,3,5,7,9,11,13,-1,-1,-1,-1,-1,-1,-1,-1],"loss_changes":[5.151541E-4,9.8551885E-5,1.6660277E-4,3.714976E-5,8.8055946E-5,1.3719473E-4,3.4392375E-5,0E0,0E0,0E0,0E0,0E0,0E0,0E0,0E0],"parents":[2147483647,0,0,1,1,2,2,3,3,4,4,5,5,6,6],"right_children":[2,4,6,8,10,12,14,-1,-1,-1,-1,-1,-1,-1,-1],"split_conditions":[6.7214616E-2,5.928415E-2,7.426329E-2,1.6279602E-5,6.7608595E-2,6.774999E-2,8.497826E-2,-1.2710592E-4,-6.9503835E-4,-6.140402E-5,-4.452078E-4,5.972692E-4,3.7852802E-5,6.0361787E-4,-5.7578086E-6],"split_indices":[7,0,7,8,0,7,1,0,0,0,0,0,0,0,0],"split_type":[0,0,0,0,0,0,0,0,0,0,0,0,0,0,0],"sum_hessian":[8.6E1,3.5E1,5.1E1,8E0,2.7E1,4.1E1,1E1,2E0,6E0,1.9E1,8E0,4E0,3.7E1,9E0,1E0],"tree_param":{"num_deleted":"0","num_feature":"13","num_nodes":"15","size_leaf_vector":"1"}},{"base_weights":[-4.4243175E-6,-2.6572924E-3,1.8322618E-3,-5.3379377E-3,-1.7007531E-3,1.0065465E-3,5.199611E-3,-1.1863212E-4,-6.35464E-4,-4.6545194E-4,-6.836114E-5,5.4948777E-4,4.0531053E-5,7.39705E-4,2.5018107E-4],"categories":[],"categories_nodes":[],"categories_segments":[],"categories_sizes":[],"default_left":[0,0,0,0,0,0,0,0,0,0,0,0,0,0,0],"id":5,"left_children":[1,3,5,7,9,11,13,-1,-1,-1,-1,-1,-1,-1,-1],"loss_changes":[4.2877512E-4,8.323064E-5,1.3935087E-4,3.044994E-5,8.0941274E-5,1.13810354E-4,4.0776475E-5,0E0,0E0,0E0,0E0,0E0,0E0,0E0,0E0],"parents":[2147483647,0,0,1,1,2,2,3,3,4,4,5,5,6,6],"right_children":[2,4,6,8,10,12,14,-1,-1,-1,-1,-1,-1,-1,-1],"split_conditions":[6.7214616E-2,5.928415E-2,7.4302204E-2,1.6279602E-5,2.3528697E-5,6.774999E-2,7.7503026E-2,-1.1863212E-4,-6.35464E-4,-4.6545194E-4,-6.836114E-5,5.4948777E-4,4.0531053E-5,7.39705E-4,2.5018107E-4],"split_indices":[7,0,7,8,10,7,7,0,0,0,0,0,0,0,0],"split_type":[0,0,0,0,0,0,0,0,0,0,0,0,0,0,0],"sum_hessian":[8.6E1,3.5E1,5.1E1,8E0,2.7E1,4.2E1,9E0,2E0,6E0,6E0,2.1E1,4E0,3.8E1,4E0,5E0],"tree_param":{"num_deleted":"0","num_feature":"13","num_nodes":"15","size_leaf_vector":"1"}},{"base_weights":[-6.2606284E-7,-2.6733587E-3,1.5266609E-3,-3.6954338E-4,-3.70375E-3,7.9332886E-4,4.820655E-3,-2.1875203E-4,3.3587962E-4,-1.3177375E-4,-5.5822823E-4,-8.081883E-5,2.0095709E-4,-1.4169254E-4,5.671156E-4],"categories":[],"categories_nodes":[],"categories_segments":[],"categories_sizes":[],"default_left":[0,0,0,0,0,0,0,0,0,0,0,0,0,0,0],"id":6,"left_children":[1,3,5,7,9,11,13,-1,-1,-1,-1,-1,-1,-1,-1],"loss_changes":[3.592179E-4,7.45939E-5,1.3144876E-4,8.1905826E-5,9.125247E-5,9.317223E-5,6.108628E-5,0E0,0E0,0E0,0E0,0E0,0E0,0E0,0E0],"parents":[2147483647,0,0,1,1,2,2,3,3,4,4,5,5,6,6],"right_children":[2,4,6,8,10,12,14,-1,-1,-1,-1,-1,-1,-1,-1],"split_conditions":[6.6647515E-2,6.092343E-2,7.6170675E-2,5.928415E-2,6.442821E-2,-9.2731667E-4,6.527688E-2,-2.1875203E-4,3.3587962E-4,-1.3177375E-4,-5.5822823E-4,-8.081883E-5,2.0095709E-4,-1.4169254E-4,5.671156E-4],"split_indices":[7,3,5,3,1,11,1,0,0,0,0,0,0,0,0],"split_type":[0,0,0,0,0,0,0,0,0,0,0,0,0,0,0],"sum_hessian":[8.6E1,3.1E1,5.5E1,1E1,2.1E1,4.6E1,9E0,7E0,3E0,1E1,1.1E1,2E1,2.6E1,1E0,8E0],"tree_param":{"num_deleted":"0","num_feature":"13","num_nodes":"15","size_leaf_vector":"1"}},{"base_weights":[-8.7861184E-7,-2.4971906E-3,1.3567802E-3,-1.4486522E-3,-5.330657E-3,6.548094E-4,4.232766E-3,8.816117E-5,-3.852384E-4,-6.202212E-4,3.8511305E-5,1.6070814E-4,-1.1202047E-4,5.8783166E-4,1.8817546E-4],"categories":[],"categories_nodes":[],"categories_segments":[],"categories_sizes":[],"default_left":[0,0,0,0,0,0,0,0,0,0,0,0,0,0,0],"id":7,"left_children":[1,3,5,7,9,11,13,-1,-1,-1,-1,-1,-1,-1,-1],"loss_changes":[2.982433E-4,8.4378684E-5,1.12303256E-4,1.378282E-4,4.224143E-5,8.124417E-5,3.1494244E-5,0E0,0E0,0E0,0E0,0E0,0E0,0E0,0E0],"parents":[2147483647,0,0,1,1,2,2,3,3,4,4,5,5,6,6],"right_children":[2,4,6,8,10,12,14,-1,-1,-1,-1,-1,-1,-1,-1],"split_conditions":[6.645269E-2,7.0496604E-2,7.426329E-2,6.377517E-2,7.3097646E-2,7.142536E-2,7.7503026E-2,8.816117E-5,-3.852384E-4,-6.202212E-4,3.8511305E-5,1.6070814E-4,-1.1202047E-4,5.8783166E-4,1.8817546E-4],"split_indices":[7,4,7,1,3,7,7,0,0,0,0,0,0,0,0],"split_type":[0,0,0,0,0,0,0,0,0,0,0,0,0,0,0],"sum_hessian":[8.6E1,3E1,5.6E1,2.3E1,7E0,4.6E1,1E1,1.2E1,1.1E1,6E0,1E0,3E1,1.6E1,5E0,5E0],"tree_param":{"num_deleted":"0","num_feature":"13","num_nodes":"15","size_leaf_vector":"1"}},{"base_weights":[-1.4124845E-6,-2.0439913E-3,1.4127078E-3,-4.3198657E-3,-1.2394608E-3,7.4282836E-4,4.151919E-3,-5.2369625E-4,-7.400178E-5,-2.0795484E-5,-3.3939784E-4,4.822309E-4,2.0077108E-5,-1.290068E-4,4.899925E-4],"categories":[],"categories_nodes":[],"categories_segments":[],"categories_sizes":[],"default_left":[0,0,0,0,0,0,0,0,0,0,0,0,0,0,0],"id":8,"left_children":[1,3,5,7,9,11,13,-1,-1,-1,-1,-1,-1,-1,-1],"loss_changes":[2.5418293E-4,6.0562073E-5,9.2332775E-5,2.5672154E-5,6.1521336E-5,9.4118244E-5,4.7027628E-5,0E0,0E0,0E0,0E0,0E0,0E0,0E0,0E0],"parents":[2147483647,0,0,1,1,2,2,3,3,4,4,5,5,6,6],"right_children":[2,4,6,8,10,12,14,-1,-1,-1,-1,-1,-1,-1,-1],"split_conditions":[6.7214616E-2,5.928415E-2,7.6170675E-2,6.859423E-2,6.7608595E-2,6.774999E-2,6.527688E-2,-5.2369625E-4,-7.400178E-5,-2.0795484E-5,-3.3939784E-4,4.822309E-4,2.0077108E-5,-1.290068E-4,4.899925E-4],"split_indices":[7,0,5,3,0,7,1,0,0,0,0,0,0,0,0],"split_type":[0,0,0,0,0,0,0,0,0,0,0,0,0,0,0],"sum_hessian":[8.6E1,3.5E1,5.1E1,8E0,2.7E1,4.2E1,9E0,6E0,2E0,1.9E1,8E0,4E0,3.8E1,1E0,8E0],"tree_param":{"num_deleted":"0","num_feature":"13","num_nodes":"15","size_leaf_vector":"1"}},{"base_weights":[-2.3603354E-6,-1.8662018E-3,1.2880368E-3,-3.3259012E-3,-7.861248E-4,4.7541037E-3,8.181551E-4,-7.200604E-5,-5.516004E-4,-3.4852177E-4,4.4386114E-5,6.4204636E-5,5.448106E-4,-6.553363E-5,2.0334881E-4],"categories":[],"categories_nodes":[],"categories_segments":[],"categories_sizes":[],"default_left":[0,0,0,0,0,0,0,0,0,0,0,0,0,0,0],"id":9,"left_children":[1,3,5,7,9,11,13,-1,-1,-1,-1,-1,-1,-1,-1],"loss_changes":[2.1164707E-4,5.414257E-5,8.079976E-5,8.163405E-5,7.458357E-5,1.3624725E-5,8.549941E-5,0E0,0E0,0E0,0E0,0E0,0E0,0E0,0E0],"parents":[2147483647,0,0,1,1,2,2,3,3,4,4,5,5,6,6],"right_children":[2,4,6,8,10,12,14,-1,-1,-1,-1,-1,-1,-1,-1],"split_conditions":[6.7214616E-2,2.5621712E-5,6.151247E-2,1.6279602E-5,6.1162293E-2,5.9655458E-2,6.9659136E-2,-7.200604E-5,-5.516004E-4,-3.4852177E-4,4.4386114E-5,6.4204636E-5,5.448106E-4,-6.553363E-5,2.0334881E-4],"split_indices":[7,10,4,8,0,0,3,0,0,0,0,0,0,0,0],"split_type":[0,0,0,0,0,0,0,0,0,0,0,0,0,0,0],"sum_hessian":[8.6E1,3.5E1,5.1E1,1.4E1,2.1E1,5E0,4.6E1,7E0,7E0,6E0,1.5E1,1E0,4E0,2.1E1,2.5E1],"tree_param":{"num_deleted":"0","num_feature":"13","num_nodes":"15","size_leaf_vector":"1"}},{"base_weights":[-4.202727E-6,-1.705351E-3,1.1735961E-3,-3.0348857E-3,-7.2133425E-4,5.877688E-4,3.5752945E-3,-6.570583E-5,-5.0333526E-4,3.0730982E-4,-1.4821971E-4,4.3554517E-4,8.9661535E-6,5.263085E-4,8.3488674E-5],"categories":[],"categories_nodes":[],"categories_segments":[],"categories_sizes":[],"default_left":[0,0,0,0,0,0,0,0,0,0,0,0,0,0,0],"id":10,"left_children":[1,3,5,7,9,11,13,-1,-1,-1,-1,-1,-1,-1,-1],"loss_changes":[1.7631552E-4,4.4909066E-5,7.1061564E-5,6.797294E-5,6.806989E-5,8.030801E-5,4.1858264E-5,0E0,0E0,0E0,0E0,0E0,0E0,0E0,0E0],"parents":[2147483647,0,0,1,1,2,2,3,3,4,4,5,5,6,6],"right_children":[2,4,6,8,10,12,14,-1,-1,-1,-1,-1,-1,-1,-1],"split_conditions":[6.7214616E-2,2.5621712E-5,7.6170675E-2,1.6279602E-5,2.7620263E-5,6.774999E-2,7.817554E-2,-6.570583E-5,-5.0333526E-4,3.0730982E-4,-1.4821971E-4,4.3554517E-4,8.9661535E-6,5.263085E-4,8.3488674E-5],"split_indices":[7,10,5,8,10,7,5,0,0,0,0,0,0,0,0],"split_type":[0,0,0,0,0,0,0,0,0,0,0,0,0,0,0],"sum_hessian":[8.6E1,3.5E1,5.1E1,1.4E1,2.1E1,4.2E1,9E0,7E0,7E0,3E0,1.8E1,4E0,3.8E1,5E0,4E0],"tree_param":{"num_deleted":"0","num_feature":"13","num_nodes":"15","size_leaf_vector":"1"}},{"base_weights":[3.6258637E-6,-8.9902093E-4,1.9377396E-3,1.1798625E-3,-1.5573738E-3,5.635901E-3,8.887522E-4,3.132714E-4,-4.7011756E-5,-2.1432048E-4,2.8108061E-5,6.170801E-4,1.4807023E-4,-4.7601327E-5,2.179455E-4],"categories":[],"categories_nodes":[],"categories_segments":[],"categories_sizes":[],"default_left":[0,0,0,0,0,0,0,0,0,0,0,0,0,0,0],"id":11,"left_children":[1,3,5,7,9,11,13,-1,-1,-1,-1,-1,-1,-1,-1],"loss_changes":[1.5362854E-4,8.395582E-5,1.0361216E-4,4.9805225E-5,5.0145485E-5,4.1985622E-6,4.15521E-5,0E0,0E0,0E0,0E0,0E0,0E0,0E0,0E0],"parents":[2147483647,0,0,1,1,2,2,3,3,4,4,5,5,6,6],"right_children":[2,4,6,8,10,12,14,-1,-1,-1,-1,-1,-1,-1,-1],"split_conditions":[7.074258E-2,1.9077466E-5,6.377517E-2,4.3338352E-7,7.124194E-2,8.039929E-2,2.2705419E-5,3.132714E-4,-4.7011756E-5,-2.1432048E-4,2.8108061E-5,6.170801E-4,1.4807023E-4,-4.7601327E-5,2.179455E-4],"split_indices":[5,10,4,6,3,0,10,0,0,0,0,0,0,0,0],"split_type":[0,0,0,0,0,0,0,0,0,0,0,0,0,0,0],"sum_hessian":[8.6E1,5.9E1,2.7E1,1.4E1,4.5E1,5E0,2.2E1,6E0,8E0,3.4E1,1.1E1,4E0,1E0,1.1E1,1.1E1],"tree_param":{"num_deleted":"0","num_feature":"13","num_nodes":"15","size_leaf_vector":"1"}},{"base_weights":[1.493683E-5,-8.077841E-4,1.7773767E-3,1.0796264E-3,-1.4056835E-3,5.199836E-3,8.07284E-4,2.8641926E-4,-4.283281E-5,-4.8268057E-4,-1.0547492E-4,5.677137E-4,1.406666E-4,-5.7597324E-5,1.9156338E-4],"categories":[],"categories_nodes":[],"categories_segments":[],"categories_sizes":[],"default_left":[0,0,0,0,0,0,0,0,0,0,0,0,0,0,0],"id":12,"left_children":[1,3,5,7,9,11,13,-1,-1,-1,-1,-1,-1,-1,-1],"loss_changes":[1.2758539E-4,6.92265E-5,8.876515E-5,4.1592484E-5,5.013602E-5,2.8770592E-6,3.6365407E-5,0E0,0E0,0E0,0E0,0E0,0E0,0E0,0E0],"parents":[2147483647,0,0,1,1,2,2,3,3,4,4,5,5,6,6],"right_children":[2,4,6,8,10,12,14,-1,-1,-1,-1,-1,-1,-1,-1],"split_conditions":[7.074258E-2,1.9077466E-5,6.377517E-2,4.3338352E-7,5.739191E-2,8.039929E-2,7.364098E-2,2.8641926E-4,-4.283281E-5,-4.8268057E-4,-1.0547492E-4,5.677137E-4,1.406666E-4,-5.7597324E-5,1.9156338E-4],"split_indices":[5,10,4,6,1,0,7,0,0,0,0,0,0,0,0],"split_type":[0,0,0,0,0,0,0,0,0,0,0,0,0,0,0],"sum_hessian":[8.6E1,5.9E1,2.7E1,1.4E1,4.5E1,5E0,2.2E1,6E0,8E0,3E0,4.2E1,4E0,1E0,1E1,1.2E1],"tree_param":{"num_deleted":"0","num_feature":"13","num_nodes":"15","size_leaf_vector":"1"}},{"base_weights":[1.9166404E-5,-7.3274696E-4,1.6297249E-3,-4.464796E-3,-4.579936E-4,4.797917E-3,7.3238235E-4,-3.430024E-5,-5.724393E-4,1.01437094E-4,-1.0079898E-4,5.2229676E-4,1.3363325E-4,-4.8339552E-5,1.8871283E-4],"categories":[],"categories_nodes":[],"categories_segments":[],"categories_sizes":[],"default_left":[0,0,0,0,0,0,0,0,0,0,0,0,0,0,0],"id":13,"left_children":[1,3,5,7,9,11,13,-1,-1,-1,-1,-1,-1,-1,-1],"loss_changes":[1.0655122E-4,5.9478727E-5,7.608879E-5,1.8803716E-5,4.7180783E-5,1.848457E-6,3.320227E-5,0E0,0E0,0E0,0E0,0E0,0E0,0E0,0E0],"parents":[2147483647,0,0,1,1,2,2,3,3,4,4,5,5,6,6],"right_children":[2,4,6,8,10,12,14,-1,-1,-1,-1,-1,-1,-1,-1],"split_conditions":[7.074258E-2,5.739191E-2,6.377517E-2,5.6350064E-2,6.442821E-2,8.039929E-2,2.2705419E-5,-3.430024E-5,-5.724393E-4,1.01437094E-4,-1.0079898E-4,5.2229676E-4,1.3363325E-4,-4.8339552E-5,1.8871283E-4],"split_indices":[5,1,4,2,1,0,10,0,0,0,0,0,0,0,0],"split_type":[0,0,0,0,0,0,0,0,0,0,0,0,0,0,0],"sum_hessian":[8.6E1,5.9E1,2.7E1,3E0,5.6E1,5E0,2.2E1,1E0,2E0,1.5E1,4.1E1,4E0,1E0,1.1E1,1.1E1],"tree_param":{"num_deleted":"0","num_feature":"13","num_nodes":"15","size_leaf_vector":"1"}},{"base_weights":[1.9435352E-5,-1.2669818E-3,9.096581E-4,4.7222254E-4,-1.954069E-3,4.0246695E-3,5.662265E-4,-1.1116685E-4,3.521949E-4,-3.1428225E-4,-5.2355976E-5,5.490867E-4,1.2169158E-4,1.5473329E-7,2.7118527E-4],"categories":[],"categories_nodes":[],"categories_segments":[],"categories_sizes":[],"default_left":[0,0,0,0,0,0,0,0,0,0,0,0,0,0,0],"id":14,"left_children":[1,3,5,7,9,11,13,-1,-1,-1,-1,-1,-1,-1,-1],"loss_changes":[1.00784724E-4,4.3942215E-5,5.335038E-5,5.705002E-5,4.2568143E-5,1.3901677E-5,5.8152138E-5,0E0,0E0,0E0,0E0,0E0,0E0,0E0,0E0],"parents":[2147483647,0,0,1,1,2,2,3,3,4,4,5,5,6,6],"right_children":[2,4,6,8,10,12,14,-1,-1,-1,-1,-1,-1,-1,-1],"split_conditions":[6.7214616E-2,6.092343E-2,6.774999E-2,5.928415E-2,6.546567E-2,6.572232E-2,7.6170675E-2,-1.1116685E-4,3.521949E-4,-3.1428225E-4,-5.2355976E-5,5.490867E-4,1.2169158E-4,1.5473329E-7,2.7118527E-4],"split_indices":[7,3,7,3,5,1,5,0,0,0,0,0,0,0,0],"split_type":[0,0,0,0,0,0,0,0,0,0,0,0,0,0,0],"sum_hessian":[8.6E1,3.5E1,5.1E1,1E1,2.5E1,4E0,4.7E1,7E0,3E0,1.3E1,1.2E1,2E0,2E0,3.8E1,9E0],"tree_param":{"num_deleted":"0","num_feature":"13","num_nodes":"15","size_leaf_vector":"1"}},{"base_weights":[2.6876E-5,-1.3036507E-3,7.500243E-4,-5.644157E-4,-4.289727E-3,2.444397E-4,2.1493651E-3,9.100606E-5,-2.3604765E-4,-5.3313724E-4,4.5925008E-5,1.0923156E-4,-9.9385E-5,3.5401745E-4,-1.3402887E-4],"categories":[],"categories_nodes":[],"categories_segments":[],"categories_sizes":[],"default_left":[0,0,0,0,0,0,0,0,0,0,0,0,0,0,0],"id":15,"left_children":[1,3,5,7,9,11,13,-1,-1,-1,-1,-1,-1,-1,-1],"loss_changes":[8.468639E-5,6.600859E-5,3.9801267E-5,7.100264E-5,3.212892E-5,4.6231977E-5,7.75465E-5,0E0,0E0,0E0,0E0,0E0,0E0,0E0,0E0],"parents":[2147483647,0,0,1,1,2,2,3,3,4,4,5,5,6,6],"right_children":[2,4,6,8,10,12,14,-1,-1,-1,-1,-1,-1,-1,-1],"split_conditions":[6.645269E-2,7.186216E-2,7.5218044E-2,6.377517E-2,7.3097646E-2,7.020611E-2,8.039929E-2,9.100606E-5,-2.3604765E-4,-5.3313724E-4,4.5925008E-5,1.0923156E-4,-9.9385E-5,3.5401745E-4,-1.3402887E-4],"split_indices":[7,4,2,1,3,9,2,0,0,0,0,0,0,0,0],"split_type":[0,0,0,0,0,0,0,0,0,0,0,0,0,0,0],"sum_hessian":[8.6E1,3E1,5.6E1,2.5E1,5E0,4.2E1,1.4E1,1.4E1,1.1E1,4E0,1E0,2.5E1,1.7E1,1E1,4E0],"tree_param":{"num_deleted":"0","num_feature":"13","num_nodes":"15","size_leaf_vector":"1"}},{"base_weights":[1.9562141E-5,-1.6543992E-3,5.11616E-4,8.083009E-4,-3.0426455E-3,1.645882E-4,2.2948885E-3,2.6215508E-4,-1.6603367E-4,1.483304E-4,-4.0003913E-4,4.4335287E-5,-2.878988E-4,3.4658436E-4,7.41452E-5],"categories":[],"categories_nodes":[],"categories_segments":[],"categories_sizes":[],"default_left":[0,0,0,0,0,0,0,0,0,0,0,0,0,0,0],"id":16,"left_children":[1,3,5,7,9,11,13,-1,-1,-1,-1,-1,-1,-1,-1],"loss_changes":[7.2506504E-5,7.083607E-5,4.1703755E-5,4.0162715E-5,6.2285E-5,5.048601E-5,1.7439295E-5,0E0,0E0,0E0,0E0,0E0,0E0,0E0,0E0],"parents":[2147483647,0,0,1,1,2,2,3,3,4,4,5,5,6,6],"right_children":[2,4,6,8,10,12,14,-1,-1,-1,-1,-1,-1,-1,-1],"split_conditions":[6.452853E-2,5.928415E-2,7.426329E-2,6.733501E-2,1.6279602E-5,7.598124E-2,7.7503026E-2,2.6215508E-4,-1.6603367E-4,1.483304E-4,-4.0003913E-4,4.4335287E-5,-2.878988E-4,3.4658436E-4,7.41452E-5],"split_indices":[7,2,7,4,8,1,7,0,0,0,0,0,0,0,0],"split_type":[0,0,0,0,0,0,0,0,0,0,0,0,0,0,0],"sum_hessian":[8.6E1,1.9E1,6.7E1,7E0,1.2E1,5.7E1,1E1,4E0,3E0,2E0,1E1,5.3E1,4E0,5E0,5E0],"tree_param":{"num_deleted":"0","num_feature":"13","num_nodes":"15","size_leaf_vector":"1"}},{"base_weights":[1.785172E-5,-2.5063353E-3,3.0519135E-4,-5.124919E-4,-1.5383973E-3,9.035699E-4,-6.5047777E-4,-6.874868E-5,-2.7274192E-4,4.8790058E-5,2.972888E-4,4.0026775E-5,-1.9549734E-4],"categories":[],"categories_nodes":[],"categories_segments":[],"categories_sizes":[],"default_left":[0,0,0,0,0,0,0,0,0,0,0,0,0],"id":17,"left_children":[1,3,5,-1,7,9,11,-1,-1,-1,-1,-1,-1],"loss_changes":[6.386592E-5,1.4927475E-5,4.5764056E-5,0E0,6.2189447E-6,4.0696978E-5,4.3273998E-5,0E0,0E0,0E0,0E0,0E0,0E0],"parents":[2147483647,0,0,1,1,2,2,4,4,5,5,6,6],"right_children":[2,4,6,-1,8,10,12,-1,-1,-1,-1,-1,-1],"split_conditions":[5.928415E-2,5.6350064E-2,7.1237214E-2,-5.124919E-4,6.7608595E-2,7.463511E-2,1.7447921E-5,-6.874868E-5,-2.7274192E-4,4.8790058E-5,2.972888E-4,4.0026775E-5,-1.9549734E-4],"split_indices":[0,1,4,0,1,2,8,0,0,0,0,0,0],"split_type":[0,0,0,0,0,0,0,0,0,0,0,0,0],"sum_hessian":[8.6E1,8E0,7.8E1,1E0,7E0,4.8E1,3E1,5E0,2E0,4.1E1,7E0,1.7E1,1.3E1],"tree_param":{"num_deleted":"0","num_feature":"13","num_nodes":"13","size_leaf_vector":"1"}},{"base_weights":[8.443734E-6,-9.7355316E-4,6.881254E-4,5.0860946E-4,-1.5631777E-3,3.4993216E-3,3.8095648E-4,-8.878228E-5,3.174322E-4,-4.4615706E-4,-9.9114506E-5,4.8283985E-4,1.0038043E-4,3.6692023E-4,8.020227E-6],"categories":[],"categories_nodes":[],"categories_segments":[],"categories_sizes":[],"default_left":[0,0,0,0,0,0,0,0,0,0,0,0,0,0,0],"id":18,"left_children":[1,3,5,7,9,11,13,-1,-1,-1,-1,-1,-1,-1,-1],"loss_changes":[5.8737667E-5,3.225614E-5,4.356954E-5,4.376559E-5,3.868529E-5,1.1736905E-5,4.7175505E-5,0E0,0E0,0E0,0E0,0E0,0E0,0E0,0E0],"parents":[2147483647,0,0,1,1,2,2,3,3,4,4,5,5,6,6],"right_children":[2,4,6,8,10,12,14,-1,-1,-1,-1,-1,-1,-1,-1],"split_conditions":[6.7214616E-2,6.092343E-2,6.774999E-2,5.928415E-2,-8.618318E-3,6.572232E-2,6.056413E-2,-8.878228E-5,3.174322E-4,-4.4615706E-4,-9.9114506E-5,4.8283985E-4,1.0038043E-4,3.6692023E-4,8.020227E-6],"split_indices":[7,3,7,3,11,1,4,0,0,0,0,0,0,0,0],"split_type":[0,0,0,0,0,0,0,0,0,0,0,0,0,0,0],"sum_hessian":[8.6E1,3.5E1,5.1E1,1E1,2.5E1,4E0,4.7E1,7E0,3E0,3E0,2.2E1,2E0,2E0,3E0,4.4E1],"tree_param":{"num_deleted":"0","num_feature":"13","num_nodes":"15","size_leaf_vector":"1"}},{"base_weights":[1.4975068E-5,-5.1940704E-4,1.1595448E-3,3.2210996E-4,-7.0392626E-4,2.648302E-3,-1.2254203E-4,-1.2115033E-4,5.91495E-5,-9.597689E-5,3.0289553E-4,-1.601538E-4,1.5566462E-4],"categories":[],"categories_nodes":[],"categories_segments":[],"categories_sizes":[],"default_left":[0,0,0,0,0,0,0,0,0,0,0,0,0],"id":19,"left_children":[1,3,5,-1,7,9,11,-1,-1,-1,-1,-1,-1],"loss_changes":[5.3814747E-5,4.367913E-5,5.376858E-5,0E0,3.885311E-5,2.076161E-5,4.2229225E-5,0E0,0E0,0E0,0E0,0E0,0E0],"parents":[2147483647,0,0,1,1,2,2,4,4,5,5,6,6],"right_children":[2,4,6,-1,8,10,12,-1,-1,-1,-1,-1,-1],"split_conditions":[7.074258E-2,1.4755951E-6,6.911507E-2,3.2210996E-4,7.124194E-2,6.9417633E-6,7.3562555E-2,-1.2115033E-4,5.91495E-5,-9.597689E-5,3.0289553E-4,-1.601538E-4,1.5566462E-4],"split_indices":[5,8,4,0,3,10,2,0,0,0,0,0,0],"split_type":[0,0,0,0,0,0,0,0,0,0,0,0,0],"sum_hessian":[8.6E1,5.9E1,2.7E1,2E0,5.7E1,1.2E1,1.5E1,4.1E1,1.6E1,1E0,1.1E1,8E0,7E0],"tree_param":{"num_deleted":"0","num_feature":"13","num_nodes":"13","size_leaf_vector":"1"}},{"base_weights":[1.8794946E-5,-2.1570926E-3,2.6644295E-4,-4.7585406E-4,-1.2370939E-3,8.1035495E-4,-5.577514E-4,-4.5008524E-5,-2.3987469E-4,2.5969147E-4,3.8812013E-5,4.717365E-6,-2.3784232E-4],"categories":[],"categories_nodes":[],"categories_segments":[],"categories_sizes":[],"default_left":[0,0,0,0,0,0,0,0,0,0,0,0,0],"id":20,"left_children":[1,3,5,-1,7,9,11,-1,-1,-1,-1,-1,-1],"loss_changes":[4.7455054E-5,1.5653193E-5,3.5866822E-5,0E0,6.234205E-6,3.520078E-5,3.535604E-5,0E0,0E0,0E0,0E0,0E0,0E0],"parents":[2147483647,0,0,1,1,2,2,4,4,5,5,6,6],"right_children":[2,4,6,-1,8,10,12,-1,-1,-1,-1,-1,-1],"split_conditions":[5.928415E-2,5.6350064E-2,7.094537E-2,-4.7585406E-4,6.7608595E-2,6.377517E-2,3.5730412E-5,-4.5008524E-5,-2.3987469E-4,2.5969147E-4,3.8812013E-5,4.717365E-6,-2.3784232E-4],"split_indices":[0,1,4,0,1,0,8,0,0,0,0,0,0],"split_type":[0,0,0,0,0,0,0,0,0,0,0,0,0],"sum_hessian":[8.6E1,8E0,7.8E1,1E0,7E0,4.7E1,3.1E1,5E0,2E0,8E0,3.9E1,2.4E1,7E0],"tree_param":{"num_deleted":"0","num_feature":"13","num_nodes":"13","size_leaf_vector":"1"}},{"base_weights":[8.924297E-6,-3.9183683E-4,1.2871182E-3,3.0407458E-4,-6.002508E-4,2.0405045E-3,-2.4249004E-4,-1.4839285E-4,2.7483828E-5,2.5329794E-4,-1.2661963E-4],"categories":[],"categories_nodes":[],"categories_segments":[],"categories_sizes":[],"default_left":[0,0,0,0,0,0,0,0,0,0,0],"id":21,"left_children":[1,3,5,-1,7,9,-1,-1,-1,-1,-1],"loss_changes":[4.5070123E-5,4.975689E-5,6.36763E-5,0E0,4.989883E-5,3.2519652E-5,0E0,0E0,0E0,0E0,0E0],"parents":[2147483647,0,0,1,1,2,2,4,4,5,5],"right_children":[2,4,6,-1,8,10,-1,-1,-1,-1,-1],"split_conditions":[7.3562555E-2,1.7346255E-6,3.8140963E-5,3.0407458E-4,2.5621712E-5,7.994485E-2,-2.4249004E-4,-1.4839285E-4,2.7483828E-5,2.5329794E-4,-1.2661963E-4],"split_indices":[2,8,8,0,10,4,0,0,0,0,0],"split_type":[0,0,0,0,0,0,0,0,0,0,0],"sum_hessian":[8.6E1,6.6E1,2E1,3E0,6.3E1,1.7E1,3E0,3.1E1,3.2E1,1.5E1,2E0],"tree_param":{"num_deleted":"0","num_feature":"13","num_nodes":"11","size_leaf_vector":"1"}},{"base_weights":[8.805772E-6,-1.2873855E-3,3.89909E-4,-3.2296916E-4,-4.1160407E-4,6.2838435E-4,-1.0560866E-3,-3.0282565E-4,8.31148E-5,1.5306274E-5,2.012457E-4,-1.7188552E-4,2.454415E-4],"categories":[],"categories_nodes":[],"categories_segments":[],"categories_sizes":[],"default_left":[0,0,0,0,0,0,0,0,0,0,0,0,0],"id":22,"left_children":[1,3,5,7,-1,9,11,-1,-1,-1,-1,-1,-1],"loss_changes":[4.3478452E-5,5.3230666E-5,2.4112365E-5,5.2472424E-5,0E0,3.8506863E-5,2.7485281E-5,0E0,0E0,0E0,0E0,0E0,0E0],"parents":[2147483647,0,0,1,1,2,2,3,3,5,5,6,6],"right_children":[2,4,6,8,-1,10,12,-1,-1,-1,-1,-1,-1],"split_conditions":[6.452853E-2,6.423359E-2,4.3367447E-5,5.8910403E-2,-4.1160407E-4,2.6622452E-3,7.5218044E-2,-3.0282565E-4,8.31148E-5,1.5306274E-5,2.012457E-4,-1.7188552E-4,2.454415E-4],"split_indices":[7,7,8,0,0,11,0,0,0,0,0,0,0],"split_type":[0,0,0,0,0,0,0,0,0,0,0,0,0],"sum_hessian":[8.6E1,1.9E1,6.7E1,1.5E1,4E0,5.8E1,9E0,4E0,1.1E1,4.4E1,1.4E1,8E0,1E0],"tree_param":{"num_deleted":"0","num_feature":"13","num_nodes":"13","size_leaf_vector":"1"}},{"base_weights":[4.0048585E-6,-1.1902103E-3,3.551857E-4,-4.0836347E-4,-4.2155068E-4,1.1829843E-4,1.7173022E-3,9.951168E-5,-2.555495E-4,5.8849524E-5,-1.1821364E-4,-1.5471168E-4,2.2519173E-4],"categories":[],"categories_nodes":[],"categories_segments":[],"categories_sizes":[],"default_left":[0,0,0,0,0,0,0,0,0,0,0,0,0],"id":23,"left_children":[1,3,5,7,-1,9,11,-1,-1,-1,-1,-1,-1],"loss_changes":[3.690928E-5,4.5584915E-5,2.1738277E-5,5.377178E-5,0E0,3.6771835E-5,2.0936053E-5,0E0,0E0,0E0,0E0,0E0,0E0],"parents":[2147483647,0,0,1,1,2,2,3,3,5,5,6,6],"right_children":[2,4,6,8,-1,10,12,-1,-1,-1,-1,-1,-1],"split_conditions":[6.452853E-2,7.186216E-2,7.6170675E-2,6.331486E-2,-4.2155068E-4,7.066606E-2,6.527688E-2,9.951168E-5,-2.555495E-4,5.8849524E-5,-1.1821364E-4,-1.5471168E-4,2.2519173E-4],"split_indices":[7,4,5,2,0,9,1,0,0,0,0,0,0],"split_type":[0,0,0,0,0,0,0,0,0,0,0,0,0],"sum_hessian":[8.6E1,1.9E1,6.7E1,1.6E1,3E0,5.8E1,9E0,1E1,6E0,4.3E1,1.5E1,1E0,8E0],"tree_param":{"num_deleted":"0","num_feature":"13","num_nodes":"13","size_leaf_vector":"1"}},{"base_weights":[-2.908467E-6,-3.4652077E-4,1.0935169E-3,2.729958E-4,-5.333863E-4,2.924092E-3,-2.5792106E-4,-1.3349463E-4,2.6004715E-5,2.8489903E-5,3.218379E-4,1.6025559E-4,-1.2628615E-4],"categories":[],"categories_nodes":[],"categories_segments":[],"categories_sizes":[],"default_left":[0,0,0,0,0,0,0,0,0,0,0,0,0],"id":24,"left_children":[1,3,5,-1,7,9,11,-1,-1,-1,-1,-1,-1],"loss_changes":[3.3155764E-5,3.9973605E-5,5.270627E-5,0E0,4.105016E-5,6.0732054E-6,2.6329493E-5,0E0,0E0,0E0,0E0,0E0,0E0],"parents":[2147483647,0,0,1,1,2,2,4,4,5,5,6,6],"right_children":[2,4,6,-1,8,10,12,-1,-1,-1,-1,-1,-1],"split_conditions":[7.3562555E-2,1.7346255E-6,1.7447921E-5,2.729958E-4,2.5621712E-5,1.734833E-7,7.094537E-2,-1.3349463E-4,2.6004715E-5,2.8489903E-5,3.218379E-4,1.6025559E-4,-1.2628615E-4],"split_indices":[2,8,8,0,10,6,4,0,0,0,0,0,0],"split_type":[0,0,0,0,0,0,0,0,0,0,0,0,0],"sum_hessian":[8.6E1,6.6E1,2E1,3E0,6.3E1,8E0,1.2E1,3.1E1,3.2E1,1E0,7E0,4E0,8E0],"tree_param":{"num_deleted":"0","num_feature":"13","num_nodes":"13","size_leaf_vector":"1"}},{"base_weights":[3.7022107E-6,-7.1216625E-4,4.9923226E-4,5.3510105E-4,-1.2124652E-3,2.6311076E-3,1.6396354E-4,-6.6064626E-5,2.7928205E-4,-3.9910674E-4,-6.765142E-5,3.754983E-4,8.494556E-5,1.0681309E-4,-5.7263172E-5],"categories":[],"categories_nodes":[],"categories_segments":[],"categories_sizes":[],"default_left":[0,0,0,0,0,0,0,0,0,0,0,0,0,0,0],"id":25,"left_children":[1,3,5,7,9,11,13,-1,-1,-1,-1,-1,-1,-1,-1],"loss_changes":[3.121742E-5,2.3113025E-5,3.673565E-5,3.1541345E-5,3.601905E-5,1.0826789E-5,3.1247895E-5,0E0,0E0,0E0,0E0,0E0,0E0,0E0,0E0],"parents":[2147483647,0,0,1,1,2,2,3,3,4,4,5,5,6,6],"right_children":[2,4,6,8,10,12,14,-1,-1,-1,-1,-1,-1,-1,-1],"split_conditions":[6.7214616E-2,6.092343E-2,6.8018235E-2,5.928415E-2,-8.618318E-3,6.692553E-2,6.911507E-2,-6.6064626E-5,2.7928205E-4,-3.9910674E-4,-6.765142E-5,3.754983E-4,8.494556E-5,1.0681309E-4,-5.7263172E-5],"split_indices":[7,3,7,3,11,1,4,0,0,0,0,0,0,0,0],"split_type":[0,0,0,0,0,0,0,0,0,0,0,0,0,0,0],"sum_hessian":[8.6E1,3.5E1,5.1E1,1E1,2.5E1,6E0,4.5E1,7E0,3E0,3E0,2.2E1,3E0,3E0,2E1,2.5E1],"tree_param":{"num_deleted":"0","num_feature":"13","num_nodes":"15","size_leaf_vector":"1"}},{"base_weights":[6.2803683E-6,-2.604331E-3,1.3052042E-4,-1.6947835E-5,-3.3594557E-4,-2.5152936E-4,2.5956656E-4,1.6804031E-4,-8.881149E-6],"categories":[],"categories_nodes":[],"categories_segments":[],"categories_sizes":[],"default_left":[0,0,0,0,0,0,0,0,0],"id":26,"left_children":[1,3,5,-1,-1,-1,7,-1,-1],"loss_changes":[2.8557713E-5,6.785118E-6,2.933318E-5,0E0,0E0,0E0,4.0243285E-5,0E0,0E0],"parents":[2147483647,0,0,1,1,2,2,6,6],"right_children":[2,4,6,-1,-1,-1,8,-1,-1],"split_conditions":[5.7104923E-2,5.8910403E-2,5.7104923E-2,-1.6947835E-5,-3.3594557E-4,-2.5152936E-4,6.442821E-2,1.6804031E-4,-8.881149E-6],"split_indices":[0,2,4,0,0,0,1,0,0],"split_type":[0,0,0,0,0,0,0,0,0],"sum_hessian":[8.6E1,3E0,8.3E1,1E0,2E0,3E0,8E1,1.5E1,6.5E1],"tree_param":{"num_deleted":"0","num_feature":"13","num_nodes":"9","size_leaf_vector":"1"}},{"base_weights":[5.3438646E-7,-1.5949879E-3,2.0508167E-4,-5.468605E-4,-3.8583318E-4,2.1440177E-3,-1.1158565E-4,-1.641959E-4,1.8256232E-4,1.8206116E-5,3.748638E-4,-2.5644837E-4,1.671542E-5],"categories":[],"categories_nodes":[],"categories_segments":[],"categories_sizes":[],"default_left":[0,0,0,0,0,0,0,0,0,0,0,0,0],"id":27,"left_children":[1,3,5,7,-1,9,11,-1,-1,-1,-1,-1,-1],"loss_changes":[2.8720402E-5,2.1612752E-5,4.8131064E-5,2.3782424E-5,0E0,3.3947665E-5,4.6921647E-5,0E0,0E0,0E0,0E0,0E0,0E0],"parents":[2147483647,0,0,1,1,2,2,3,3,5,5,6,6],"right_children":[2,4,6,8,-1,10,12,-1,-1,-1,-1,-1,-1],"split_conditions":[5.9655458E-2,7.124194E-2,6.377517E-2,4.4902973E-3,-3.8583318E-4,6.2383864E-2,6.443748E-2,-1.641959E-4,1.8256232E-4,1.8206116E-5,3.748638E-4,-2.5644837E-4,1.671542E-5],"split_indices":[1,4,1,11,0,0,7,0,0,0,0,0,0],"split_type":[0,0,0,0,0,0,0,0,0,0,0,0,0],"sum_hessian":[8.6E1,9E0,7.7E1,7E0,2E0,1E1,6.7E1,5E0,2E0,5E0,5E0,6E0,6.1E1],"tree_param":{"num_deleted":"0","num_feature":"13","num_nodes":"13","size_leaf_vector":"1"}},{"base_weights":[-1.9827107E-6,-3.0102575E-4,9.5220143E-4,2.1334053E-3,-4.8945635E-4,2.611768E-3,-2.699755E-4,2.4382361E-4,4.57041E-5,-1.2327105E-4,2.2358403E-5,2.1332875E-5,2.8849067E-4,-1.6291147E-4,7.831259E-5],"categories":[],"categories_nodes":[],"categories_segments":[],"categories_sizes":[],"default_left":[0,0,0,0,0,0,0,0,0,0,0,0,0,0,0],"id":28,"left_children":[1,3,5,7,9,11,13,-1,-1,-1,-1,-1,-1,-1,-1],"loss_changes":[2.5111403E-5,3.1778538E-5,4.329907E-5,1.4406633E-6,3.3663735E-5,5.2805262E-6,1.9882851E-5,0E0,0E0,0E0,0E0,0E0,0E0,0E0,0E0],"parents":[2147483647,0,0,1,1,2,2,3,3,4,4,5,5,6,6],"right_children":[2,4,6,8,10,12,14,-1,-1,-1,-1,-1,-1,-1,-1],"split_conditions":[7.3562555E-2,2.5338218E-6,1.7447921E-5,7.0496604E-2,2.5621712E-5,1.734833E-7,6.919378E-2,2.4382361E-4,4.57041E-5,-1.2327105E-4,2.2358403E-5,2.1332875E-5,2.8849067E-4,-1.6291147E-4,7.831259E-5],"split_indices":[2,8,8,4,10,6,3,0,0,0,0,0,0,0,0],"split_type":[0,0,0,0,0,0,0,0,0,0,0,0,0,0,0],"sum_hessian":[8.6E1,6.6E1,2E1,4E0,6.2E1,8E0,1.2E1,3E0,1E0,3E1,3.2E1,1E0,7E0,5E0,7E0],"tree_param":{"num_deleted":"0","num_feature":"13","num_nodes":"15","size_leaf_vector":"1"}},{"base_weights":[2.9716684E-6,-1.430143E-3,1.8666622E-4,-2.6864026E-4,-3.1052373E-4,1.9330427E-3,-9.858093E-5,-1.389502E-4,1.6890094E-4,1.3561609E-5,3.4082955E-4,-1.538877E-4,3.0332687E-5],"categories":[],"categories_nodes":[],"categories_segments":[],"categories_sizes":[],"default_left":[0,0,0,0,0,0,0,0,0,0,0,0,0],"id":29,"left_children":[1,3,5,7,-1,9,11,-1,-1,-1,-1,-1,-1],"loss_changes":[2.3170178E-5,1.8622071E-5,3.9046176E-5,1.7706663E-5,0E0,2.8706021E-5,3.9829683E-5,0E0,0E0,0E0,0E0,0E0,0E0],"parents":[2147483647,0,0,1,1,2,2,3,3,5,5,6,6],"right_children":[2,4,6,8,-1,10,12,-1,-1,-1,-1,-1,-1],"split_conditions":[5.9655458E-2,6.976904E-2,6.377517E-2,4.4902973E-3,-3.1052373E-4,6.2383864E-2,6.645269E-2,-1.389502E-4,1.6890094E-4,1.3561609E-5,3.4082955E-4,-1.538877E-4,3.0332687E-5],"split_indices":[1,4,1,11,0,0,7,0,0,0,0,0,0],"split_type":[0,0,0,0,0,0,0,0,0,0,0,0,0],"sum_hessian":[8.6E1,9E0,7.7E1,6E0,3E0,1E1,6.7E1,4E0,2E0,5E0,5E0,1.4E1,5.3E1],"tree_param":{"num_deleted":"0","num_feature":"13","num_nodes":"13","size_leaf_vector":"1"}},{"base_weights":[2.1038898E-6,-2.2542765E-3,1.0952553E-4,-1.8806755E-5,-2.8803237E-4,-2.1575476E-4,2.201276E-4,1.8693731E-4,-1.1991606E-6],"categories":[],"categories_nodes":[],"categories_segments":[],"categories_sizes":[],"default_left":[0,0,0,0,0,0,0,0,0],"id":30,"left_children":[1,3,5,-1,-1,-1,7,-1,-1],"loss_changes":[2.1334316E-5,4.632482E-6,2.1537342E-5,0E0,0E0,0E0,3.103096E-5,0E0,0E0],"parents":[2147483647,0,0,1,1,2,2,6,6],"right_children":[2,4,6,-1,-1,-1,8,-1,-1],"split_conditions":[5.7104923E-2,5.8910403E-2,5.7104923E-2,-1.8806755E-5,-2.8803237E-4,-2.1575476E-4,6.1162293E-2,1.8693731E-4,-1.1991606E-6],"split_indices":[0,2,4,0,0,0,4,0,0],"split_type":[0,0,0,0,0,0,0,0,0],"sum_hessian":[8.6E1,3E0,8.3E1,1E0,2E0,3E0,8E1,9E0,7.1E1],"tree_param":{"num_deleted":"0","num_feature":"13","num_nodes":"9","size_leaf_vector":"1"}},{"base_weights":[-1.977915E-6,1.9948646E-4,-1.2224581E-4,-4.328271E-4,8.1531936E-4,-1.1258568E-4,1.9139983E-5,2.3382148E-4,-3.0170984E-5],"categories":[],"categories_nodes":[],"categories_segments":[],"categories_sizes":[],"default_left":[0,0,0,0,0,0,0,0,0],"id":31,"left_children":[1,-1,3,5,7,-1,-1,-1,-1],"loss_changes":[2.1137439E-5,0E0,2.452168E-5,2.746978E-5,3.642896E-5,0E0,0E0,0E0,0E0],"parents":[2147483647,0,0,2,2,3,3,4,4],"right_children":[2,-1,4,6,8,-1,-1,-1,-1],"split_conditions":[2.5338218E-6,1.9948646E-4,7.3562555E-2,2.0467778E-5,1.7447921E-5,-1.1258568E-4,1.9139983E-5,2.3382148E-4,-3.0170984E-5],"split_indices":[8,0,2,8,8,0,0,0,0],"split_type":[0,0,0,0,0,0,0,0,0],"sum_hessian":[8.6E1,4E0,8.2E1,6.2E1,2E1,2.9E1,3.3E1,8E0,1.2E1],"tree_param":{"num_deleted":"0","num_feature":"13","num_nodes":"9","size_leaf_vector":"1"}},{"base_weights":[1.778719E-6,-8.562909E-4,2.54126E-4,-1.806994E-4,-2.846926E-4,4.3434693E-4,-9.7558316E-4,-1.977434E-4,5.8299833E-5,-4.0599258E-5,8.336748E-5,-1.6258947E-4,2.1134541E-4],"categories":[],"categories_nodes":[],"categories_segments":[],"categories_sizes":[],"default_left":[0,0,0,0,0,0,0,0,0,0,0,0,0],"id":32,"left_children":[1,3,5,7,-1,9,11,-1,-1,-1,-1,-1,-1],"loss_changes":[1.9055851E-5,2.6382682E-5,1.5493857E-5,2.3107434E-5,0E0,2.0472722E-5,2.151578E-5,0E0,0E0,0E0,0E0,0E0,0E0],"parents":[2147483647,0,0,1,1,2,2,3,3,5,5,6,6],"right_children":[2,4,6,8,-1,10,12,-1,-1,-1,-1,-1,-1],"split_conditions":[6.452853E-2,6.423359E-2,4.41923E-5,5.8910403E-2,-2.846926E-4,8.647542E-6,7.5218044E-2,-1.977434E-4,5.8299833E-5,-4.0599258E-5,8.336748E-5,-1.6258947E-4,2.1134541E-4],"split_indices":[7,7,8,0,0,8,0,0,0,0,0,0,0],"split_type":[0,0,0,0,0,0,0,0,0,0,0,0,0],"sum_hessian":[8.6E1,1.9E1,6.7E1,1.5E1,4E0,5.9E1,8E0,4E0,1.1E1,1.9E1,4E1,7E0,1E0],"tree_param":{"num_deleted":"0","num_feature":"13","num_nodes":"13","size_leaf_vector":"1"}},{"base_weights":[-2.221472E-6,2.0938218E-4,-1.0200661E-4,-2.7091592E-4,1.175014E-3,7.8699246E-5,-4.650407E-5,-1.4120713E-4,1.6193646E-4],"categories":[],"categories_nodes":[],"categories_segments":[],"categories_sizes":[],"default_left":[0,0,0,0,0,0,0,0,0],"id":33,"left_children":[1,-1,3,5,7,-1,-1,-1,-1],"loss_changes":[1.8409979E-5,0E0,1.8437186E-5,1.5768448E-5,1.3782389E-5,0E0,0E0,0E0,0E0],"parents":[2147483647,0,0,2,2,3,3,4,4],"right_children":[2,-1,4,6,8,-1,-1,-1,-1],"split_conditions":[1.7346255E-6,2.0938218E-4,7.6170675E-2,6.092343E-2,6.527688E-2,7.8699246E-5,-4.650407E-5,-1.4120713E-4,1.6193646E-4],"split_indices":[8,0,5,3,1,0,0,0,0],"split_type":[0,0,0,0,0,0,0,0,0],"sum_hessian":[8.6E1,3E0,8.3E1,7.4E1,9E0,1.1E1,6.3E1,1E0,8E0],"tree_param":{"num_deleted":"0","num_feature":"13","num_nodes":"9","size_leaf_vector":"1"}},{"base_weights":[1.0167473E-6,-8.0430566E-4,2.3786131E-4,6.0460763E-4,-1.6094595E-3,3.6371604E-4,-1.4206514E-4,1.9980117E-4,-1.2882995E-4,7.8612815E-5,-2.1164872E-4,5.669693E-5,-7.905484E-5],"categories":[],"categories_nodes":[],"categories_segments":[],"categories_sizes":[],"default_left":[0,0,0,0,0,0,0,0,0,0,0,0,0],"id":34,"left_children":[1,3,5,7,9,11,-1,-1,-1,-1,-1,-1,-1],"loss_changes":[1.6785367E-5,2.366093E-5,1.4710466E-5,2.3674713E-5,1.7454011E-5,1.5463127E-5,0E0,0E0,0E0,0E0,0E0,0E0,0E0],"parents":[2147483647,0,0,1,1,2,2,3,3,4,4,5,5],"right_children":[2,4,6,8,10,12,-1,-1,-1,-1,-1,-1,-1],"split_conditions":[6.452853E-2,5.928415E-2,7.994485E-2,6.377517E-2,1.6279602E-5,4.3367447E-5,-1.4206514E-4,1.9980117E-4,-1.2882995E-4,7.8612815E-5,-2.1164872E-4,5.669693E-5,-7.905484E-5],"split_indices":[7,2,4,1,8,8,0,0,0,0,0,0,0],"split_type":[0,0,0,0,0,0,0,0,0,0,0,0,0],"sum_hessian":[8.6E1,1.9E1,6.7E1,7E0,1.2E1,6.3E1,4E0,4E0,3E0,2E0,1E1,5.4E1,9E0],"tree_param":{"num_deleted":"0","num_feature":"13","num_nodes":"13","size_leaf_vector":"1"}},{"base_weights":[-1.6891408E-6,3.390581E-4,-5.428263E-4,5.317118E-4,-1.6552903E-3,3.085762E-4,-1.5199401E-3,9.779142E-6,1.7591937E-4,-2.2286447E-4,3.1906366E-5,-3.7770424E-5,1.8584679E-4,-8.095621E-5,-2.9208593E-4],"categories":[],"categories_nodes":[],"categories_segments":[],"categories_sizes":[],"default_left":[0,0,0,0,0,0,0,0,0,0,0,0,0,0,0],"id":35,"left_children":[1,3,5,7,9,11,13,-1,-1,-1,-1,-1,-1,-1,-1],"loss_changes":[1.6226068E-5,2.162794E-5,2.87542E-5,2.6459435E-5,6.3711013E-6,2.0911497E-5,1.3558296E-5,0E0,0E0,0E0,0E0,0E0,0E0,0E0,0E0],"parents":[2147483647,0,0,1,1,2,2,3,3,4,4,5,5,6,6],"right_children":[2,4,6,8,10,12,14,-1,-1,-1,-1,-1,-1,-1,-1],"split_conditions":[7.094537E-2,6.72463E-5,1.7447921E-5,3.4783916E-5,7.0496604E-2,7.3562555E-2,2.4043234E-2,9.779142E-6,1.7591937E-4,-2.2286447E-4,3.1906366E-5,-3.7770424E-5,1.8584679E-4,-8.095621E-5,-2.9208593E-4],"split_indices":[4,10,8,10,1,2,12,0,0,0,0,0,0,0,0],"split_type":[0,0,0,0,0,0,0,0,0,0,0,0,0,0,0],"sum_hessian":[8.6E1,5.3E1,3.3E1,4.9E1,4E0,1.8E1,1.5E1,3.7E1,1.2E1,3E0,1E0,1.3E1,5E0,1.1E1,4E0],"tree_param":{"num_deleted":"0","num_feature":"13","num_nodes":"15","size_leaf_vector":"1"}},{"base_weights":[-4.1676576E-6,1.6835854E-4,-1.0578931E-4,-3.5463605E-4,6.457885E-4,-9.648579E-5,1.9422547E-5,-8.334336E-5,1.4449305E-4],"categories":[],"categories_nodes":[],"categories_segments":[],"categories_sizes":[],"default_left":[0,0,0,0,0,0,0,0,0],"id":36,"left_children":[1,-1,3,5,7,-1,-1,-1,-1],"loss_changes":[1.509967E-5,0E0,1.5752315E-5,2.128782E-5,2.6028529E-5,0E0,0E0,0E0,0E0],"parents":[2147483647,0,0,2,2,3,3,4,4],"right_children":[2,-1,4,6,8,-1,-1,-1,-1],"split_conditions":[2.5338218E-6,1.6835854E-4,7.3562555E-2,2.0467778E-5,6.919378E-2,-9.648579E-5,1.9422547E-5,-8.334336E-5,1.4449305E-4],"split_indices":[8,0,2,8,3,0,0,0,0],"split_type":[0,0,0,0,0,0,0,0,0],"sum_hessian":[8.6E1,4E0,8.2E1,6.2E1,2E1,2.9E1,3.3E1,7E0,1.3E1],"tree_param":{"num_deleted":"0","num_feature":"13","num_nodes":"9","size_leaf_vector":"1"}},{"base_weights":[-2.0000527E-6,8.2873165E-5,-1.7838377E-4,4.620918E-4,-4.8839225E-4,-1.8339166E-5,9.580928E-5,3.115527E-5,-1.4078023E-4],"categories":[],"categories_nodes":[],"categories_segments":[],"categories_sizes":[],"default_left":[0,0,0,0,0,0,0,0,0],"id":37,"left_children":[1,3,-1,5,7,-1,-1,-1,-1],"loss_changes":[1.3304866E-5,1.8422981E-5,0E0,1.6503885E-5,2.5444839E-5,0E0,0E0,0E0,0E0],"parents":[2147483647,0,0,1,1,3,3,4,4],"right_children":[2,4,-1,6,8,-1,-1,-1,-1],"split_conditions":[9.702284E-5,7.094537E-2,-1.7838377E-4,2.3932067E-5,1.7447921E-5,-1.8339166E-5,9.580928E-5,3.115527E-5,-1.4078023E-4],"split_indices":[6,4,0,10,8,0,0,0,0],"split_type":[0,0,0,0,0,0,0,0,0],"sum_hessian":[8.6E1,8.3E1,3E0,5E1,3.3E1,2.2E1,2.8E1,1.8E1,1.5E1],"tree_param":{"num_deleted":"0","num_feature":"13","num_nodes":"9","size_leaf_vector":"1"}},{"base_weights":[-4.220968E-6,-5.420669E-4,2.8836576E-4,1.7292218E-4,-1.4226194E-3,1.3157632E-3,1.408022E-5,-4.7000645E-5,2.5406742E-4,1.0832675E-4,-2.533301E-4,2.6289225E-4,5.8594098E-5,1.2380556E-4,-2.3735267E-5],"categories":[],"categories_nodes":[],"categories_segments":[],"categories_sizes":[],"default_left":[0,0,0,0,0,0,0,0,0,0,0,0,0,0,0],"id":38,"left_children":[1,3,5,7,9,11,13,-1,-1,-1,-1,-1,-1,-1,-1],"loss_changes":[1.3847205E-5,1.9763153E-5,1.604409E-5,2.8595452E-5,4.1709638E-5,9.96008E-6,1.4450248E-5,0E0,0E0,0E0,0E0,0E0,0E0,0E0,0E0],"parents":[2147483647,0,0,1,1,2,2,3,3,4,4,5,5,6,6],"right_children":[2,4,6,8,10,12,14,-1,-1,-1,-1,-1,-1,-1,-1],"split_conditions":[6.645269E-2,6.442821E-2,6.702372E-2,6.331486E-2,6.1587255E-2,1.716278E-5,6.600022E-2,-4.7000645E-5,2.5406742E-4,1.0832675E-4,-2.533301E-4,2.6289225E-4,5.8594098E-5,1.2380556E-4,-2.3735267E-5],"split_indices":[7,1,5,1,3,10,2,0,0,0,0,0,0,0,0],"split_type":[0,0,0,0,0,0,0,0,0,0,0,0,0,0,0],"sum_hessian":[8.6E1,3E1,5.6E1,1.7E1,1.3E1,1.1E1,4.5E1,1.4E1,3E0,4E0,9E0,3E0,8E0,7E0,3.8E1],"tree_param":{"num_deleted":"0","num_feature":"13","num_nodes":"15","size_leaf_vector":"1"}},{"base_weights":[1.7609918E-6,1.7925445E-4,-8.353538E-5,-3.075903E-4,6.0327654E-4,-8.168725E-5,1.9558E-5,1.7725553E-4,-2.5262998E-5],"categories":[],"categories_nodes":[],"categories_segments":[],"categories_sizes":[],"default_left":[0,0,0,0,0,0,0,0,0],"id":39,"left_children":[1,-1,3,5,7,-1,-1,-1,-1],"loss_changes":[1.3438758E-5,0E0,1.3111783E-5,1.6560127E-5,2.1464457E-5,0E0,0E0,0E0,0E0],"parents":[2147483647,0,0,2,2,3,3,4,4],"right_children":[2,-1,4,6,8,-1,-1,-1,-1],"split_conditions":[1.7346255E-6,1.7925445E-4,7.3562555E-2,2.5621712E-5,1.7447921E-5,-8.168725E-5,1.9558E-5,1.7725553E-4,-2.5262998E-5],"split_indices":[8,0,2,10,8,0,0,0,0],"split_type":[0,0,0,0,0,0,0,0,0],"sum_hessian":[8.6E1,3E0,8.3E1,6.3E1,2E1,3.1E1,3.2E1,8E0,1.2E1],"tree_param":{"num_deleted":"0","num_feature":"13","num_nodes":"9","size_leaf_vector":"1"}},{"base_weights":[4.678793E-6,-1.6995697E-4,8.577778E-5,1.4214196E-3,-9.345149E-5,3.599624E-5,2.4108843E-4,-1.0271291E-4,1.5708674E-5],"categories":[],"categories_nodes":[],"categories_segments":[],"categories_sizes":[],"default_left":[0,0,0,0,0,0,0,0,0],"id":40,"left_children":[1,-1,3,5,7,-1,-1,-1,-1],"loss_changes":[1.2170301E-5,0E0,2.0241265E-5,9.634918E-6,1.7705492E-5,0E0,0E0,0E0,0E0],"parents":[2147483647,0,0,2,2,3,3,4,4],"right_children":[2,-1,4,6,8,-1,-1,-1,-1],"split_conditions":[5.7104923E-2,-1.6995697E-4,6.1162293E-2,6.4753585E-2,6.451029E-2,3.599624E-5,2.4108843E-4,-1.0271291E-4,1.5708674E-5],"split_indices":[4,0,4,5,7,0,0,0,0],"split_type":[0,0,0,0,0,0,0,0,0],"sum_hessian":[8.6E1,3E0,8.3E1,9E0,7.4E1,5E0,4E0,1.5E1,5.9E1],"tree_param":{"num_deleted":"0","num_feature":"13","num_nodes":"9","size_leaf_vector":"1"}},{"base_weights":[4.4443996E-6,1.67593E-4,-7.5203054E-5,-1.8228122E-4,1.128697E-3,3.8491653E-6,-9.2032926E-5,-7.576049E-5,1.5693481E-4],"categories":[],"categories_nodes":[],"categories_segments":[],"categories_sizes":[],"default_left":[0,0,0,0,0,0,0,0,0],"id":41,"left_children":[1,-1,3,5,7,-1,-1,-1,-1],"loss_changes":[1.1708307E-5,0E0,1.1034299E-5,1.2744821E-5,7.007352E-6,0E0,0E0,0E0,0E0],"parents":[2147483647,0,0,2,2,3,3,4,4],"right_children":[2,-1,4,6,8,-1,-1,-1,-1],"split_conditions":[1.7346255E-6,1.67593E-4,7.8028984E-2,7.3097646E-2,6.896437E-2,3.8491653E-6,-9.2032926E-5,-7.576049E-5,1.5693481E-4],"split_indices":[8,0,0,0,1,0,0,0,0],"split_type":[0,0,0,0,0,0,0,0,0],"sum_hessian":[8.6E1,3E0,8.3E1,7.7E1,6E0,6E1,1.7E1,1E0,5E0],"tree_param":{"num_deleted":"0","num_feature":"13","num_nodes":"9","size_leaf_vector":"1"}},{"base_weights":[5.8437386E-6,-1.551021E-4,7.9910584E-5,1.3131096E-3,-8.558144E-5,-3.7285437E-5,1.7812075E-4,-9.3868584E-5,1.4333942E-5],"categories":[],"categories_nodes":[],"categories_segments":[],"categories_sizes":[],"default_left":[0,0,0,0,0,0,0,0,0],"id":42,"left_children":[1,-1,3,5,7,-1,-1,-1,-1],"loss_changes":[1.0156091E-5,0E0,1.7255485E-5,8.556093E-6,1.47815545E-5,0E0,0E0,0E0,0E0],"parents":[2147483647,0,0,2,2,3,3,4,4],"right_children":[2,-1,4,6,8,-1,-1,-1,-1],"split_conditions":[5.7104923E-2,-1.551021E-4,6.1162293E-2,5.739191E-2,6.451029E-2,-3.7285437E-5,1.7812075E-4,-9.3868584E-5,1.4333942E-5],"split_indices":[4,0,4,3,7,0,0,0,0],"split_type":[0,0,0,0,0,0,0,0,0],"sum_hessian":[8.6E1,3E0,8.3E1,9E0,7.4E1,2E0,7E0,1.5E1,5.9E1],"tree_param":{"num_deleted":"0","num_feature":"13","num_nodes":"9","size_leaf_vector":"1"}},{"base_weights":[4.1805893E-6,1.5665349E-4,-7.0267E-5,-1.6677432E-4,1.0151385E-3,3.480105E-6,-8.4062565E-5,-7.2689356E-5,1.426626E-4],"categories":[],"categories_nodes":[],"categories_segments":[],"categories_sizes":[],"default_left":[0,0,0,0,0,0,0,0,0],"id":43,"left_children":[1,-1,3,5,7,-1,-1,-1,-1],"loss_changes":[1.0229352E-5,0E0,8.968263E-6,1.0624137E-5,6.0547773E-6,0E0,0E0,0E0,0E0],"parents":[2147483647,0,0,2,2,3,3,4,4],"right_children":[2,-1,4,6,8,-1,-1,-1,-1],"split_conditions":[1.7346255E-6,1.5665349E-4,7.8028984E-2,7.3097646E-2,6.896437E-2,3.480105E-6,-8.4062565E-5,-7.2689356E-5,1.426626E-4],"split_indices":[8,0,0,0,1,0,0,0,0],"split_type":[0,0,0,0,0,0,0,0,0],"sum_hessian":[8.6E1,3E0,8.3E1,7.7E1,6E0,6E1,1.7E1,1E0,5E0],"tree_param":{"num_deleted":"0","num_feature":"13","num_nodes":"9","size_leaf_vector":"1"}},{"base_weights":[5.441921E-6,2.633834E-4,-4.043899E-4,-4.9496117E-5,1.0095658E-3,2.851833E-4,-1.1979837E-3,9.447443E-5,-7.102608E-5,-4.9499173E-5,1.2598591E-4,-2.1329655E-5,1.4007725E-4,-5.875174E-5,-2.4235062E-4],"categories":[],"categories_nodes":[],"categories_segments":[],"categories_sizes":[],"default_left":[0,0,0,0,0,0,0,0,0,0,0,0,0,0,0],"id":44,"left_children":[1,3,5,7,9,11,13,-1,-1,-1,-1,-1,-1,-1,-1],"loss_changes":[9.303508E-6,1.2657089E-5,1.8947841E-5,2.6292413E-5,6.64891E-6,1.08646545E-5,1.054639E-5,0E0,0E0,0E0,0E0,0E0,0E0,0E0,0E0],"parents":[2147483647,0,0,1,1,2,2,3,3,4,4,5,5,6,6],"right_children":[2,4,6,8,10,12,14,-1,-1,-1,-1,-1,-1,-1,-1],"split_conditions":[7.094537E-2,7.157545E-2,1.7447921E-5,6.377517E-2,8.589798E-6,7.3562555E-2,2.4043234E-2,9.447443E-5,-7.102608E-5,-4.9499173E-5,1.2598591E-4,-2.1329655E-5,1.4007725E-4,-5.875174E-5,-2.4235062E-4],"split_indices":[4,1,8,1,8,2,12,0,0,0,0,0,0,0,0],"split_type":[0,0,0,0,0,0,0,0,0,0,0,0,0,0,0],"sum_hessian":[8.6E1,5.3E1,3.3E1,3.8E1,1.5E1,1.8E1,1.5E1,1.5E1,2.3E1,2E0,1.3E1,1.3E1,5E0,1.1E1,4E0],"tree_param":{"num_deleted":"0","num_feature":"13","num_nodes":"15","size_leaf_vector":"1"}},{"base_weights":[3.950863E-6,-1.2935117E-3,8.2063656E-5,1.4483184E-5,-2.3006846E-4,7.8979443E-4,-9.873465E-5,1.00885445E-5,2.422999E-4,-1.1470347E-4,1.7487528E-5],"categories":[],"categories_nodes":[],"categories_segments":[],"categories_sizes":[],"default_left":[0,0,0,0,0,0,0,0,0,0,0],"id":45,"left_children":[1,3,5,-1,-1,7,9,-1,-1,-1,-1],"loss_changes":[8.923464E-6,7.5765156E-6,1.0698371E-5,0E0,0E0,1.888275E-5,1.9417883E-5,0E0,0E0,0E0,0E0],"parents":[2147483647,0,0,1,1,2,2,5,5,6,6],"right_children":[2,4,6,-1,-1,8,10,-1,-1,-1,-1],"split_conditions":[5.739191E-2,5.8910403E-2,6.442821E-2,1.4483184E-5,-2.3006846E-4,6.331486E-2,6.645269E-2,1.00885445E-5,2.422999E-4,-1.1470347E-4,1.7487528E-5],"split_indices":[1,3,1,0,0,1,7,0,0,0,0],"split_type":[0,0,0,0,0,0,0,0,0,0,0],"sum_hessian":[8.6E1,4E0,8.2E1,2E0,2E0,1.6E1,6.6E1,1.2E1,4E0,1.3E1,5.3E1],"tree_param":{"num_deleted":"0","num_feature":"13","num_nodes":"11","size_leaf_vector":"1"}}]},"name":"gbtree"},"learner_model_param":{"base_score":"6.8555094E-2","boost_from_average":"1","num_class":"0","num_feature":"13","num_target":"1"},"objective":{"name":"reg:squarederror","reg_loss_param":{"scale_pos_weight":"1"}}},"version":[2,1,1]}