{"learner":{"attributes":{"best_iteration":"17","best_score":"0.01933742496020857","scikit_learn":"{\"_estimator_type\": \"regressor\"}"},"feature_names":["cpu_lag1","cpu_lag2","cpu_lag3","cpu_lag5","cpu_lag10","cpu_rmean30s","cpu_rvar30s","cpu_rmean60s","cpu_rvar60s","cpu_rmean120s","cpu_rvar120s","cpu_diff1","cpu_logdiff1"],"feature_types":["float","float","float","float","float","float","float","float","float","float","float","float","float"],"gradient_booster":{"model":{"gbtree_model_param":{"num_parallel_tree":"1","num_trees":"38"},"iteration_indptr":[0,1,2,3,4,5,6,7,8,9,10,11,12,13,14,15,16,17,18,19,20,21,22,23,24,25,26,27,28,29,30,31,32,33,34,35,36,37,38],"tree_info":[0,0,0,0,0,0,0,0,0,0,0,0,0,0,0,0,0,0,0,0,0,0,0,0,0,0,0,0,0,0,0,0,0,0,0,0,0,0],"trees":[{"base_weights":[1.1091659E-9,-6.792846E-2,3.0326774E-2,-6.8411715E-2,-3.2785106E-2,1.7221918E-2,8.938204E-2,-1.3708037E-2,-7.99469E-3,-9.027604E-3,3.1116277E-3,2.9514886E-3,6.01877E-3,1.3977683E-2,1.9845612E-2],"categories":[],"categories_nodes":[],"categories_segments":[],"categories_sizes":[],"default_left":[0,0,0,0,0,0,0,0,0,0,0,0,0,0,0],"id":0,"left_children":[1,3,5,7,9,11,13,-1,-1,-1,-1,-1,-1,-1,-1],"loss_changes":[6.9279523E0,1.5385151E-2,1.7978034E0,9.980202E-4,1.0257142E-2,5.9955597E-2,7.406163E-2,0E0,0E0,0E0,0E0,0E0,0E0,0E0,0E0],"parents":[2147483647,0,0,1,1,2,2,3,3,4,4,5,5,6,6],"right_children":[2,4,6,8,10,12,14,-1,-1,-1,-1,-1,-1,-1,-1],"split_conditions":[3.9913476E-2,2.2192365E-2,1.20423056E-1,2.3448714E-3,7.7222643E-7,9.552543E-2,1.5968539E-1,-1.3708037E-2,-7.99469E-3,-9.027604E-3,3.1116277E-3,2.9514886E-3,6.01877E-3,1.3977683E-2,1.9845612E-2],"split_indices":[5,5,5,11,11,5,5,0,0,0,0,0,0,0,0],"split_type":[0,0,0,0,0,0,0,0,0,0,0,0,0,0,0],"sum_hessian":[3.361E3,1.037E3,2.324E3,1.022E3,1.5E1,1.903E3,4.21E2,1.016E3,6E0,1.2E1,3E0,1.599E3,3.04E2,1.44E2,2.77E2],"tree_param":{"num_deleted":"0","num_feature":"13","num_nodes":"15","size_leaf_vector":"1"}},{"base_weights":[4.514029E-6,-5.4369383E-2,2.4279825E-2,-5.4559927E-2,-4.090975E-3,1.3782245E-2,7.158578E-2,-1.0976666E-2,-7.732674E-3,-3.8151375E-3,5.5847876E-3,2.2644282E-3,4.4842465E-3,8.47585E-3,1.5376287E-2],"categories":[],"categories_nodes":[],"categories_segments":[],"categories_sizes":[],"default_left":[0,0,0,0,0,0,0,0,0,0,0,0,0,0,0],"id":1,"left_children":[1,3,5,7,9,11,13,-1,-1,-1,-1,-1,-1,-1,-1],"loss_changes":[4.4389696E0,9.721041E-3,1.1536041E0,3.1938553E-3,2.9313397E-3,4.021147E-2,6.201148E-2,0E0,0E0,0E0,0E0,0E0,0E0,0E0,0E0],"parents":[2147483647,0,0,1,1,2,2,3,3,4,4,5,5,6,6],"right_children":[2,4,6,8,10,12,14,-1,-1,-1,-1,-1,-1,-1,-1],"split_conditions":[3.9913476E-2,4.2084414E-3,1.20423056E-1,4.8345025E-3,2.2192365E-2,9.3419194E-2,-5.21859E-3,-1.0976666E-2,-7.732674E-3,-3.8151375E-3,5.5847876E-3,2.2644282E-3,4.4842465E-3,8.47585E-3,1.5376287E-2],"split_indices":[5,11,5,5,0,5,11,0,0,0,0,0,0,0,0],"split_type":[0,0,0,0,0,0,0,0,0,0,0,0,0,0,0],"sum_hessian":[3.361E3,1.037E3,2.324E3,1.033E3,4E0,1.903E3,4.21E2,1.01E3,2.3E1,3E0,1E0,1.483E3,4.2E2,6.6E1,3.55E2],"tree_param":{"num_deleted":"0","num_feature":"13","num_nodes":"15","size_leaf_vector":"1"}},{"base_weights":[7.676323E-6,-4.3511827E-2,1.9437024E-2,-4.377389E-2,-1.5065213E-2,1.171504E-2,6.197246E-2,-8.766371E-3,-1.8719531E-3,2.398089E-3,-6.447702E-3,2.0152389E-3,5.777591E-3,8.018419E-3,1.3048321E-2],"categories":[],"categories_nodes":[],"categories_segments":[],"categories_sizes":[],"default_left":[0,0,0,0,0,0,0,0,0,0,0,0,0,0,0],"id":2,"left_children":[1,3,5,7,9,11,13,-1,-1,-1,-1,-1,-1,-1,-1],"loss_changes":[2.8436036E0,7.0786476E-3,7.629389E-1,1.6403198E-3,5.497537E-3,5.5123955E-2,2.292049E-2,0E0,0E0,0E0,0E0,0E0,0E0,0E0,0E0],"parents":[2147483647,0,0,1,1,2,2,3,3,4,4,5,5,6,6],"right_children":[2,4,6,8,10,12,14,-1,-1,-1,-1,-1,-1,-1,-1],"split_conditions":[3.9913476E-2,1.9471551E-3,1.3714024E-1,3.294527E-2,7.2434115E-1,1.0418826E-1,-6.5461714E-3,-8.766371E-3,-1.8719531E-3,2.398089E-3,-6.447702E-3,2.0152389E-3,5.777591E-3,8.018419E-3,1.3048321E-2],"split_indices":[5,11,5,0,12,5,11,0,0,0,0,0,0,0,0],"split_type":[0,0,0,0,0,0,0,0,0,0,0,0,0,0,0],"sum_hessian":[3.361E3,1.037E3,2.324E3,1.027E3,1E1,1.968E3,3.56E2,1.025E3,2E0,4E0,6E0,1.798E3,1.7E2,4.8E1,3.08E2],"tree_param":{"num_deleted":"0","num_feature":"13","num_nodes":"15","size_leaf_vector":"1"}},{"base_weights":[1.0356016E-5,-3.4823608E-2,1.5562031E-2,-7.0194155E-3,-1.5162303E-2,9.3759885E-3,4.9636982E-2,-4.5271274E-3,2.5833212E-3,1.5205665E-3,4.08214E-3,1.038354E-2,4.9702083E-3],"categories":[],"categories_nodes":[],"categories_segments":[],"categories_sizes":[],"default_left":[0,0,0,0,0,0,0,0,0,0,0,0,0],"id":3,"left_children":[1,3,5,-1,7,9,11,-1,-1,-1,-1,-1,-1],"loss_changes":[1.8218266E0,5.048752E-3,4.8961926E-1,0E0,3.6498646E-3,3.8370773E-2,1.8890858E-2,0E0,0E0,0E0,0E0,0E0,0E0],"parents":[2147483647,0,0,1,1,2,2,4,4,5,5,6,6],"right_children":[2,4,6,-1,8,10,12,-1,-1,-1,-1,-1,-1],"split_conditions":[3.9913476E-2,2.2192365E-2,1.3714024E-1,-7.0194155E-3,7.7222643E-7,4.615645E-3,1.8371035E-1,-4.5271274E-3,2.5833212E-3,1.5205665E-3,4.08214E-3,1.038354E-2,4.9702083E-3],"split_indices":[5,5,5,0,11,11,4,0,0,0,0,0,0],"split_type":[0,0,0,0,0,0,0,0,0,0,0,0,0],"sum_hessian":[3.361E3,1.037E3,2.324E3,1.022E3,1.5E1,1.968E3,3.56E2,1.2E1,3E0,1.697E3,2.71E2,3.25E2,3.1E1],"tree_param":{"num_deleted":"0","num_feature":"13","num_nodes":"13","size_leaf_vector":"1"}},{"base_weights":[1.18513735E-5,-2.7867522E-2,1.2458637E-2,-2.8045963E-2,-8.657958E-3,7.248079E-3,3.885983E-2,-5.6171482E-3,-1.0187418E-3,3.0152686E-3,-3.8885728E-3,6.855035E-4,2.33989E-3,-6.3243913E-3,7.899896E-3],"categories":[],"categories_nodes":[],"categories_segments":[],"categories_sizes":[],"default_left":[0,0,0,0,0,0,0,0,0,0,0,0,0,0,0],"id":4,"left_children":[1,3,5,7,9,11,13,-1,-1,-1,-1,-1,-1,-1,-1],"loss_changes":[1.16699E0,3.31527E-3,3.1955683E-1,7.95424E-4,3.1088213E-3,3.3004E-2,1.8516123E-2,0E0,0E0,0E0,0E0,0E0,0E0,0E0,0E0],"parents":[2147483647,0,0,1,1,2,2,3,3,4,4,5,5,6,6],"right_children":[2,4,6,8,10,12,14,-1,-1,-1,-1,-1,-1,-1,-1],"split_conditions":[3.9913476E-2,1.9471551E-3,1.3026763E-1,3.294527E-2,3.0590704E-1,8.7145865E-2,4.213641E-2,-5.6171482E-3,-1.0187418E-3,3.0152686E-3,-3.8885728E-3,6.855035E-4,2.33989E-3,-6.3243913E-3,7.899896E-3],"split_indices":[5,11,5,0,12,5,3,0,0,0,0,0,0,0,0],"split_type":[0,0,0,0,0,0,0,0,0,0,0,0,0,0,0],"sum_hessian":[3.361E3,1.037E3,2.324E3,1.027E3,1E1,1.942E3,3.82E2,1.025E3,2E0,3E0,7E0,1.046E3,8.96E2,3E0,3.79E2],"tree_param":{"num_deleted":"0","num_feature":"13","num_nodes":"15","size_leaf_vector":"1"}},{"base_weights":[8.615171E-6,-2.1951342E-2,1.0171897E-2,-2.2274507E-2,3.877118E-3,5.5253706E-3,2.9304521E-2,-4.4642203E-3,2.665057E-3,2.0339745E-3,-2.8794468E-3,1.0039093E-3,5.6602135E-3,6.9571557E-3,3.6513675E-3],"categories":[],"categories_nodes":[],"categories_segments":[],"categories_sizes":[],"default_left":[0,0,0,0,0,0,0,0,0,0,0,0,0,0,0],"id":5,"left_children":[1,3,5,7,9,11,13,-1,-1,-1,-1,-1,-1,-1,-1],"loss_changes":[7.505721E-1,8.9674E-3,2.0421976E-1,2.0408034E-3,1.7563619E-3,2.1182384E-2,2.6554167E-2,0E0,0E0,0E0,0E0,0E0,0E0,0E0,0E0],"parents":[2147483647,0,0,1,1,2,2,3,3,4,4,5,5,6,6],"right_children":[2,4,6,8,10,12,14,-1,-1,-1,-1,-1,-1,-1,-1],"split_conditions":[5.4309346E-2,4.2084414E-3,1.1602057E-1,6.482027E-2,8.934757E-2,2.6757885E-2,1.7337273E-1,-4.4642203E-3,2.665057E-3,2.0339745E-3,-2.8794468E-3,1.0039093E-3,5.6602135E-3,6.9571557E-3,3.6513675E-3],"split_indices":[5,11,5,0,3,11,4,0,0,0,0,0,0,0,0],"split_type":[0,0,0,0,0,0,0,0,0,0,0,0,0,0,0],"sum_hessian":[3.361E3,1.063E3,2.298E3,1.05E3,1.3E1,1.85E3,4.48E2,1.049E3,1E0,1E1,3E0,1.811E3,3.9E1,2.98E2,1.5E2],"tree_param":{"num_deleted":"0","num_feature":"13","num_nodes":"15","size_leaf_vector":"1"}},{"base_weights":[1.1244646E-5,-1.6878838E-2,8.558393E-3,-1.782571E-2,3.093313E-3,5.3370725E-3,2.7052699E-2,-3.532634E-3,-7.037451E-3,-2.4312474E-3,1.2284473E-3,9.6399226E-4,7.0842626E-3,4.547137E-3,6.871428E-3],"categories":[],"categories_nodes":[],"categories_segments":[],"categories_sizes":[],"default_left":[0,0,0,0,0,0,0,0,0,0,0,0,0,0,0],"id":6,"left_children":[1,3,5,7,9,11,13,-1,-1,-1,-1,-1,-1,-1,-1],"loss_changes":[4.8548967E-1,2.1424621E-2,1.3288902E-1,2.423346E-3,2.4923915E-3,2.9434066E-2,9.656414E-3,0E0,0E0,0E0,0E0,0E0,0E0,0E0,0E0],"parents":[2147483647,0,0,1,1,2,2,3,3,4,4,5,5,6,6],"right_children":[2,4,6,8,10,12,14,-1,-1,-1,-1,-1,-1,-1,-1],"split_conditions":[6.626013E-2,1.9471551E-3,1.456706E-1,8.3094746E-2,2.2192365E-2,3.0605342E-2,1.8094935E-1,-3.532634E-3,-7.037451E-3,-2.4312474E-3,1.2284473E-3,9.6399226E-4,7.0842626E-3,4.547137E-3,6.871428E-3],"split_indices":[5,11,5,9,7,11,5,0,0,0,0,0,0,0,0],"split_type":[0,0,0,0,0,0,0,0,0,0,0,0,0,0,0],"sum_hessian":[3.361E3,1.129E3,2.232E3,1.078E3,5.1E1,1.902E3,3.3E2,1.07E3,8E0,8E0,4.3E1,1.871E3,3.1E1,2.1E2,1.2E2],"tree_param":{"num_deleted":"0","num_feature":"13","num_nodes":"15","size_leaf_vector":"1"}},{"base_weights":[1.1283399E-5,-1.351349E-2,6.8554315E-3,-1.4270364E-2,2.451522E-3,3.3122855E-3,1.8318988E-2,-2.8276618E-3,-6.4947843E-3,1.2376872E-3,-1.2686624E-3,3.0881455E-4,1.1909184E-3,8.070956E-4,4.3144966E-3],"categories":[],"categories_nodes":[],"categories_segments":[],"categories_sizes":[],"default_left":[0,0,0,0,0,0,0,0,0,0,0,0,0,0,0],"id":7,"left_children":[1,3,5,7,9,11,13,-1,-1,-1,-1,-1,-1,-1,-1],"loss_changes":[3.1129804E-1,1.3689339E-2,9.0637214E-2,2.134651E-3,1.7482631E-3,7.966185E-3,2.4403319E-2,0E0,0E0,0E0,0E0,0E0,0E0,0E0,0E0],"parents":[2147483647,0,0,1,1,2,2,3,3,4,4,5,5,6,6],"right_children":[2,4,6,8,10,12,14,-1,-1,-1,-1,-1,-1,-1,-1],"split_conditions":[6.626013E-2,1.9471551E-3,1.0418826E-1,7.4062176E-2,4.5191488E-1,8.7860346E-2,-1.978683E-2,-2.8276618E-3,-6.4947843E-3,1.2376872E-3,-1.2686624E-3,3.0881455E-4,1.1909184E-3,8.070956E-4,4.3144966E-3],"split_indices":[5,11,5,7,12,5,12,0,0,0,0,0,0,0,0],"split_type":[0,0,0,0,0,0,0,0,0,0,0,0,0,0,0],"sum_hessian":[3.361E3,1.129E3,2.232E3,1.078E3,5.1E1,1.706E3,5.26E2,1.072E3,6E0,3.6E1,1.5E1,1.023E3,6.83E2,9.8E1,4.28E2],"tree_param":{"num_deleted":"0","num_feature":"13","num_nodes":"15","size_leaf_vector":"1"}},{"base_weights":[8.2154365E-6,-1.17108645E-2,5.1315534E-3,-1.19295E-2,-9.664181E-3,3.1692942E-3,1.8937396E-2,-2.3890864E-3,2.712084E-4,2.807875E-3,-2.3038965E-3,3.5137622E-4,2.1051278E-3,4.0994002E-3,5.857525E-4],"categories":[],"categories_nodes":[],"categories_segments":[],"categories_sizes":[],"default_left":[0,0,0,0,0,0,0,0,0,0,0,0,0,0,0],"id":8,"left_children":[1,3,5,7,9,11,13,-1,-1,-1,-1,-1,-1,-1,-1],"loss_changes":[2.019173E-1,3.424734E-4,6.333208E-2,2.1092594E-4,4.73536E-3,2.1281416E-2,7.2054192E-3,0E0,0E0,0E0,0E0,0E0,0E0,0E0,0E0],"parents":[2147483647,0,0,1,1,2,2,3,3,4,4,5,5,6,6],"right_children":[2,4,6,8,10,12,14,-1,-1,-1,-1,-1,-1,-1,-1],"split_conditions":[2.2192365E-2,3.1686585E-7,1.5658508E-1,2.9746455E-3,1.0825675E-3,3.5496892E-3,1.8371035E-1,-2.3890864E-3,2.712084E-4,2.807875E-3,-2.3038965E-3,3.5137622E-4,2.1051278E-3,4.0994002E-3,5.857525E-4],"split_indices":[5,10,5,0,1,11,4,0,0,0,0,0,0,0,0],"split_type":[0,0,0,0,0,0,0,0,0,0,0,0,0,0,0],"sum_hessian":[3.361E3,1.022E3,2.339E3,9.19E2,1.03E2,2.049E3,2.9E2,9.18E2,1E0,7E0,9.6E1,1.72E3,3.29E2,2.64E2,2.6E1],"tree_param":{"num_deleted":"0","num_feature":"13","num_nodes":"15","size_leaf_vector":"1"}},{"base_weights":[8.2167335E-6,-8.496302E-3,4.7816406E-3,-9.076088E-3,-8.82799E-5,2.2578007E-3,1.18417395E-2,-1.7669539E-3,-3.723224E-3,1.7358151E-3,-5.6352967E-4,1.7856133E-4,7.8633626E-4,1.8568182E-3,4.7100913E-3],"categories":[],"categories_nodes":[],"categories_segments":[],"categories_sizes":[],"default_left":[0,0,0,0,0,0,0,0,0,0,0,0,0,0,0],"id":9,"left_children":[1,3,5,7,9,11,13,-1,-1,-1,-1,-1,-1,-1,-1],"loss_changes":[1.3652329E-1,5.8928877E-3,3.8354445E-2,2.4393052E-3,1.9148724E-3,3.6248108E-3,1.6761191E-2,0E0,0E0,0E0,0E0,0E0,0E0,0E0,0E0],"parents":[2147483647,0,0,1,1,2,2,3,3,4,4,5,5,6,6],"right_children":[2,4,6,8,10,12,14,-1,-1,-1,-1,-1,-1,-1,-1],"split_conditions":[7.190865E-2,1.9471551E-3,1.01295955E-1,8.819278E-2,5.4799326E-2,8.7145865E-2,6.7534335E-3,-1.7669539E-3,-3.723224E-3,1.7358151E-3,-5.6352967E-4,1.7856133E-4,7.8633626E-4,1.8568182E-3,4.7100913E-3],"split_indices":[5,11,5,2,3,5,11,0,0,0,0,0,0,0,0],"split_type":[0,0,0,0,0,0,0,0,0,0,0,0,0,0,0],"sum_hessian":[3.361E3,1.208E3,2.153E3,1.13E3,7.8E1,1.587E3,5.66E2,1.104E3,2.6E1,1.8E1,6E1,8.75E2,7.12E2,4.66E2,1E2],"tree_param":{"num_deleted":"0","num_feature":"13","num_nodes":"15","size_leaf_vector":"1"}},{"base_weights":[7.5298863E-6,-7.5960704E-3,3.4640075E-3,-7.2547668E-3,-1.0237344E-2,1.6064211E-3,1.1104505E-2,-1.4966744E-3,5.536095E-3,-1.839013E-5,6.456354E-4,3.0556258E-3,6.483392E-4],"categories":[],"categories_nodes":[],"categories_segments":[],"categories_sizes":[],"default_left":[0,0,0,0,0,0,0,0,0,0,0,0,0],"id":10,"left_children":[1,3,5,7,-1,9,11,-1,-1,-1,-1,-1,-1],"loss_changes":[8.83853E-2,1.526507E-2,3.279611E-2,8.544914E-3,0E0,5.126132E-3,1.478349E-2,0E0,0E0,0E0,0E0,0E0,0E0],"parents":[2147483647,0,0,1,1,2,2,3,3,5,5,6,6],"right_children":[2,4,6,8,-1,10,12,-1,-1,-1,-1,-1,-1],"split_conditions":[3.5710797E-2,1.172913E-1,1.1411296E-1,1.7563393E-2,-1.0237344E-2,8.619858E-2,1.7337273E-1,-1.4966744E-3,5.536095E-3,-1.839013E-5,6.456354E-4,3.0556258E-3,6.483392E-4],"split_indices":[4,1,5,11,0,5,4,0,0,0,0,0,0],"split_type":[0,0,0,0,0,0,0,0,0,0,0,0,0],"sum_hessian":[3.361E3,1.05E3,2.311E3,1.043E3,7E0,1.86E3,4.51E2,1.037E3,6E0,9.09E2,9.51E2,2.94E2,1.57E2],"tree_param":{"num_deleted":"0","num_feature":"13","num_nodes":"13","size_leaf_vector":"1"}},{"base_weights":[5.4671946E-6,-5.5427197E-3,3.1195583E-3,-5.914781E-3,8.1756225E-5,2.141652E-3,1.3897345E-2,-1.1398849E-3,-3.1275076E-3,1.6818494E-3,-4.558124E-4,1.8394364E-4,1.7930244E-3,-5.695203E-3,2.859075E-3],"categories":[],"categories_nodes":[],"categories_segments":[],"categories_sizes":[],"default_left":[0,0,0,0,0,0,0,0,0,0,0,0,0,0,0],"id":11,"left_children":[1,3,5,7,9,11,13,-1,-1,-1,-1,-1,-1,-1,-1],"loss_changes":[5.8104444E-2,2.5304966E-3,2.2672685E-2,2.2853129E-3,1.5133016E-3,1.6467303E-2,3.4260675E-3,0E0,0E0,0E0,0E0,0E0,0E0,0E0,0E0],"parents":[2147483647,0,0,1,1,2,2,3,3,4,4,5,5,6,6],"right_children":[2,4,6,8,10,12,14,-1,-1,-1,-1,-1,-1,-1,-1],"split_conditions":[7.190865E-2,2.3448714E-3,1.7855555E-1,8.265591E-2,5.4799326E-2,3.5496892E-3,1.23249225E-1,-1.1398849E-3,-3.1275076E-3,1.6818494E-3,-4.558124E-4,1.8394364E-4,1.7930244E-3,-5.695203E-3,2.859075E-3],"split_indices":[5,11,0,9,3,11,1,0,0,0,0,0,0,0,0],"split_type":[0,0,0,0,0,0,0,0,0,0,0,0,0,0,0],"sum_hessian":[3.361E3,1.208E3,2.153E3,1.133E3,7.5E1,1.975E3,1.78E2,1.11E3,2.3E1,1.6E1,5.9E1,1.676E3,2.99E2,1E0,1.77E2],"tree_param":{"num_deleted":"0","num_feature":"13","num_nodes":"15","size_leaf_vector":"1"}},{"base_weights":[3.2154278E-6,-4.994453E-3,2.275078E-3,-4.7072032E-3,-8.371248E-3,1.4318364E-3,1.0843154E-2,-9.758078E-4,4.289204E-3,2.0594681E-4,2.4614078E-3,3.316459E-3,1.7916685E-3],"categories":[],"categories_nodes":[],"categories_segments":[],"categories_sizes":[],"default_left":[0,0,0,0,0,0,0,0,0,0,0,0,0],"id":12,"left_children":[1,3,5,7,-1,9,11,-1,-1,-1,-1,-1,-1],"loss_changes":[3.8183566E-2,1.0931525E-2,1.6688578E-2,4.7964286E-3,0E0,9.196749E-3,2.0906106E-3,0E0,0E0,0E0,0E0,0E0,0E0],"parents":[2147483647,0,0,1,1,2,2,3,3,5,5,6,6],"right_children":[2,4,6,8,-1,10,12,-1,-1,-1,-1,-1,-1],"split_conditions":[3.5710797E-2,1.172913E-1,1.769634E-1,1.7563393E-2,-8.371248E-3,2.6757885E-2,2.2890454E-8,-9.758078E-4,4.289204E-3,2.0594681E-4,2.4614078E-3,3.316459E-3,1.7916685E-3],"split_indices":[4,1,0,11,0,11,8,0,0,0,0,0,0],"split_type":[0,0,0,0,0,0,0,0,0,0,0,0,0],"sum_hessian":[3.361E3,1.05E3,2.311E3,1.043E3,7E0,2.105E3,2.06E2,1.037E3,6E0,2.031E3,7.4E1,4.9E1,1.57E2],"tree_param":{"num_deleted":"0","num_feature":"13","num_nodes":"13","size_leaf_vector":"1"}},{"base_weights":[3.3792342E-6,-3.0156344E-3,2.6248875E-3,-3.877471E-3,9.584745E-5,1.7612972E-3,1.1058909E-2,-7.640933E-4,-2.6484702E-3,1.0002932E-4,-4.498699E-3,1.725092E-4,1.812394E-3,1.9183652E-3,5.8418815E-3],"categories":[],"categories_nodes":[],"categories_segments":[],"categories_sizes":[],"default_left":[0,0,0,0,0,0,0,0,0,0,0,0,0,0,0],"id":13,"left_children":[1,3,5,7,9,11,13,-1,-1,-1,-1,-1,-1,-1,-1],"loss_changes":[2.661602E-2,4.191695E-3,1.3090893E-2,6.028302E-4,3.1164195E-3,1.07136555E-2,4.166752E-3,0E0,0E0,0E0,0E0,0E0,0E0,0E0,0E0],"parents":[2147483647,0,0,1,1,2,2,3,3,4,4,5,5,6,6],"right_children":[2,4,6,8,10,12,14,-1,-1,-1,-1,-1,-1,-1,-1],"split_conditions":[8.330616E-2,1.9391123E-6,5.935315E-2,8.330616E-2,1.2920846E-1,1.7855555E-1,4.1685334E-1,-7.640933E-4,-2.6484702E-3,1.0002932E-4,-4.498699E-3,1.725092E-4,1.812394E-3,1.9183652E-3,5.8418815E-3],"split_indices":[5,6,12,0,2,0,12,0,0,0,0,0,0,0,0],"split_type":[0,0,0,0,0,0,0,0,0,0,0,0,0,0,0],"sum_hessian":[3.361E3,1.562E3,1.799E3,1.223E3,3.39E2,1.633E3,1.66E2,1.217E3,6E0,3.34E2,5E0,1.455E3,1.78E2,1.55E2,1.1E1],"tree_param":{"num_deleted":"0","num_feature":"13","num_nodes":"15","size_leaf_vector":"1"}},{"base_weights":[3.277605E-6,-2.963726E-3,1.7540186E-3,-3.0110432E-3,2.5009427E-3,1.3991415E-3,1.0212856E-2,-5.8362767E-4,-2.838602E-3,1.5476072E-4,1.3752294E-3,-9.4907416E-4,2.32322E-3],"categories":[],"categories_nodes":[],"categories_segments":[],"categories_sizes":[],"default_left":[0,0,0,0,0,0,0,0,0,0,0,0,0],"id":14,"left_children":[1,3,5,7,-1,9,11,-1,-1,-1,-1,-1,-1],"loss_changes":[1.7468955E-2,9.5109455E-4,6.334617E-3,1.2519658E-3,0E0,6.9508124E-3,1.8392755E-3,0E0,0E0,0E0,0E0,0E0,0E0],"parents":[2147483647,0,0,1,1,2,2,3,3,5,5,6,6],"right_children":[2,4,6,8,-1,10,12,-1,-1,-1,-1,-1,-1],"split_conditions":[7.425765E-2,4.5383923E-2,2.3218906E-2,2.7812077E-2,2.5009427E-3,1.769634E-1,5.9505153E-2,-5.8362767E-4,-2.838602E-3,1.5476072E-4,1.3752294E-3,-9.4907416E-4,2.32322E-3],"split_indices":[5,11,11,11,0,0,3,0,0,0,0,0,0],"split_type":[0,0,0,0,0,0,0,0,0,0,0,0,0],"sum_hessian":[3.361E3,1.247E3,2.114E3,1.244E3,3E0,2.03E3,8.4E1,1.235E3,9E0,1.823E3,2.07E2,7E0,7.7E1],"tree_param":{"num_deleted":"0","num_feature":"13","num_nodes":"13","size_leaf_vector":"1"}},{"base_weights":[3.2103792E-6,-1.2628139E-3,2.9401835E-3,-2.7385505E-3,-1.2505676E-4,1.9694564E-3,1.0286212E-2,-5.3121295E-4,-1.5528013E-3,2.165343E-3,-6.527456E-5,6.2337675E-4,-4.027045E-4,2.7344553E-3,-2.0397156E-5],"categories":[],"categories_nodes":[],"categories_segments":[],"categories_sizes":[],"default_left":[0,0,0,0,0,0,0,0,0,0,0,0,0,0,0],"id":15,"left_children":[1,3,5,7,9,11,13,-1,-1,-1,-1,-1,-1,-1,-1],"loss_changes":[1.2504568E-2,3.945378E-3,7.2034337E-3,4.034415E-4,2.9314645E-3,4.101155E-3,4.1520577E-3,0E0,0E0,0E0,0E0,0E0,0E0,0E0,0E0],"parents":[2147483647,0,0,1,1,2,2,3,3,4,4,5,5,6,6],"right_children":[2,4,6,8,10,12,14,-1,-1,-1,-1,-1,-1,-1,-1],"split_conditions":[9.110039E-2,2.2192365E-2,6.7534335E-3,3.625512E-5,5.984189E-2,1.7337273E-1,1.3882378E-1,-5.3121295E-4,-1.5528013E-3,2.165343E-3,-6.527456E-5,6.2337675E-4,-4.027045E-4,2.7344553E-3,-2.0397156E-5],"split_indices":[5,5,11,10,9,4,9,0,0,0,0,0,0,0,0],"split_type":[0,0,0,0,0,0,0,0,0,0,0,0,0,0,0],"sum_hessian":[3.361E3,2.349E3,1.012E3,1.022E3,1.327E3,8.95E2,1.17E2,1.007E3,1.5E1,2.3E1,1.304E3,6.95E2,2E2,8.8E1,2.9E1],"tree_param":{"num_deleted":"0","num_feature":"13","num_nodes":"15","size_leaf_vector":"1"}},{"base_weights":[3.4463555E-6,-1.1665784E-3,2.0853141E-3,2.7975538E-3,-1.460588E-3,9.063674E-4,6.410688E-3,-4.0692273E-3,7.8217965E-4,-2.9869305E-4,4.1954755E-3,-1.6361497E-5,1.0062736E-3,-1.420142E-3,1.4898604E-3],"categories":[],"categories_nodes":[],"categories_segments":[],"categories_sizes":[],"default_left":[0,0,0,0,0,0,0,0,0,0,0,0,0,0,0],"id":16,"left_children":[1,3,5,7,9,11,13,-1,-1,-1,-1,-1,-1,-1,-1],"loss_changes":[8.191716E-3,2.5133917E-3,6.164446E-3,3.9188396E-3,1.5104185E-3,3.8809748E-3,3.687474E-3,0E0,0E0,0E0,0E0,0E0,0E0,0E0,0E0],"parents":[2147483647,0,0,1,1,2,2,3,3,4,4,5,5,6,6],"right_children":[2,4,6,8,10,12,14,-1,-1,-1,-1,-1,-1,-1,-1],"split_conditions":[8.7860346E-2,-1.105933E-2,8.2517986E-4,3.5710797E-2,1.7254468E-3,1.769634E-1,7.948298E-2,-4.0692273E-3,7.8217965E-4,-2.9869305E-4,4.1954755E-3,-1.6361497E-5,1.0062736E-3,-1.420142E-3,1.4898604E-3],"split_indices":[5,11,11,4,6,0,9,0,0,0,0,0,0,0,0],"split_type":[0,0,0,0,0,0,0,0,0,0,0,0,0,0,0],"sum_hessian":[3.361E3,2.152E3,1.209E3,1.48E2,2.004E3,9.51E2,2.58E2,6E0,1.42E2,2.002E3,2E0,7.68E2,1.83E2,1.8E1,2.4E2],"tree_param":{"num_deleted":"0","num_feature":"13","num_nodes":"15","size_leaf_vector":"1"}},{"base_weights":[3.2536634E-6,-1.4134496E-3,1.2334225E-3,-1.3668918E-3,-3.8435322E-3,9.548163E-4,1.0965547E-2,4.2182556E-4,-3.264089E-4,-2.9383553E-3,2.1787679E-4,3.0686918E-3,1.4070366E-4],"categories":[],"categories_nodes":[],"categories_segments":[],"categories_sizes":[],"default_left":[0,0,0,0,0,0,0,0,0,0,0,0,0],"id":17,"left_children":[1,3,5,7,-1,9,11,-1,-1,-1,-1,-1,-1],"loss_changes":[5.860985E-3,1.2693435E-3,4.8701055E-3,1.4412559E-3,0E0,3.7027807E-3,2.2355192E-3,0E0,0E0,0E0,0E0,0E0,0E0],"parents":[2147483647,0,0,1,1,2,2,3,3,5,5,6,6],"right_children":[2,4,6,8,-1,10,12,-1,-1,-1,-1,-1,-1],"split_conditions":[8.330616E-2,1.8442225E-3,2.3384382E-1,-1.105933E-2,-3.8435322E-3,3.5710797E-2,1.166747E-1,4.2182556E-4,-3.264089E-4,-2.9383553E-3,2.1787679E-4,3.0686918E-3,1.4070366E-4],"split_indices":[5,8,12,11,0,4,0,0,0,0,0,0,0],"split_type":[0,0,0,0,0,0,0,0,0,0,0,0,0],"sum_hessian":[3.361E3,1.562E3,1.799E3,1.559E3,3E0,1.75E3,4.9E1,1.1E2,1.449E3,1.4E1,1.736E3,3.4E1,1.5E1],"tree_param":{"num_deleted":"0","num_feature":"13","num_nodes":"13","size_leaf_vector":"1"}},{"base_weights":[1.6343045E-6,-2.1051714E-4,5.685877E-3,4.2324173E-5,-5.7305903E-3,9.993173E-3,2.065173E-3,-1.1574217E-4,7.005326E-4,3.6911024E-5,-2.296798E-3,-1.4080097E-3,2.1537535E-3,1.3829587E-3,-1.0751107E-3],"categories":[],"categories_nodes":[],"categories_segments":[],"categories_sizes":[],"default_left":[0,0,0,0,0,0,0,0,0,0,0,0,0,0,0],"id":18,"left_children":[1,3,5,7,9,11,13,-1,-1,-1,-1,-1,-1,-1,-1],"loss_changes":[4.0555014E-3,4.52511E-3,1.8664105E-3,6.6660494E-3,4.8346915E-3,8.0241077E-4,2.4548457E-3,0E0,0E0,0E0,0E0,0E0,0E0,0E0,0E0],"parents":[2147483647,0,0,1,1,2,2,3,3,4,4,5,5,6,6],"right_children":[2,4,6,8,10,12,14,-1,-1,-1,-1,-1,-1,-1,-1],"split_conditions":[1.8094935E-1,1.7855555E-1,9.0156245E-5,9.598861E-2,1.20423056E-1,1.01179376E-1,1.20730415E-1,-1.1574217E-4,7.005326E-4,3.6911024E-5,-2.296798E-3,-1.4080097E-3,2.1537535E-3,1.3829587E-3,-1.0751107E-3],"split_indices":[5,4,10,5,5,4,4,0,0,0,0,0,0,0,0],"split_type":[0,0,0,0,0,0,0,0,0,0,0,0,0,0,0],"sum_hessian":[3.361E3,3.241E3,1.2E2,3.1E3,1.41E2,5.4E1,6.6E1,2.629E3,4.71E2,7E1,7.1E1,2E0,5.2E1,4E1,2.6E1],"tree_param":{"num_deleted":"0","num_feature":"13","num_nodes":"15","size_leaf_vector":"1"}},{"base_weights":[1.1236333E-6,-1.4535551E-3,6.743629E-4,-1.2183887E-3,-6.468645E-3,4.8600187E-4,5.7610753E-3,-2.594747E-4,3.1319016E-3,1.1702076E-4,-3.0314536E-3,2.0313205E-3,8.084767E-5],"categories":[],"categories_nodes":[],"categories_segments":[],"categories_sizes":[],"default_left":[0,0,0,0,0,0,0,0,0,0,0,0,0],"id":19,"left_children":[1,3,5,7,-1,9,11,-1,-1,-1,-1,-1,-1],"loss_changes":[3.2935445E-3,7.6897163E-3,2.1999604E-3,1.4294015E-3,0E0,3.447386E-3,1.9266764E-3,0E0,0E0,0E0,0E0,0E0,0E0],"parents":[2147483647,0,0,1,1,2,2,3,3,5,5,6,6],"right_children":[2,4,6,8,-1,10,12,-1,-1,-1,-1,-1,-1],"split_conditions":[4.715825E-2,1.172913E-1,1.833236E-1,5.728222E-4,-6.468645E-3,1.8521692E-1,1.8464634E-1,-2.594747E-4,3.1319016E-3,1.1702076E-4,-3.0314536E-3,2.0313205E-3,8.084767E-5],"split_indices":[4,1,5,6,0,1,1,0,0,0,0,0,0],"split_type":[0,0,0,0,0,0,0,0,0,0,0,0,0],"sum_hessian":[3.361E3,1.063E3,2.298E3,1.056E3,7E0,2.217E3,8.1E1,1.052E3,4E0,2.204E3,1.3E1,4.4E1,3.7E1],"tree_param":{"num_deleted":"0","num_feature":"13","num_nodes":"13","size_leaf_vector":"1"}},{"base_weights":[-4.0833962E-7,-3.5898527E-4,2.2511764E-3,-5.955997E-4,2.6450327E-3,4.6287122E-4,5.4673203E-3,-7.177955E-5,-2.6172572E-3,1.6191046E-3,1.3681225E-4,6.326677E-4,-3.7093798E-4,-4.582898E-3,1.2629569E-3],"categories":[],"categories_nodes":[],"categories_segments":[],"categories_sizes":[],"default_left":[0,0,0,0,0,0,0,0,0,0,0,0,0,0,0],"id":20,"left_children":[1,3,5,7,9,11,13,-1,-1,-1,-1,-1,-1,-1,-1],"loss_changes":[2.7151739E-3,2.0635887E-3,2.6546377E-3,7.948476E-3,2.2603725E-3,1.8708993E-3,4.113374E-3,0E0,0E0,0E0,0E0,0E0,0E0,0E0,0E0],"parents":[2147483647,0,0,1,1,2,2,3,3,4,4,5,5,6,6],"right_children":[2,4,6,8,10,12,14,-1,-1,-1,-1,-1,-1,-1,-1],"split_conditions":[1.594138E-3,1.7527401E-1,9.1173835E-2,1.6378242E-1,2.2890454E-8,1.4638948E-1,5.4799326E-2,-7.177955E-5,-2.6172572E-3,1.6191046E-3,1.3681225E-4,6.326677E-4,-3.7093798E-4,-4.582898E-3,1.2629569E-3],"split_indices":[11,0,7,2,8,12,3,0,0,0,0,0,0,0,0],"split_type":[0,0,0,0,0,0,0,0,0,0,0,0,0,0,0],"sum_hessian":[3.361E3,2.9E3,4.61E2,2.689E3,2.11E2,2.97E2,1.64E2,2.64E3,4.9E1,5.5E1,1.56E2,1.37E2,1.6E2,4E0,1.6E2],"tree_param":{"num_deleted":"0","num_feature":"13","num_nodes":"15","size_leaf_vector":"1"}},{"base_weights":[-1.5141416E-6,5.4083277E-5,-1.1631704E-2,-4.2579755E-5,8.046764E-3,-3.5252369E-3,-4.9109887E-3,-1.7025687E-4,1.7107553E-4,-6.014669E-4,3.1082937E-3,1.436209E-3,-1.0627939E-3],"categories":[],"categories_nodes":[],"categories_segments":[],"categories_sizes":[],"default_left":[0,0,0,0,0,0,0,0,0,0,0,0,0],"id":21,"left_children":[1,3,5,7,9,11,-1,-1,-1,-1,-1,-1,-1],"loss_changes":[2.1745272E-3,2.5862237E-3,1.589627E-3,2.402939E-3,3.360627E-3,2.4881726E-4,0E0,0E0,0E0,0E0,0E0,0E0,0E0],"parents":[2147483647,0,0,1,1,2,2,3,3,4,4,5,5],"right_children":[2,4,6,8,10,12,-1,-1,-1,-1,-1,-1,-1],"split_conditions":[2.4779718E-3,8.7870605E-4,3.123859E-4,8.503387E-2,-3.7662676E-1,1.962502E-3,-4.9109887E-3,-1.7025687E-4,1.7107553E-4,-6.014669E-4,3.1082937E-3,1.436209E-3,-1.0627939E-3],"split_indices":[10,6,6,0,12,2,0,0,0,0,0,0,0],"split_type":[0,0,0,0,0,0,0,0,0,0,0,0,0],"sum_hessian":[3.361E3,3.346E3,1.5E1,3.307E3,3.9E1,1E1,5E0,1.74E3,1.567E3,1.6E1,2.3E1,1E0,9E0],"tree_param":{"num_deleted":"0","num_feature":"13","num_nodes":"13","size_leaf_vector":"1"}},{"base_weights":[-1.8153709E-6,4.9835944E-5,-1.0167903E-2,-7.0164046E-5,5.3567295E-3,-1.6553264E-2,2.944568E-3,3.924322E-6,-1.5428549E-3,1.5891524E-3,5.9148157E-4,-6.573172E-3,-1.3483281E-3],"categories":[],"categories_nodes":[],"categories_segments":[],"categories_sizes":[],"default_left":[0,0,0,0,0,0,0,0,0,0,0,0,0],"id":22,"left_children":[1,3,5,7,9,11,-1,-1,-1,-1,-1,-1,-1],"loss_changes":[1.7658654E-3,2.1311997E-3,2.9456294E-3,2.2465142E-3,4.361833E-4,2.0191735E-3,0E0,0E0,0E0,0E0,0E0,0E0,0E0],"parents":[2147483647,0,0,1,1,2,2,3,3,4,4,5,5],"right_children":[2,4,6,8,10,12,-1,-1,-1,-1,-1,-1,-1],"split_conditions":[1.8742639E-1,1.833236E-1,1.2643104E-4,1.8302059E-1,1.5072654E-1,1.8094935E-1,2.944568E-3,3.924322E-6,-1.5428549E-3,1.5891524E-3,5.9148157E-4,-6.573172E-3,-1.3483281E-3],"split_indices":[3,5,6,1,4,5,0,0,0,0,0,0,0],"split_type":[0,0,0,0,0,0,0,0,0,0,0,0,0],"sum_hessian":[3.361E3,3.345E3,1.6E1,3.272E3,7.3E1,1.3E1,3E0,3.235E3,3.7E1,3.4E1,3.9E1,4E0,9E0],"tree_param":{"num_deleted":"0","num_feature":"13","num_nodes":"13","size_leaf_vector":"1"}},{"base_weights":[-2.7426318E-6,-2.7838335E-4,1.7280722E-3,-2.016276E-4,-6.3812607E-3,1.9130562E-3,-1.5562089E-2,-1.2842544E-4,2.0223267E-4,4.4928692E-4,-2.8438023E-3,8.043969E-5,9.4490306E-4,-4.6208655E-3,1.4606863E-3],"categories":[],"categories_nodes":[],"categories_segments":[],"categories_sizes":[],"default_left":[0,0,0,0,0,0,0,0,0,0,0,0,0,0,0],"id":23,"left_children":[1,3,5,7,9,11,13,-1,-1,-1,-1,-1,-1,-1,-1],"loss_changes":[1.6044342E-3,1.3576314E-3,1.5074345E-3,1.5317638E-3,2.4663243E-3,1.9435534E-3,1.031027E-3,0E0,0E0,0E0,0E0,0E0,0E0,0E0,0E0],"parents":[2147483647,0,0,1,1,2,2,3,3,4,4,5,5,6,6],"right_children":[2,4,6,8,10,12,14,-1,-1,-1,-1,-1,-1,-1,-1],"split_conditions":[1.594138E-3,1.8521692E-1,1.8742639E-1,9.273854E-2,7.62244E-6,9.130268E-2,1.3243996E-1,-1.2842544E-4,2.0223267E-4,4.4928692E-4,-2.8438023E-3,8.043969E-5,9.4490306E-4,-4.6208655E-3,1.4606863E-3],"split_indices":[11,4,3,0,8,7,0,0,0,0,0,0,0,0,0],"split_type":[0,0,0,0,0,0,0,0,0,0,0,0,0,0,0],"sum_hessian":[3.361E3,2.9E3,4.61E2,2.865E3,3.5E1,4.57E2,4E0,2.102E3,7.63E2,1.7E1,1.8E1,2.98E2,1.59E2,3E0,1E0],"tree_param":{"num_deleted":"0","num_feature":"13","num_nodes":"15","size_leaf_vector":"1"}},{"base_weights":[-3.5191792E-6,4.2197455E-5,-9.566648E-3,-2.6241303E-4,1.6653633E-3,-3.5275286E-3,-4.429441E-3,-4.3049335E-5,-1.702384E-3,6.9988956E-4,-1.0235264E-3,1.2719721E-3,-1.0009103E-3],"categories":[],"categories_nodes":[],"categories_segments":[],"categories_sizes":[],"default_left":[0,0,0,0,0,0,0,0,0,0,0,0,0],"id":24,"left_children":[1,3,5,7,9,11,-1,-1,-1,-1,-1,-1,-1],"loss_changes":[1.4702501E-3,1.6553054E-3,1.1374827E-3,1.0950387E-3,6.5989783E-3,2.0707502E-4,0E0,0E0,0E0,0E0,0E0,0E0,0E0],"parents":[2147483647,0,0,1,1,2,2,3,3,4,4,5,5],"right_children":[2,4,6,8,10,12,-1,-1,-1,-1,-1,-1,-1],"split_conditions":[2.4779718E-3,1.5031495E-4,1.172913E-1,1.8643275E-1,1.5072654E-1,1.962502E-3,-4.429441E-3,-4.3049335E-5,-1.702384E-3,6.9988956E-4,-1.0235264E-3,1.2719721E-3,-1.0009103E-3],"split_indices":[10,8,1,3,4,2,0,0,0,0,0,0,0],"split_type":[0,0,0,0,0,0,0,0,0,0,0,0,0],"sum_hessian":[3.361E3,3.346E3,1.5E1,2.818E3,5.28E2,1.1E1,4E0,2.803E3,1.5E1,4.16E2,1.12E2,1E0,1E1],"tree_param":{"num_deleted":"0","num_feature":"13","num_nodes":"13","size_leaf_vector":"1"}},{"base_weights":[-4.667998E-6,-1.06363026E-4,3.5319885E-3,3.7958114E-5,-5.1469184E-3,6.401305E-3,-8.938531E-3,-3.3646436E-5,8.4054976E-4,-2.9014447E-5,-2.0073752E-3,1.0017663E-3,3.0459997E-3,1.582343E-3,-3.2055979E-3],"categories":[],"categories_nodes":[],"categories_segments":[],"categories_sizes":[],"default_left":[0,0,0,0,0,0,0,0,0,0,0,0,0,0,0],"id":25,"left_children":[1,3,5,7,9,11,13,-1,-1,-1,-1,-1,-1,-1,-1],"loss_changes":[1.2095539E-3,2.378258E-3,3.4207138E-3,2.7306397E-3,2.2242959E-3,8.703326E-4,2.2770725E-3,0E0,0E0,0E0,0E0,0E0,0E0,0E0,0E0],"parents":[2147483647,0,0,1,1,2,2,3,3,4,4,5,5,6,6],"right_children":[2,4,6,8,10,12,14,-1,-1,-1,-1,-1,-1,-1,-1],"split_conditions":[1.7908497E-1,1.7855555E-1,1.8643275E-1,4.1318344E-4,1.7833377E-1,1.3931391E-4,3.1888776E-6,-3.3646436E-5,8.4054976E-4,-2.9014447E-5,-2.0073752E-3,1.0017663E-3,3.0459997E-3,1.582343E-3,-3.2055979E-3],"split_indices":[9,3,1,8,4,8,10,0,0,0,0,0,0,0,0],"split_type":[0,0,0,0,0,0,0,0,0,0,0,0,0,0,0],"sum_hessian":[3.361E3,3.268E3,9.3E1,3.178E3,9E1,7.6E1,1.7E1,3.029E3,1.49E2,4.5E1,4.5E1,6.7E1,9E0,5E0,1.2E1],"tree_param":{"num_deleted":"0","num_feature":"13","num_nodes":"15","size_leaf_vector":"1"}},{"base_weights":[-3.3785957E-6,-7.906196E-4,4.1607814E-4,-5.221504E-4,-4.488204E-3,3.564502E-4,1.4852811E-2,-1.4429513E-4,1.93366E-3,-4.4843392E-4,-2.7843616E-3,-1.735255E-3,8.9614616E-5,5.258807E-3,9.4997184E-4],"categories":[],"categories_nodes":[],"categories_segments":[],"categories_sizes":[],"default_left":[0,0,0,0,0,0,0,0,0,0,0,0,0,0,0],"id":26,"left_children":[1,3,5,7,9,11,13,-1,-1,-1,-1,-1,-1,-1,-1],"loss_changes":[1.1105068E-3,1.158108E-3,1.8833722E-3,2.2230295E-3,1.6426524E-3,1.8130301E-3,9.1541815E-4,0E0,0E0,0E0,0E0,0E0,0E0,0E0,0E0],"parents":[2147483647,0,0,1,1,2,2,3,3,4,4,5,5,6,6],"right_children":[2,4,6,8,10,12,14,-1,-1,-1,-1,-1,-1,-1,-1],"split_conditions":[6.638491E-2,8.072048E-2,4.1685334E-1,2.6261326E-4,3.37491E-4,3.5710797E-2,7.3469505E-2,-1.4429513E-4,1.93366E-3,-4.4843392E-4,-2.7843616E-3,-1.735255E-3,8.9614616E-5,5.258807E-3,9.4997184E-4],"split_indices":[0,2,12,8,6,4,1,0,0,0,0,0,0,0,0],"split_type":[0,0,0,0,0,0,0,0,0,0,0,0,0,0,0],"sum_hessian":[3.361E3,1.168E3,2.193E3,1.09E3,7.8E1,2.185E3,8E0,1.07E3,2E1,6.4E1,1.4E1,2.1E1,2.164E3,3E0,5E0],"tree_param":{"num_deleted":"0","num_feature":"13","num_nodes":"15","size_leaf_vector":"1"}},{"base_weights":[-1.7755152E-6,3.3085464E-5,-7.294146E-3,-3.6958358E-5,4.6525146E-3,-2.7613665E-3,-4.0404284E-3,-3.56715E-5,3.8651194E-4,-2.0895079E-3,1.5554932E-3,8.931078E-4,-8.962615E-4],"categories":[],"categories_nodes":[],"categories_segments":[],"categories_sizes":[],"default_left":[0,0,0,0,0,0,0,0,0,0,0,0,0],"id":27,"left_children":[1,3,5,7,9,11,-1,-1,-1,-1,-1,-1,-1],"loss_changes":[8.549262E-4,1.0831355E-3,8.8035996E-4,9.187985E-4,2.440602E-3,1.8159952E-4,0E0,0E0,0E0,0E0,0E0,0E0,0E0],"parents":[2147483647,0,0,1,1,2,2,3,3,4,4,5,5],"right_children":[2,4,6,8,10,12,-1,-1,-1,-1,-1,-1,-1],"split_conditions":[2.4779718E-3,9.7275106E-4,1.172913E-1,1.7527401E-1,2.2192365E-2,2.9934978E-2,-4.0404284E-3,-3.56715E-5,3.8651194E-4,-2.0895079E-3,1.5554932E-3,8.931078E-4,-8.962615E-4],"split_indices":[10,8,0,0,4,2,0,0,0,0,0,0,0],"split_type":[0,0,0,0,0,0,0,0,0,0,0,0,0],"sum_hessian":[3.361E3,3.346E3,1.5E1,3.297E3,4.9E1,1.2E1,3E0,3.077E3,2.2E2,8E0,4.1E1,2E0,1E1],"tree_param":{"num_deleted":"0","num_feature":"13","num_nodes":"13","size_leaf_vector":"1"}},{"base_weights":[-2.6760908E-6,3.2816533E-5,-6.9883023E-3,-5.1589344E-5,3.3932114E-3,-1.838233E-2,8.977421E-4,2.2622768E-5,-6.064638E-4,-3.2356747E-3,9.2085946E-4,1.1626348E-3,-4.676755E-3,1.5560183E-3,-2.6182781E-3],"categories":[],"categories_nodes":[],"categories_segments":[],"categories_sizes":[],"default_left":[0,0,0,0,0,0,0,0,0,0,0,0,0,0,0],"id":28,"left_children":[1,3,5,7,9,11,13,-1,-1,-1,-1,-1,-1,-1,-1],"loss_changes":[8.3379756E-4,9.4922475E-4,1.5440171E-3,1.6032478E-3,2.0181253E-3,9.830217E-4,1.1609112E-3,0E0,0E0,0E0,0E0,0E0,0E0,0E0,0E0],"parents":[2147483647,0,0,1,1,2,2,3,3,4,4,5,5,6,6],"right_children":[2,4,6,8,10,12,14,-1,-1,-1,-1,-1,-1,-1,-1],"split_conditions":[1.8742639E-1,1.7908497E-1,1.2920846E-1,1.7527401E-1,1.769634E-1,-3.4574496E-3,1.8421853E-1,2.2622768E-5,-6.064638E-4,-3.2356747E-3,9.2085946E-4,1.1626348E-3,-4.676755E-3,1.5560183E-3,-2.6182781E-3],"split_indices":[3,9,4,4,0,11,4,0,0,0,0,0,0,0,0],"split_type":[0,0,0,0,0,0,0,0,0,0,0,0,0,0,0],"sum_hessian":[3.361E3,3.345E3,1.6E1,3.264E3,8.1E1,6E0,1E1,3.094E3,1.7E2,4E0,7.7E1,1E0,5E0,7E0,3E0],"tree_param":{"num_deleted":"0","num_feature":"13","num_nodes":"15","size_leaf_vector":"1"}},{"base_weights":[-4.362698E-6,-7.3124294E-4,2.971553E-4,-4.4749197E-4,-8.912066E-3,-3.2861365E-4,1.171166E-3,-1.2013563E-4,3.14076E-3,-6.1283685E-4,-3.7781023E-3,-3.9152037E-5,-1.0334178E-3,2.714675E-4,-1.5889269E-3],"categories":[],"categories_nodes":[],"categories_segments":[],"categories_sizes":[],"default_left":[0,0,0,0,0,0,0,0,0,0,0,0,0,0,0],"id":29,"left_children":[1,3,5,7,9,11,13,-1,-1,-1,-1,-1,-1,-1,-1],"loss_changes":[7.3705835E-4,2.28483E-3,1.3004346E-3,2.3697764E-3,1.8677576E-3,8.899208E-4,1.6943085E-3,0E0,0E0,0E0,0E0,0E0,0E0,0E0,0E0],"parents":[2147483647,0,0,1,1,2,2,3,3,4,4,5,5,6,6],"right_children":[2,4,6,8,10,12,14,-1,-1,-1,-1,-1,-1,-1,-1],"split_conditions":[-2.1073935E-3,1.3221704E-3,8.684473E-2,9.7275106E-4,1.172913E-1,5.2180225E-1,1.8643275E-1,-1.2013563E-4,3.14076E-3,-6.1283685E-4,-3.7781023E-3,-3.9152037E-5,-1.0334178E-3,2.714675E-4,-1.5889269E-3],"split_indices":[12,10,5,8,7,12,3,0,0,0,0,0,0,0,0],"split_type":[0,0,0,0,0,0,0,0,0,0,0,0,0,0,0],"sum_hessian":[3.361E3,9.85E2,2.376E3,9.53E2,3.2E1,1.385E3,9.91E2,9.45E2,8E0,2.1E1,1.1E1,1.349E3,3.6E1,9.72E2,1.9E1],"tree_param":{"num_deleted":"0","num_feature":"13","num_nodes":"15","size_leaf_vector":"1"}},{"base_weights":[-4.6094074E-6,-1.9533354E-4,9.924625E-4,7.035645E-4,-4.6078998E-4,2.4427094E-3,-3.5540538E-3,3.167089E-5,9.3156047E-4,-5.964744E-5,-5.2861014E-4,-7.072608E-6,1.1882745E-3,3.465388E-3,-8.696311E-4],"categories":[],"categories_nodes":[],"categories_segments":[],"categories_sizes":[],"default_left":[0,0,0,0,0,0,0,0,0,0,0,0,0,0,0],"id":30,"left_children":[1,3,5,7,9,11,13,-1,-1,-1,-1,-1,-1,-1,-1],"loss_changes":[6.395309E-4,6.7394355E-4,3.5692102E-3,1.3876555E-3,7.725287E-4,3.5548857E-3,2.2475338E-3,0E0,0E0,0E0,0E0,0E0,0E0,0E0,0E0],"parents":[2147483647,0,0,1,1,2,2,3,3,4,4,5,5,6,6],"right_children":[2,4,6,8,10,12,14,-1,-1,-1,-1,-1,-1,-1,-1],"split_conditions":[1.5031495E-4,1.4908104E-13,1.3973081E-1,1.3973081E-1,1.0911084E-1,9.108572E-2,8.800225E-5,3.167089E-5,9.3156047E-4,-5.964744E-5,-5.2861014E-4,-7.072608E-6,1.1882745E-3,3.465388E-3,-8.696311E-4],"split_indices":[8,8,4,3,0,7,10,0,0,0,0,0,0,0,0],"split_type":[0,0,0,0,0,0,0,0,0,0,0,0,0,0,0],"sum_hessian":[3.361E3,2.822E3,5.39E2,6.43E2,2.179E3,4.09E2,1.3E2,5.66E2,7.7E1,2.029E3,1.5E2,2.4E2,1.69E2,4E0,1.26E2],"tree_param":{"num_deleted":"0","num_feature":"13","num_nodes":"15","size_leaf_vector":"1"}},{"base_weights":[-2.4525248E-6,3.5108947E-5,-4.3206424E-3,-2.4571933E-5,4.4981698E-3,2.0073338E-3,-1.0360575E-2,2.3659384E-5,-3.052215E-4,-8.94963E-4,1.3866721E-3,-3.026918E-4,3.3189983E-3,-1.3031078E-3,-3.349508E-3],"categories":[],"categories_nodes":[],"categories_segments":[],"categories_sizes":[],"default_left":[0,0,0,0,0,0,0,0,0,0,0,0,0,0,0],"id":31,"left_children":[1,3,5,7,9,11,13,-1,-1,-1,-1,-1,-1,-1,-1],"loss_changes":[5.4546E-4,8.881528E-4,1.1291932E-3,7.0617464E-4,9.924665E-4,7.955176E-4,2.592525E-4,0E0,0E0,0E0,0E0,0E0,0E0,0E0,0E0],"parents":[2147483647,0,0,1,1,2,2,3,3,4,4,5,5,6,6],"right_children":[2,4,6,8,10,12,14,-1,-1,-1,-1,-1,-1,-1,-1],"split_conditions":[2.1089285E-3,9.7275106E-4,4.0246032E-5,4.1150558E-4,-3.7662676E-1,1.230469E-3,1.166747E-1,2.3659384E-5,-3.052215E-4,-8.94963E-4,1.3866721E-3,-3.026918E-4,3.3189983E-3,-1.3031078E-3,-3.349508E-3],"split_indices":[10,8,6,10,12,8,0,0,0,0,0,0,0,0,0],"split_type":[0,0,0,0,0,0,0,0,0,0,0,0,0,0,0],"sum_hessian":[3.361E3,3.333E3,2.8E1,3.29E3,4.3E1,1.4E1,1.4E1,3.005E3,2.85E2,9E0,3.4E1,1.2E1,2E0,1E1,4E0],"tree_param":{"num_deleted":"0","num_feature":"13","num_nodes":"15","size_leaf_vector":"1"}},{"base_weights":[-2.388439E-6,1.481123E-3,-1.2204108E-4,1.46769285E-2,2.1315742E-5,-7.391676E-3,-5.8398113E-5,1.1577626E-3,7.341022E-3,1.702015E-4,-2.1946866E-3,-2.2657893E-3,2.4396211E-3,1.7602073E-3,-1.97482E-5],"categories":[],"categories_nodes":[],"categories_segments":[],"categories_sizes":[],"default_left":[0,0,0,0,0,0,0,0,0,0,0,0,0,0,0],"id":32,"left_children":[1,3,5,7,9,11,13,-1,-1,-1,-1,-1,-1,-1,-1],"loss_changes":[5.969561E-4,4.8347837E-3,1.4393696E-3,4.6822475E-3,2.0800896E-3,2.2207093E-3,1.1038523E-3,0E0,0E0,0E0,0E0,0E0,0E0,0E0,0E0],"parents":[2147483647,0,0,1,1,2,2,3,3,4,4,5,5,6,6],"right_children":[2,4,6,8,10,12,14,-1,-1,-1,-1,-1,-1,-1,-1],"split_conditions":[-1.105933E-2,7.785666E-2,-6.5461714E-3,8.127094E-2,1.3221704E-3,1.8048473E-1,-5.21859E-3,1.1577626E-3,7.341022E-3,1.702015E-4,-2.1946866E-3,-2.2657893E-3,2.4396211E-3,1.7602073E-3,-1.97482E-5],"split_indices":[11,2,11,9,10,2,11,0,0,0,0,0,0,0,0],"split_type":[0,0,0,0,0,0,0,0,0,0,0,0,0,0,0],"sum_hessian":[3.361E3,2.5E2,3.111E3,2.4E1,2.26E2,2.6E1,3.085E3,1.8E1,6E0,2.11E2,1.5E1,2.2E1,4E0,1.3E1,3.072E3],"tree_param":{"num_deleted":"0","num_feature":"13","num_nodes":"15","size_leaf_vector":"1"}},{"base_weights":[5.8563637E-7,-2.5934086E-4,6.0357346E-4,-2.9783702E-4,2.239311E-2,1.1742117E-3,-2.538806E-3,-4.3805554E-5,-1.6502951E-3,9.33113E-4,5.3494205E-3,-3.7338883E-5,5.6933344E-4,2.0821214E-4,-1.626215E-3],"categories":[],"categories_nodes":[],"categories_segments":[],"categories_sizes":[],"default_left":[0,0,0,0,0,0,0,0,0,0,0,0,0,0,0],"id":33,"left_children":[1,3,5,7,9,11,13,-1,-1,-1,-1,-1,-1,-1,-1],"loss_changes":[5.2709127E-4,2.0559449E-3,1.8194544E-3,1.4693401E-3,1.8395204E-4,1.9533862E-3,3.1315188E-3,0E0,0E0,0E0,0E0,0E0,0E0,0E0,0E0],"parents":[2147483647,0,0,1,1,2,2,3,3,4,4,5,5,6,6],"right_children":[2,4,6,8,10,12,14,-1,-1,-1,-1,-1,-1,-1,-1],"split_conditions":[8.4160514E-5,1.6100921E-4,1.566739E-1,1.8421853E-1,9.143335E-2,9.077632E-2,1.6378242E-1,-4.3805554E-5,-1.6502951E-3,9.33113E-4,5.3494205E-3,-3.7338883E-5,5.6933344E-4,2.0821214E-4,-1.626215E-3],"split_indices":[10,8,9,4,0,7,4,0,0,0,0,0,0,0,0],"split_type":[0,0,0,0,0,0,0,0,0,0,0,0,0,0,0],"sum_hessian":[3.361E3,2.349E3,1.012E3,2.346E3,3E0,8.57E2,1.55E2,2.324E3,2.2E1,1E0,2E0,4.73E2,3.84E2,9.5E1,6E1],"tree_param":{"num_deleted":"0","num_feature":"13","num_nodes":"15","size_leaf_vector":"1"}},{"base_weights":[1.5689127E-6,-1.0361859E-4,1.4616204E-3,2.4495252E-5,-1.38347335E-2,7.880541E-3,6.2404067E-4,1.38351315E-5,-1.3759704E-3,-4.025414E-3,2.6683061E-5,-9.306054E-4,4.1544065E-3,5.9804396E-4,-8.975567E-4],"categories":[],"categories_nodes":[],"categories_segments":[],"categories_sizes":[],"default_left":[0,0,0,0,0,0,0,0,0,0,0,0,0,0,0],"id":34,"left_children":[1,3,5,7,9,11,13,-1,-1,-1,-1,-1,-1,-1,-1],"loss_changes":[5.1648467E-4,5.51878E-3,1.2101389E-3,9.5956837E-4,2.5515622E-3,4.2976392E-3,2.4446133E-3,0E0,0E0,0E0,0E0,0E0,0E0,0E0,0E0],"parents":[2147483647,0,0,1,1,2,2,3,3,4,4,5,5,6,6],"right_children":[2,4,6,8,10,12,14,-1,-1,-1,-1,-1,-1,-1,-1],"split_conditions":[1.7527401E-1,1.6378242E-1,-1.6783291E-1,1.8048473E-1,9.651533E-4,1.7833377E-1,1.1006008E-5,1.38351315E-5,-1.3759704E-3,-4.025414E-3,2.6683061E-5,-9.306054E-4,4.1544065E-3,5.9804396E-4,-8.975567E-4],"split_indices":[2,2,12,1,10,1,8,0,0,0,0,0,0,0,0],"split_type":[0,0,0,0,0,0,0,0,0,0,0,0,0,0,0],"sum_hessian":[3.361E3,3.136E3,2.25E2,3.108E3,2.8E1,2.5E1,2E2,3.089E3,1.9E1,1.9E1,9E0,1.3E1,1.2E1,1.37E2,6.3E1],"tree_param":{"num_deleted":"0","num_feature":"13","num_nodes":"15","size_leaf_vector":"1"}},{"base_weights":[5.304429E-7,-1.6613546E-4,8.718218E-4,1.6115926E-4,-7.4041553E-4,2.261586E-3,-1.5020852E-3,-5.2868345E-6,8.384807E-4,-1.3482606E-4,-3.4982373E-3,2.2615459E-5,1.2965779E-3,-7.367701E-4,6.8270374E-4],"categories":[],"categories_nodes":[],"categories_segments":[],"categories_sizes":[],"default_left":[0,0,0,0,0,0,0,0,0,0,0,0,0,0,0],"id":35,"left_children":[1,3,5,7,9,11,13,-1,-1,-1,-1,-1,-1,-1,-1],"loss_changes":[4.883562E-4,5.3072715E-4,1.7849494E-3,1.3605774E-3,1.1262954E-3,3.0919688E-3,2.1575135E-3,0E0,0E0,0E0,0E0,0E0,0E0,0E0,0E0],"parents":[2147483647,0,0,1,1,2,2,3,3,4,4,5,5,6,6],"right_children":[2,4,6,8,10,12,14,-1,-1,-1,-1,-1,-1,-1,-1],"split_conditions":[1.5031495E-4,2.0123955E-5,1.1504744E-1,5.02173E-6,1.835283E-1,9.077632E-2,1.7833377E-1,-5.2868345E-6,8.384807E-4,-1.3482606E-4,-3.4982373E-3,2.2615459E-5,1.2965779E-3,-7.367701E-4,6.8270374E-4],"split_indices":[8,10,3,8,9,7,2,0,0,0,0,0,0,0,0],"split_type":[0,0,0,0,0,0,0,0,0,0,0,0,0,0,0],"sum_hessian":[3.361E3,2.822E3,5.39E2,1.798E3,1.024E3,3.4E2,1.99E2,1.719E3,7.9E1,1.021E3,3E0,2.26E2,1.14E2,1.38E2,6.1E1],"tree_param":{"num_deleted":"0","num_feature":"13","num_nodes":"15","size_leaf_vector":"1"}},{"base_weights":[-3.124927E-8,-5.8949387E-5,2.357413E-3,-2.2229386E-5,-8.626236E-3,5.964471E-3,8.501792E-4,3.0752106E-4,-2.9608023E-5,2.982236E-3,-2.7583474E-3,9.598732E-5,1.28825E-3,8.639676E-4,-1.0363025E-3],"categories":[],"categories_nodes":[],"categories_segments":[],"categories_sizes":[],"default_left":[0,0,0,0,0,0,0,0,0,0,0,0,0,0,0],"id":36,"left_children":[1,3,5,7,9,11,13,-1,-1,-1,-1,-1,-1,-1,-1],"loss_changes":[4.671081E-4,1.0319806E-3,4.407369E-4,6.4155285E-4,1.9078065E-3,5.966646E-5,1.2571302E-3,0E0,0E0,0E0,0E0,0E0,0E0,0E0,0E0],"parents":[2147483647,0,0,1,1,2,2,3,3,4,4,5,5,6,6],"right_children":[2,4,6,8,10,12,14,-1,-1,-1,-1,-1,-1,-1,-1],"split_conditions":[1.833236E-1,1.8521692E-1,9.831343E-2,-1.105933E-2,1.23249225E-1,1.5746021E-1,1.8464634E-1,3.0752106E-4,-2.9608023E-5,2.982236E-3,-2.7583474E-3,9.598732E-5,1.28825E-3,8.639676E-4,-1.0363025E-3],"split_indices":[5,1,4,11,4,1,1,0,0,0,0,0,0,0,0],"split_type":[0,0,0,0,0,0,0,0,0,0,0,0,0,0,0],"sum_hessian":[3.361E3,3.28E3,8.1E1,3.267E3,1.3E1,2.3E1,5.8E1,2.43E2,3.024E3,2E0,1.1E1,2E0,2.1E1,3.7E1,2.1E1],"tree_param":{"num_deleted":"0","num_feature":"13","num_nodes":"15","size_leaf_vector":"1"}},{"base_weights":[4.849831E-7,-5.431603E-4,2.259935E-4,-8.1963436E-4,3.201293E-3,-4.0876554E-4,6.342414E-4,-9.492948E-5,-3.2606132E-3,1.5517747E-3,-6.3908286E-4,-5.1452E-5,-4.0741493E-3,1.3331408E-3,1.0556636E-4],"categories":[],"categories_nodes":[],"categories_segments":[],"categories_sizes":[],"default_left":[0,0,0,0,0,0,0,0,0,0,0,0,0,0,0],"id":37,"left_children":[1,3,5,7,9,11,13,-1,-1,-1,-1,-1,-1,-1,-1],"loss_changes":[4.1229263E-4,1.0233747E-3,6.1623263E-4,4.9011754E-3,2.0072313E-3,2.8104298E-3,9.2517387E-4,0E0,0E0,0E0,0E0,0E0,0E0,0E0,0E0],"parents":[2147483647,0,0,1,1,2,2,3,3,4,4,5,5,6,6],"right_children":[2,4,6,8,10,12,14,-1,-1,-1,-1,-1,-1,-1,-1],"split_conditions":[-2.1073935E-3,1.7527401E-1,8.088551E-2,1.5125784E-1,1.8048473E-1,9.213632E-2,6.574051E-2,-9.492948E-5,-3.2606132E-3,1.5517747E-3,-6.3908286E-4,-5.1452E-5,-4.0741493E-3,1.3331408E-3,1.0556636E-4],"split_indices":[12,2,9,7,4,7,3,0,0,0,0,0,0,0,0],"split_type":[0,0,0,0,0,0,0,0,0,0,0,0,0,0,0],"sum_hessian":[3.361E3,9.85E2,2.376E3,9.18E2,6.7E1,9.3E2,1.446E3,8.99E2,1.9E1,3.9E1,2.8E1,9.24E2,6E0,2.4E1,1.422E3],"tree_param":{"num_deleted":"0","num_feature":"13","num_nodes":"15","size_leaf_vector":"1"}}]},"name":"gbtree"},"learner_model_param":{"base_score":"7.034276E-2","boost_from_average":"1","num_class":"0","num_feature":"13","num_target":"1"},"objective":{"name":"reg:squarederror","reg_loss_param":{"scale_pos_weight":"1"}}},"version":[2,1,1]}